0.0,0.0,0.0,0.0,0.0,0.0,0.0
-2.4219082126563327,-1.6944534290935163,-1.9201992504179624,-1.4179015739236782,0.7585301586786236,0.22113501994568424,0.12795725622055
-2.438571635463658,-1.6928186608365146,-1.9294505290870019,-1.4067805704464813,0.756145036836445,0.21799509815418788,0.13260779134605227
-2.4333302275615414,-1.6883325243879765,-1.9307064781524912,-1.399297971815091,0.7572010048473994,0.2179169866157389,0.13236234426347324
-2.4278145191290084,-1.6839240661434736,-1.9319688477778443,-1.3916515041625646,0.7581469781254961,0.21785298539836212,0.13220493343614703
-2.4220204599074213,-1.6797335813379468,-1.9330381888029087,-1.3840754519189118,0.7588319379729539,0.21779869097908877,0.13217221047537012
-2.4159530515560803,-1.6759071671748937,-1.9337008839711425,-1.3768333498347032,0.7590972779390219,0.21775054294974874,0.13230073438907222
-2.4096269454774526,-1.6725732062186534,-1.933757792120545,-1.370187373529049,0.7587982244603572,0.21770744861787275,0.13262117701174614
-2.4030676231359713,-1.6698173878364424,-1.933057673958172,-1.3643660981977042,0.7578288592900899,0.21767255156888357,0.13315220683155593
-2.3963130736313225,-1.667659833832485,-1.9315252294609735,-1.3595343060792855,0.756143742205993,0.21765464980780888,0.13389479654749478
-2.3894136970245667,-1.666040219708757,-1.9291805882709359,-1.3557738387458116,0.7537722629812125,0.21766895829160887,0.13482892292906978
-2.3824302468411473,-1.6648145153049716,-1.9261407761550087,-1.3530781333228967,0.7508202255949442,0.21773641416393233,0.13591353694669991
-2.375428935457617,-1.6637657135123327,-1.9226048264815165,-1.3513619842874054,0.7474579988996691,0.21788175535875878,0.13709082542729253
-2.3684727768279843,-1.6626266615037308,-1.918823381459263,-1.3504829329452734,0.7438965466350634,0.21812994958300996,0.13829412566275756
-2.36161027919218,-1.6611098418949384,-1.9150581407184901,-1.350268796451952,0.7403562439188465,0.21850149512494335,0.13945822717795983
-2.354865695716354,-1.6589385152105276,-1.9115412071576918,-1.350545767678213,0.737034913654293,0.21900720814143113,0.14053000732888568
-2.3482281677945043,-1.6558714950190827,-1.9084388318212646,-1.3511604142042983,0.7340812321018607,0.21964319245579056,0.14147712548272992
-2.3416488760345113,-1.6517193277178888,-1.9058289877868808,-1.3519943128860796,0.7315784280102303,0.22038730004409238,0.14229338407474748
-2.3350400997836096,-1.646347563064347,-1.9036937995115677,-1.3529688649854648,0.7295401179970069,0.22119777075701225,0.14299959394194856
-2.3282823043420233,-1.6396704967002622,-1.9019281232719851,-1.3540438516306843,0.727918310733959,0.2220150221852783,0.14364023768513012
-2.3212349566157644,-1.6316358306688319,-1.9003604884849223,-1.3552098785574336,0.7266204769309356,0.22276633506910148,0.14427622470351428
-2.3137512705868812,-1.6222064087168901,-1.8987833541289865,-1.3564778206078638,0.7255329364227291,0.2233729535719673,0.14497517824092732
-2.3056958691531286,-1.6113422662952972,-1.8969855750007518,-1.3578677798199095,0.7245457183174691,0.22375815882046268,0.14580061372204037
-2.2969616958218046,-1.5989876653655004,-1.8947821503546938,-1.3593980531836947,0.7235753327001775,0.22385471408915725,0.146801895513511
-2.2874847271624117,-1.5850629136019085,-1.892035699233887,-1.361075613105491,0.7225812573814024,0.22361015959881134,0.14800641376319723
-2.2772513489218467,-1.569462657425645,-1.888667229895194,-1.3628897126151343,0.7215741239938961,0.22298943507390115,0.14941539362445408
-2.2663002475575382,-1.5520583491464233,-1.8846576920680485,-1.3648093233121161,0.7206147229340397,0.2219747835251816,0.15100413711182673
-2.254713379055388,-1.5327035377967966,-1.8800386112622172,-1.366784987495585,0.7198036761614098,0.22056359919374802,0.1527264381824351
-2.2426025929832174,-1.5112430451137189,-1.8748785659050997,-1.3687546352804216,0.7192639691351017,0.21876537836295845,0.15452257306841066
-2.230092207227408,-1.4875265385338468,-1.869267557662599,-1.3706508497757837,0.7191190214267572,0.2165989300757435,0.1563289684332293
-2.2173039411574442,-1.4614278834203087,-1.863301988079348,-1.3724081277464453,0.7194697191296083,0.21409059868979016,0.15808734805111652
-2.204347540089622,-1.4328686330664542,-1.8570748115101559,-1.37396846913341,0.7203754357127069,0.21127393571389608,0.15975201662021246
-2.191317243444919,-1.4018400651837049,-1.850669978538312,-1.3752833477076682,0.7218408499555709,0.20819005714042674,0.16129362262014707
-2.1782936405241395,-1.36841788705013,-1.8441609375042216,-1.3763146726397522,0.7238128560544752,0.20488769085372924,0.16269992472762732
-2.165345753766115,-1.3327606571269235,-1.8376105932025686,-1.377032846051963,0.7261868686350653,0.2014216248028902,0.163973667756561
-2.1525314959094044,-1.2950939894144113,-1.8310713689208395,-1.3774166978189488,0.7288221348504315,0.19784899891616656,0.16512882625299052
-2.1398977793854215,-1.2556849992187769,-1.824585706991062,-1.3774538198983906,0.731563488303367,0.19422392968012256,0.16618612008876274
-2.127477849281308,-1.2148187986783054,-1.8181856286483138,-1.377141868980109,0.7342641606728952,0.19059160803087655,0.16716838063708642
-2.115290289155603,-1.1727868948960851,-1.8118918883276336,-1.376489965318882,0.7368053570188472,0.18698359767764852,0.16809637274052117
-2.10334250778062,-1.1298926612183386,-1.8057160364159859,-1.3755202746182225,0.7391099494282155,0.18341565857238606,0.1689857646308408
-2.0916330800408014,-1.0864652725020985,-1.7996607684403187,-1.3742674413363323,0.7411469920760528,0.1798882704346522,0.1698451109898645
-2.0801602050956984,-1.0428729715170808,-1.793722559505278,-1.3727768281457189,0.7429292807755987,0.17638992309347767,0.17067555018923827
-2.0689238501243694,-0.9995227616327556,-1.787891117413886,-1.371099782151266,0.7445036526640509,0.17290210829530223,0.17147187885927917
-2.0579316734550983,-0.9568448774021703,-1.7821492825724068,-1.3692890102235018,0.7459379256534333,0.1694058958079997,0.17222501560038847
-2.047200840237167,-0.9152679271278391,-1.7764708636962856,-1.3673913668115036,0.7473053912432658,0.16588916694203898,0.17292499063390107
-2.0367614211971086,-0.8751968081968227,-1.770818613514404,-1.3654419469067731,0.7486700509288867,0.16235438184872167,0.17356399144448048
-2.026661158786851,-0.8370046014567103,-1.7651424348037499,-1.3634587703426424,0.7500739379183693,0.15882594666957398,0.1741386603329797
-2.016969193872597,-0.8010389694797057,-1.7593802020531162,-1.3614401224112669,0.7515290120131353,0.15535565816694458,0.17465128455387413
-2.0077793860892754,-0.7676370498788297,-1.7534588721496782,-1.3593632601857395,0.7530136813882617,0.15202474666878277,0.17510961291308563
-1.999206029746897,-0.7371366023062411,-1.7472989908270176,-1.3571863792499679,0.7544754151197494,0.14894082075535758,0.17552554099161274
-1.9913763528712534,-0.7098745620561642,-1.740821167720633,-1.35485240847898,0.7558384117516547,0.1462295009151866,0.1759129187001481
-1.9844143383853443,-0.6861703615481256,-1.7339542090712965,-1.3522938962538924,0.757014506204747,0.1440217887711325,0.17628454574351837
-1.9784245126046172,-0.6663009611781389,-1.7266450996727492,-1.3494391362426883,0.7579152953293694,0.14243966159135582,0.1766492247145988
-1.9734743751515724,-0.6504765562572974,-1.7188696659468379,-1.3462166335682297,0.7584620536322213,0.1415828694080499,0.17700877268379944
-1.9695843260596921,-0.6388269932645184,-1.710641083016441,-1.3425597064211776,0.7585930709222463,0.14151974186217808,0.17735602867799036
-1.9667234884366136,-0.6314028068277203,-1.7020144124114087,-1.3384091184880167,0.7582660431404437,0.14228314092197863,0.1776740381834815
-1.9648157570074667,-0.6281902357714956,-1.6930843680308543,-1.3337143395017108,0.7574573460078525,0.14387192555360548,0.1779372406026049
-1.9637527093964011,-0.6291352503849317,-1.6839747956175062,-1.3284351007294146,0.756158514487459,0.14625641438108797,0.17811461005174542
-1.9634124987078383,-0.6341698084664393,-1.6748223086074125,-1.3225434572227526,0.7543723668265436,0.1493859445786191,0.17817486154030193
-1.9636796758676407,-0.6432336536064548,-1.6657553926784323,-1.3160272703282656,0.7521088512293103,0.1531958320280464,0.17809263746781198
-1.9644630620004797,-0.6562871954211187,-1.6568755591889353,-1.3088946302815523,0.7493824940816415,0.15761203822347217,0.1778550371992642
-1.9657089079782062,-0.6733150809454781,-1.6482444097735227,-1.3011805895686848,0.7462114091168992,0.16255274239242087,0.17746695407920027
-1.9674047622176094,-0.6943210223324102,-1.6398771481606473,-1.2929502032593458,0.7426169014908068,0.1679276996598972,0.17695394915074883
-1.9695775791548287,-0.7193194661762874,-1.6317458253252712,-1.2842980256293275,0.7386239894716644,0.17363772154757356,0.17636194517906936
-1.972282104446119,-0.7483251833889227,-1.6237875747441337,-1.2753393768572536,0.7342607404929664,0.1795761255773421,0.17575306090372106
-1.9755835693164527,-0.7813415407079839,-1.6159187842491587,-1.2661945779695583,0.7295572090995078,0.18563346705020706,0.17519798187998872
-1.9795360676846563,-0.8183423477156475,-1.6080516670419562,-1.2569671742812347,0.7245447783279997,0.191704718172095,0.17476585120688903
-1.98415554945927,-0.8592430659088733,-1.6001111066839144,-1.247720635953851,0.7192554869938753,0.19769647653372105,0.1745132899010409
-1.9893947707123054,-0.9038610152618111,-1.5920507928979768,-1.2384593683862726,0.7137232544890375,0.20353211874953053,0.1744745757071702
-1.995123008855574,-0.9518727376185713,-1.583866421085706,-1.2291188584554102,0.70798645228213,0.20915330504061577,0.17465495414261303
-2.001116052130082,-1.002783293808474,-1.5756009551436898,-1.2195664602864071,0.7020905704453048,0.21451795327475334,0.1750283088527976
-2.007061338967593,-1.0559245474166334,-1.5673429574098847,-1.2096147905644692,0.6960892875074719,0.21959630246424083,0.17553986877210107
-2.0125831161648065,-1.1104926910835002,-1.5592153870629002,-1.1990478372838342,0.6900440777097584,0.22436682330003488,0.17611409499102593
-2.0172803266583283,-1.1656171608356503,-1.5513563183073535,-1.1876565076472132,0.684020907271354,0.22881258533616922,0.1766659899817111
-2.0207747915420744,-1.2204440013135378,-1.543896456039845,-1.1752817554970825,0.6780863067265994,0.23291864142842778,0.17711445916544957
-2.0227571663878923,-1.2742053049771744,-1.5369378672075455,-1.1618588805421326,0.6723044418939346,0.2366693381313413,0.1773948025867961
-2.0230212571848614,-1.3262576310542544,-1.530537696292073,-1.1474558041800484,0.6667359786439208,0.2400452482625217,0.17746848718362443
-2.021481995250382,-1.3760830193052587,-1.5247021120773256,-1.132296635323643,0.6614394103387801,0.24301970923153463,0.17732845483851606
-2.0181712419995823,-1.4232625817071956,-1.5193880443740158,-1.1167595627066003,0.6564727789249413,0.24555558373423214,0.17699918863805375
-2.0132168777213093,-1.467439447965241,-1.5145148988352317,-1.101345742549463,0.6518951281843512,0.2476033905694085,0.17653203573178933
-2.006807380144298,-1.5082838142042712,-1.50998180886382,-1.0866181339984036,0.6477656127133142,0.24910099568790656,0.17599652810900696
-1.999149765937779,-1.545466433643871,-1.50568886462594,-1.0731205664765056,0.6441411870560755,0.24997503870028906,0.17546951588378248
-1.9904307370710521,-1.5786359009515962,-1.5015592497453354,-1.061291179066076,0.6410730831019011,0.25014331373964394,0.17502428244434204
-1.9807842323544997,-1.6073955331552245,-1.4975573379582643,-1.051388923166398,0.6386035589204705,0.2495171136347906,0.17472115067539265
-1.9702731538818243,-1.631281125401626,-1.4937023049472744,-1.0434483931327314,0.636765125876678,0.24800345817337058,0.17460137195958306
-1.9588832932287676,-1.6497458931190192,-1.4900721528343264,-1.0372712831822186,0.6355809598331136,0.24550747601316464,0.17468453841604845
-1.9465306127834,-1.6621666378777864,-1.4867981409943416,-1.032459418699254,0.635068178266977,0.24193636416343747,0.17496957479175734
-1.9330777665876442,-1.6678819994176435,-1.4840485448464396,-1.0284842032360904,0.6352417581430303,0.23720631526678396,0.17543836023473103
-1.9183579879447685,-1.6662670602202614,-1.4820041164666822,-1.0247827809676746,0.6361185355018811,0.23125361056369606,0.17606091007425864
-1.9022046534619466,-1.6568348851447006,-1.4808282909188666,-1.0208661600838995,0.6377204753020198,0.22405015627051858,0.17680073064309174
-1.8844817120952175,-1.6393472171661594,-1.4806385670620934,-1.0164219128456369,0.6400761022557927,0.21562163468202072,0.17761938493114657
-1.865111666619759,-1.6139083633725846,-1.4814829117071695,-1.0113922161551034,0.6432199551684024,0.20606457392975344,0.17847943271167693
-1.8440965718229412,-1.5810153647790506,-1.4833280987232191,-1.0060144649070661,0.647190187599311,0.19555679774539184,0.17934619921028197
-1.82152331735479,-1.5415411447773015,-1.4860603640250143,-1.000811526792485,0.6520240181029193,0.18435521215003237,0.18018840822899168
-1.797555228124121,-1.4966448325870727,-1.4895016618058514,-0.9965310178954613,0.6577516118216019,0.17277748226520123,0.18097904148885832
-1.7724085733315567,-1.4476159008552376,-1.4934372617148264,-0.99403745973844,0.6643867586642886,0.16116786175749145,0.18169642284261722
-1.7463228894641285,-1.3956830240127553,-1.4976494602191133,-0.994174578331831,0.6719144007261135,0.14985298757733795,0.18232608284035942
-1.7195349728388967,-1.3418280150212878,-1.5019516446986374,-0.997619688993631,0.6802749164986505,0.13909701825039644,0.18286280549463826
-1.6922630590775452,-1.286645959965814,-1.5062148848192325,-1.0047575133026474,0.689346482647646,0.12906636079059022,0.18331255635183705
-1.6647046183610181,-1.2302797079430208,-1.5103826942808705,-1.0155975633243246,0.6989311062802128,0.11981181776322988,0.18369341362145739
-1.6370431715406493,-1.172442219464985,-1.514473323351796,-1.0297541607845013,0.7087491719338648,0.11127204320733555,0.18403531621389813
-1.6094562214883192,-1.1125218786448459,-1.5185683374356458,-1.0464974368539188,0.7184492130163876,0.10329834021671641,0.18437805655091313
-1.5821191261360914,-1.049763051888329,-1.5227919222565436,-1.064870693717819,0.7276349436770628,0.09569786720214836,0.18476772426129626
-1.5552040302012329,-0.9835048945673389,-1.52728349338096,-1.0838559556771756,0.7359076328725961,0.08829003760543384,0.18525193803097578
-1.5288756845506892,-0.9134564147756811,-1.5321658214805376,-1.102556287454228,0.7429157696896717,0.08096896321047319,0.18587433255752267
-1.5032915455990041,-0.8399767604746735,-1.5375152619094696,-1.1203605439663755,0.7484014307760204,0.07376285793344774,0.18666928716338987
-1.4786086325650438,-0.7643140500441555,-1.5433368075374108,-1.1370575037776882,0.7522342936717942,0.06687961148814847,0.18765770912598645
-1.4549947237884697,-0.6887445741746864,-1.5495504768182915,-1.1528768595588281,0.7544260643391837,0.060726828199238976,0.18884464412257415
-1.4326389232667736,-0.6165566040423297,-1.5559918663517232,-1.1684472131793018,0.7551232512500494,0.05589577814782262,0.1902192727230223
-1.4117550287069345,-0.5518439061049308,-1.562429194340878,-1.184671423135305,0.7545804431706583,0.05310306890134534,0.19175722330804149
-1.392575195843882,-0.4991180947018707,-1.5685961293570259,-1.202533249871321,0.753119923907374,0.05309157431776792,0.19342479014155847
-1.3753353268173696,-0.4627980149417936,-1.5742328500931715,-1.2228580995021696,0.7510847227112109,0.056501737529401075,0.19518393078718355
-1.3602581732946468,-0.44667388856369267,-1.5791279879672377,-1.2460622972327813,0.7487936623943298,0.06373341543160597,0.19699668590188738
-1.3475402964327643,-0.4534542224715589,-1.5831516471597327,-1.271931562138583,0.7465053126437016,0.07482400429191138,0.19882825915734142
-1.3373473136404483,-0.4844849104627163,-1.5862745522506077,-1.2994744170604162,0.7443950262575335,0.08936945947563196,0.20064842342812866
-1.3298162373680533,-0.5396907885377085,-1.58856833708348,-1.3268899889070946,0.7425463163263235,0.10651095864779693,0.20243153783731205
-1.325060745717208,-0.6177430222819847,-1.5901885485129768,-1.35167790677377,0.7409535365916057,0.12500020317513427,0.20415620590517172
-1.3231747192111856,-0.7164073113331059,-1.5913419115110603,-1.3708913810126913,0.7395331764847562,0.14334153783767983,0.20580499990918438
-1.3242306048409247,-0.8329908776006884,-1.592245048227155,-1.3815031445169923,0.7381388174163592,0.15999144289384215,0.20736495932729143
-1.3282698627480771,-0.9647833334873007,-1.5930786565959614,-1.3808188311424612,0.7365759274041899,0.1735806617173037,0.2088282376895581
-1.3352881617008427,-1.1094024830103446,-1.5939460733264148,-1.3668594679773898,0.7346137950499132,0.1831178508989669,0.21019282317772872
-1.3452190720007542,-1.2649890999193603,-1.5948433357390268,-1.338630418804848,0.7319949546043305,0.18813694899063824,0.21146274190739248
-1.3579209117946212,-1.4302492829842994,-1.5956446075343156,-1.2962098965757358,0.7284423591823415,0.18876321625994066,0.2126475132505209
-1.3731730034969938,-1.6043803867528783,-1.596111392469644,-1.2406233754765303,0.7236697911361991,0.1856882702238217,0.2137612800742911
-1.390680443465405,-1.7869237360310708,-1.5959222279367873,-1.1735006252979605,0.7173974777548452,0.18006114911742044,0.2148213966448978
-1.4100873081842868,-1.9775780509124867,-1.5947234657971898,-1.0965600497477048,0.7093766564333409,0.17331728523048895,0.21584722364677894
-1.430988089957506,-2.1759800716885946,-1.5921924958118134,-1.0110001281003318,0.699422496354421,0.16697881450771448,0.21685875994007686
-1.4529327587297547,-2.381454648601916,-1.5881025334422387,-0.9169056926859367,0.6874515119464485,0.16246368011605086,0.21787532547145447
-1.4754202957415716,-2.592757586385573,-1.5823779942883347,-0.8127822901482092,0.6735173366252859,0.16093719173750004,0.21891429153906708
-1.4978847101848258,-2.8078632056988315,-1.5751277138539217,-0.6953148380282825,0.6578330679764647,0.16322769088506497,0.21998970469415247
-1.5196860360302868,-3.0238899015859584,-1.5666486497791632,-0.5594240243784456,0.6407722084310699,0.1698137497824528,0.22111129582905956
-1.5401152564397123,-3.237240018863611,-1.5573957146889785,-0.398658663273215,0.6228387029085967,0.18087639671676706,0.22228352989328728
-1.5584211617159922,-3.443982406183678,-1.5479189422870676,-0.205923482938681,0.6046063019087325,0.196399901480026,0.2235048497691272
-1.5738591146968166,-3.640441693167439,-1.5387803966017566,0.025507898474286916,0.5866359654113309,0.2162985301146721,0.2247670037327328
-1.5857452454360947,-3.8238619589014093,-1.530461457562229,0.3008093555833531,0.5693855695577196,0.240544213388443,0.22605376005960887
-1.5935048795681783,-3.9930043322526947,-1.523280922092709,0.6224224374036935,0.5531324224408695,0.2692735679595145,0.22733948712515847
-1.59669813112866,-4.148538031413962,-1.517336465749889,0.9891071559708657,0.5379241602170322,0.30285824359174346,0.22858766143587614
-1.5950117898573946,-4.293141149546839,-1.512479523116121,1.3954636481482887,0.5235695326340103,0.34193075538600065,0.2297502838328682
-1.5882205136786354,-4.431287753891168,-1.5083277241393744,1.8321181849497796,0.5096731276690154,0.38736372317890966,0.23076940592427658
-1.5761178641600182,-4.568746876030491,-1.5043116128444172,2.286636223128999,0.4957115768423182,0.44020395201038004,0.2315814424447133
-1.5584298341148075,-4.711859698145706,-1.4997462942071167,2.7450409046280453,0.48114296296166537,0.5015648527663047,0.23212440064086534
-1.5347228218005287,-4.8666921423996055,-1.4939158070470622,3.1936310711706044,0.46553643672375616,0.5724849903020043,0.23234724650881391
-1.504324195358316,-5.03818992178578,-1.4861552514278311,3.6207107440106268,0.44870321096330407,0.653768074945967,0.23221975301867442
-1.4662686042341655,-5.229461550482959,-1.4759149339489206,4.01787204126958,0.43080644547310154,0.7458298405554177,0.23174049479150186
-1.4192886348166895,-5.441329790898965,-1.4627993375868749,4.380648475976063,0.41242549892071007,0.8485887819543136,0.23094136485223518
-1.3618653014830262,-5.67225418554499,-1.446574824275325,4.708529932937066,0.3945527147927792,0.9614369885441275,0.22988689996402495
-1.2923524018908037,-5.918667984027701,-1.4271497590957585,5.00447122696574,0.37850774819513877,1.0833156109850075,0.22866772921593792
-1.2091851429388156,-6.175691054146069,-1.4045345948876502,5.2740963927062285,0.3657708759932107,1.2128901560618313,0.22738881214507958
-1.1111715208451405,-6.438083024702159,-1.378793651702183,5.524788477363435,0.35775375913455104,1.3487867422122977,0.2261539161866705
-0.9978428825901446,-6.7012262333032515,-1.350002032176708,5.7648102297157235,0.3555452048434729,1.489826590093918,0.2250491331182383
-0.8698161648802799,-6.961940242210447,-1.3182188208990584,6.002564779960725,0.35967873469456346,1.63520017946332,0.22412857382855877
-0.7290856317771811,-7.218972468823699,-1.2834785531988178,6.2460327836618745,0.36996891513909114,1.7845435880844613,0.22340462086675153
-0.5791492492027173,-7.473114074545326,-1.2458000432377503,6.502396291940588,0.3854550018322476,1.937917437985779,0.22284487451966872
-0.4248826298596455,-7.726971254323663,-1.2052073581320646,6.77782142064981,0.4044740695618153,2.0957152887286083,0.22237664719244243
-0.27212107233348165,-7.984453761906355,-1.1617567718014465,7.077321344384992,0.42486279319461445,2.2585279397223323,0.22189839698513206
-0.12698773180759534,-8.250079872022216,-1.1155719445491792,7.404618980815318,0.4442610410261791,2.426981173402318,0.22129663851265044
0.004914307818631394,-8.528166115092063,-1.0668887098022564,7.761930664283644,0.4604665981261431,2.6015465988244446,0.22046585081961442
0.11928301119663677,-8.821997467590643,-1.0161119961935638,8.149626034240073,0.4717757164460999,2.782324337875841,0.2193276641210114
0.21370819550610082,-9.133084501881266,-0.9638767507157329,8.565826994949685,0.4772477509294009,2.968815785038368,0.21784650531301927
0.2879603816232124,-9.4606268913397,-0.9110943154360017,9.006063889065569,0.4768445023065021,3.159730527464027,0.21603837829170872
0.34393039458376723,-9.801305280995772,-0.8589581052539915,9.463185000037193,0.47142027071752884,3.3528918615554297,0.21397128902851825
0.3852398471404881,-10.149466834848125,-0.8088852115731255,9.927648955707348,0.46256128095894017,3.5452913431994273,0.21175658098606975
0.41659522267394833,-10.497670272825273,-0.7623878418627201,10.388226243599641,0.45230107774906464,3.733299363334198,0.20953251114960894
0.44299794683556637,-10.837453014332226,-0.7208900036603398,10.832975142673245,0.442759678476994,3.912982386226025,0.20744300951512695
0.4689415926515991,-11.160095894807684,-0.6855253055361114,11.250224144162884,0.4357689697354538,4.080430976039319,0.20561542065729246
0.49772606005458825,-11.457211589791488,-0.6569597836737068,11.629338081989355,0.4325502844100252,4.232015172709587,0.20414163692985848
0.5309931079692789,-11.72105116158643,-0.6352778886805234,11.961109371320017,0.4334984952676766,4.364513034456126,0.20306584673088268
0.5685493278420838,-11.94459362939971,-0.6199556818220305,12.237831186707426,0.4381088305902969,4.475133235893772,0.20238097767574573
0.6084968961919601,-12.12154868844303,-0.6099255805324243,12.453200228511776,0.4450576532598315,4.56149418446272,0.2020339403350556
0.6476431912731305,-12.246453614461096,-0.6037221635062957,12.602254260859578,0.4524254159000106,4.621633085767851,0.2019387488894995
0.6821128871877522,-12.314964717980814,-0.5996820633487759,12.681503141814327,0.4580238053474818,4.654101003393295,0.20199497626157062
0.7080504533370159,-12.32434219557479,-0.5961628735967197,12.689271279172496,0.45977092111951195,4.65814476432044,0.20210823526319027
0.7222850697840952,-12.274049111451236,-0.5917432634161127,12.62619563605382,0.4560486691314274,4.633949800661398,0.20220938897325086
0.7228455933328355,-12.166286474208022,-0.5853721610014464,12.49571709236673,0.445980582326928,4.582864093465453,0.2022689871984129
0.7092475221421626,-12.006293257058767,-0.5764459721401654,12.304365527215781,0.4295832598153325,4.507531129512628,0.20230462091981904
0.6825234537810927,-11.802264601729307,-0.5648081056901432,12.06168986360269,0.40776807606894067,4.411857858472605,0.20238000817217208
0.645012455219562,-11.564814574451447,-0.5506766972412339,11.779737115376939,0.38219484681127885,4.300791767448276,0.20259548788430964
0.5999700599998679,-11.306048646077242,-0.5345197109632678,11.472143326649574,0.3550056807622532,4.179922971259826,0.2030713217245776
0.5510874556994296,-11.03842607598507,-0.5169026455610664,11.15301621632184,0.32849107653640663,4.0549954697653785,0.20392619611495622
0.5020200417286038,-10.773642882140848,-0.49833806127484603,10.835859920843323,0.3047516511904569,3.9314284437534215,0.20525421737357097
0.45601231518755275,-10.521791417672773,-0.47916313834802826,10.532783160030103,0.28541737017507635,3.813959490787444,0.20710463531996248
0.41566498585428513,-10.29090408408694,-0.4594624090327045,10.254096728261514,0.2714676207492095,3.7064538816441024,0.20946784740723037
0.3828492901440077,-10.086888777334412,-0.4390425944349474,10.008260587098759,0.26317032060878615,3.6118776571123656,0.21227086715913096
0.35873629664823015,-9.913746319150926,-0.4174582391438692,9.802023851693821,0.2601342960518812,3.532379550351171,0.21538389577440778
0.3438916889847478,-9.773911722922566,-0.39407930753830495,9.640578178998089,0.26144959649742805,3.469406748647467,0.21863729511508195
0.33838939447743493,-9.66860390154393,-0.36819035627672864,9.52759298862783,0.26587984600107106,3.423804928886521,0.22184673083701478
0.34190885595416426,-9.598092631734936,-0.33910600183195033,9.465096610254008,0.2720651893411718,3.39586691748105,0.22484117202853404
0.3538005556932728,-9.561875595051426,-0.30628699676393917,9.453248905710906,0.27870002665364363,3.38533921420398,0.22748870642416838
0.37312300402853715,-9.558773370977473,-0.2694392058099035,9.490117007231488,0.2846606857681785,3.391408864240389,0.22971506139162273
0.39866867742566925,-9.586999061576382,-0.22857803833262752,9.571592410072467,0.289074593650969,3.412704732068632,0.23151200803571118
0.4290018346794699,-9.644215248520588,-0.18404582414521004,9.691534494564083,0.29133638229442,3.4473431356402195,0.23293452874817422
0.46252687264476566,-9.727609931377874,-0.13647856567606456,9.842202570658937,0.29108650775437767,3.4930307582055664,0.23408794355690948
0.49759065192748997,-9.833973500668673,-0.08673246584874143,10.014920217708081,0.28817071145391615,3.5472165669503752,0.23510751427040613
0.5326054661481681,-9.959732289396536,-0.035792611280242866,10.20084998140839,0.28259674179127214,3.6072583939191567,0.23613381634250372
0.5661662875399236,-10.10091291004912,0.015309060436302332,10.391703651993753,0.2744993427746115,3.6705649350805856,0.23728818702217072
0.5971369950666883,-10.25302816503373,0.06554604913714283,10.580250946874218,0.2641184152421837,3.7346817709718354,0.23865196521284548
0.6246887177251946,-10.410937659478607,0.11391601839107639,10.76054781111163,0.25178778929814827,3.797315578891477,0.24025292853029498
0.6482900300739571,-10.568769726630295,0.15943945292763978,10.927924472255423,0.23792844523679435,3.856321431363116,0.24206080208942465
0.6676601803429003,-10.7200170781354,0.20116142504560508,11.078816489898594,0.22303853097746626,3.9096919040471456,0.24399273635301819
0.6827023293062212,-10.85786841354875,0.23817640866070142,11.210560265750969,0.20767638380655623,3.955585037605045,0.24592770828768856
0.6934324854897526,-10.975751076787226,0.2696831288364735,11.321214098814346,0.19243721557336985,3.9924007221580573,0.2477269687018616
0.6999154800996702,-11.067997609888613,0.2950605372082993,11.40943479492733,0.17792941722843536,4.018898399711318,0.24925683733211643
0.7022148604525142,-11.13047143625079,0.3139450123888495,11.474400556588888,0.16475682685317683,4.0343173158625385,0.25040910068859734
0.7003594294646054,-11.161032598238323,0.3262874209666942,11.515753136645891,0.1535097869550842,4.038467228894152,0.2511159772437485
0.6943279935567336,-11.159722232922991,0.3323732992276346,11.533544120997906,0.1447609514696204,4.031758303663415,0.2513568194047918
0.6840538940099252,-11.128661855979553,0.3328002987124535,11.528192793580027,0.13905695245069197,4.015155686414043,0.2511570283912857
0.66944938817496,-11.071673913263151,0.32841587205293915,11.500470807847584,0.13689496122421466,3.990060483753766,0.2505792019222267
0.6504523652524996,-10.993737950296572,0.3202286755727181,11.451541790539151,0.13867741010901988,3.958141388948734,0.24970976646893522
0.6270925376083575,-10.900392340857051,0.30931188909594765,11.38307266065856,0.14464471360380882,3.921150252805656,0.24864311296672983
0.5995719347986518,-10.797203075104417,0.2967182405894479,11.297411120493384,0.15479509265142924,3.880759938506492,0.2474666488740656
0.568346609671137,-10.68938860237699,0.2834203244765246,11.197787338378308,0.16880789766311813,3.8384525973986148,0.2462489008240885
0.5341897017876485,-10.581624612366515,0.27028046911544373,11.088469307876759,0.18599182750167761,3.7954706723220375,0.24503216133304212
0.4982140447264327,-10.477986696488294,0.25804388902859543,10.974782084092965,0.20527944092833955,3.752823254963622,0.2438299329974082
0.4618362014395181,-10.381960625788569,0.2473430047739882,10.862900435290893,0.2252829265674275,3.711328359496963,0.24262847711675137
0.42667779401383393,-10.29644607591472,0.23870075659302545,10.759398916118814,0.24441286607832421,3.671671692290962,0.24139140199206546
0.3944187860491286,-10.22371403854452,0.2325252980761376,10.670580360671048,0.2610450894705781,3.6344684323871537,0.24006581363574822
0.36663237776514107,-10.165317257567207,0.22909577206047563,10.601717267331194,0.2737057715024755,3.6003224096129394,0.23858892158090644
0.3446369879905055,-10.121987132344238,0.22854404875377293,10.556343696033526,0.28123944537474244,3.5698795570292163,0.23689392122238112
0.32939315456720286,-10.093565836483082,0.23084067170219325,10.535757711705692,0.28292876487179197,3.5438725474538795,0.2349149295363164
0.3214567322515392,-10.079008068827283,0.235792768153469,10.53883529495616,0.2785476280062275,3.523139948568445,0.2325904416154044
0.3209834766525766,-10.076483966883146,0.24305953495218477,10.562218850529323,0.2683447246164841,3.5086058842488774,0.22986636993488913
0.32776682027001375,-10.083578746760054,0.25218589694508037,10.600847611249163,0.25296874635603356,3.5012045915661147,0.22669897168430966
0.341285439744572,-10.097566856346164,0.2626500838551856,10.648756629426058,0.2333578059431248,3.50174377142448,0.2230590514179537
0.3607394399168162,-10.115708584076547,0.2739154139424763,10.699991798749759,0.21062079041471526,3.5107176590637734,0.21893762453008836
0.3850632244065701,-10.135520431383343,0.285476076400883,10.749473300418561,0.18593630297063124,3.5280992316827824,0.21435329570515776
0.4129181652256007,-10.154978715004033,0.29688839318617016,10.793667425233053,0.16048417560380915,3.5531548849493744,0.20936008860087424
0.4426842251188742,-10.172615787205865,0.307784588358546,10.83094918899227,0.1354087393687204,3.584330864847683,0.20405311375552462
0.4724812333461261,-10.187540843515546,0.3178723994905152,10.861636365252007,0.11179940417774589,3.6192637551458473,0.19856936106410525
0.5002488863504174,-10.19938166026993,0.32692689136520653,10.8876923570816,0.09066713238815942,3.6549432360853347,0.19308093751305888
0.5239008753550214,-10.208186747848872,0.33478089591407845,10.912186326568628,0.07290017452402342,3.688030669883068,0.1877803545286361
0.5415439529883969,-10.21432919653735,0.34131880309446166,10.938592827072755,0.059193603618970456,3.7152967730285873,0.18285969099300267
0.5517274458933288,-10.218396118855193,0.3464733375319248,10.97004377689896,0.049961585875144154,3.7340968397025356,0.17848757150283867
0.5536758317545257,-10.221117810914325,0.35022487617211573,11.008667092664773,0.04525209665707651,3.7428028111483984,0.17478936844116497
0.5474515652404186,-10.223289630991916,0.3525993486069285,11.055097170544544,0.044688245401829314,3.741098370930024,0.17183413883456336
0.5340084707391693,-10.225719789211487,0.3536633761010679,11.108256400407925,0.047459067244139716,3.730076609824914,0.16963101831489638
0.5151120844140452,-10.229162245076612,0.3535147556023939,11.165435784383213,0.05237528033140361,3.7121104000923486,0.16813476448805012
0.4931294236168599,-10.234241845978076,0.3522692636231815,11.222678778799564,0.05799388863408305,3.6905062552831445,0.16725909615514278
0.470717712448845,-10.241353538189523,0.3500448359750651,11.275390890782674,0.06280018037106992,3.668988424197586,0.16689466090913635
0.4504654148918062,-10.250541559611797,0.34694589593336644,11.319073023783783,0.0654208930738076,3.6511027504660816,0.16692850967442677
0.43455097958618183,-10.261373213839859,0.3430503633351046,11.350030277949193,0.06483236992493446,3.6396416159423985,0.16726162716037668
0.4244793368849986,-10.27282197548197,0.33840156041600084,11.365919941520051,0.06052618337542395,3.6361909362784455,0.1678217702615256
0.42093817261503935,-10.283224562609634,0.33300633301372684,11.366067726362697,0.0526006221282378,3.6408814243058205,0.16857032561851037
0.42378857196710634,-10.29031972885093,0.32683927946662306,11.351478233740925,0.04175901025686615,3.652377056904392,0.16950238350063565
0.4321817382194492,-10.291430402730995,0.3198528329332118,11.324589514265625,0.029210841692731176,3.6681126711108862,0.17064068998250034
0.44477122781699985,-10.283783706900788,0.3119930996375096,11.288812787099731,0.016489777805830275,3.6847368854075166,0.1720246296730394
0.4599752008886158,-10.26494128938137,0.30321985582785005,11.247947525920262,0.00521885958661132,3.6986799531261583,0.1736955114838589
0.47623889925266266,-10.233286796359598,0.29353051176425393,11.205599459940501,-0.0031348560516436964,3.7067520530444993,0.17568070711258835
0.49225082519723257,-10.188471158842372,0.2829841073591621,11.164697395795205,-0.007472483953828706,3.706661120839612,0.17797873459458147
0.5070825504373381,-10.131733692026826,0.2717212960286326,11.127176566375269,-0.007206899018599391,3.697367637578808,0.18054820688658083
0.5202398736847814,-10.065981444181281,0.2599733574748164,11.093870221115157,-0.0023173587258932325,3.679218191776437,0.18330310281762668
0.5316320529269618,-9.995611730148307,0.24805533052028433,11.064611485719334,0.006688045472911923,3.6538511890460628,0.18611653248730833
0.5414754715588065,-9.926022346113063,0.2363399826577613,11.038496357637225,0.01888917889511558,3.6238947777687023,0.18883321917540244
0.5501560343575058,-9.862893092466251,0.22521573611243556,11.014266675890514,0.033123357392042696,3.592519479828706,0.191289456265584
0.5580754797929369,-9.811345547977814,0.21503616910621537,10.990737586075248,0.04817274558931284,3.5629350231723267,0.19333684524969352
0.5655069203572721,-9.775134706166057,0.20607215220447253,10.967207073250984,0.06293409657662848,3.5379200827881685,0.19486538504308462
0.5724817964762764,-9.756022246314474,0.19847699221783954,10.943766587986728,0.07654327987901485,3.5194678699992044,0.19582118526685574
0.5787272144994192,-9.753461072790804,0.19227169905819427,10.921471482160152,0.08844057085122801,3.508592817834025,0.196215600679376
0.583666483410206,-9.764660754530778,0.18735318708321524,10.902315584377341,0.09837720792654704,3.505314445243967,0.19612413962765338
0.5864877016882364,-9.7850256811615,0.1835236194095248,10.889007003550567,0.10637388419547131,3.508795502734741,0.1956752869887814
0.5862753294870674,-9.808920191236394,0.18053635573551818,10.884548166283299,0.11264796422980945,3.517593353393696,0.19503145054436438
0.5821868591494409,-9.830622967206848,0.17815137970781494,10.891689304219877,0.1175267862135418,3.529967440407069,0.19436528338885936
0.5736463554260021,-9.845310477041929,0.1761919895631618,10.912326704773402,0.12136312564634205,3.5441801313202097,0.19383578073519536
0.5605191758376892,-9.849881578302242,0.17459412447537545,10.946951785140435,0.12446500868526283,3.5587393887193373,0.19356771166594933
0.5432338484954702,-9.843499907373651,0.17344121649920566,10.994291298744379,0.1270480021327995,3.5725578080504965,0.19363793721506317
0.522818589683279,-9.827734220861284,0.17297849974805876,11.051190692288776,0.1292130087585135,3.5850104789832433,0.19406913306285573
0.5008357458711846,-9.806279580991824,0.1736041063426077,11.11284566403734,0.1309492429896876,3.595909253443438,0.19483117550104623
0.4792139006836352,-9.784301201592749,0.17583759173849994,11.173361286710474,0.13215857575757933,3.605415613451809,0.195848322257629
0.459999268697878,-9.767475658095012,0.18026986828486885,11.226567625045899,0.1326946780741924,3.613911751285255,0.19700922827694695
0.4450704317312645,-9.760928851688236,0.18750337627074726,11.266968361130628,0.13240945387395167,3.621864693515153,0.19817769909242802
0.43586848602676165,-9.768207406688802,0.19809149139309654,11.290628747358431,0.1311976139293725,3.6296971122080284,0.19920118481059926
0.43319366443027635,-9.790500981724149,0.212486691676039,11.295847958649627,0.12903184375832705,3.6376867693504833,0.19991653498676853
0.4371043998666353,-9.826241367863355,0.2310029291314576,11.283475862058387,0.12598224360834986,3.6459051037101826,0.20015386785494968
0.4469347378384415,-9.871168210063853,0.25379301246366287,11.256805811880763,0.12221636899703238,3.654197824686179,0.1997404176617784
0.46142542097388506,-9.91888519013864,0.2808368595247332,11.221066235658776,0.11797971017477811,3.6622128596192276,0.19850755315099636
0.4789415485282325,-9.961816249062926,0.3119307985622535,11.182558425614742,0.11355965637060145,3.6694591313291296,0.19630229447491354
0.49773543192542846,-9.992420152805714,0.3466677668269558,11.147612227795152,0.10923988258607843,3.675389496081905,0.19300397683022957
0.5162043436270923,-10.004438880448413,0.38440178161248006,11.121520066518881,0.10525379370109278,3.6794852989860543,0.18854410524457751
0.5330978514643916,-9.99395631989551,0.42420065714119165,11.107653429732656,0.10174616497176822,3.6813278267758056,0.18292557535577225
0.5476439519840806,-9.960084934768709,0.4648053806263764,11.106904800111916,0.09874993149544824,3.680647411376322,0.1762363067970813
0.5595825987412893,-9.905149421849554,0.5046248601727901,11.117553407024536,0.09618207789407227,3.6773428857240793,0.16865221289034174
0.5691134501215949,-9.834360185753635,0.5417970434037473,11.13560378165135,0.09385947288451185,3.6714831615887342,0.16042594064360613
0.5767760204592951,-9.755011206558631,0.5743321097243662,11.155518183792264,0.09153205267358923,3.663290397684101,0.15186066511487537
0.5832884889830425,-9.675372321542856,0.6003313001253531,11.171253743771901,0.08892849930065773,3.6531219652543965,0.14327294449459663
0.5893748909282286,-9.603473489314817,0.6182475607820506,11.177414275045667,0.08580709557703135,3.6414556385592243,0.13495167333250085
0.5956080159267128,-9.546008470494009,0.6271383173111348,11.170317854281702,0.08200366733200229,3.628885943396806,0.12712183445404968
0.6022911566178859,-9.507536132624857,0.6268548439076719,11.148780835265505,0.07746823166946727,3.6161213353308974,0.11992012986669122
0.6093962739414089,-9.49010038394197,0.618126823246015,11.114498962342731,0.07228389971485116,3.60398473346721,0.1133867205600293
0.6165642541551499,-9.49326845315886,0.6025138926336877,11.071911840198265,0.0666634044745941,3.5933881631576456,0.1074730179697905
0.623167522127074,-9.5145497508786,0.5822258596631549,11.027590937343227,0.06092291186245679,3.5852858265865057,0.10206345922530616
0.6284226826448739,-9.550072908500225,0.5598362378161983,10.989214425209171,0.05543669191148313,3.5805891422945004,0.09700694954476508
0.6315319596485293,-9.595358316805441,0.5379389471749733,10.964295893557047,0.05058077735156613,3.580052173234576,0.09215324949744651
0.6318293401422698,-9.646064455381458,0.518812614885657,10.958905906489731,0.046676457243539166,3.5841513527106024,0.08738922154430448
0.628904100492353,-9.698558425409237,0.5041512049639906,10.97659834575688,0.0439441011818855,3.592975392248287,0.08266966524201619
0.6226805201766094,-9.75024827896313,0.4949039328709708,11.017737290910123,0.042475372546078236,3.606153610910982,0.07803786159177173
0.6134432016841953,-9.799693263390594,0.49124289043535835,11.079369219141936,0.042227861762698195,3.622853098979297,0.07363192351142299
0.6018038433732368,-9.846490547232623,0.49265030519347125,11.155647469117024,0.04304161848937535,3.641844292371464,0.06967432523097976
0.588620149586028,-9.891032851179158,0.4981005373095161,11.238778255123684,0.04467367067838968,3.6616475009183103,0.0664453422655606
0.5748837217448929,-9.93418075544084,0.5062960714917172,11.320306323928484,0.04684335494401727,3.6807289437931487,0.06424409497670382
0.5616014430282661,-9.97691634204609,0.515912167179097,11.392508606193964,0.04927983648297462,3.697714206827986,0.06334407253741643
0.5496930018840435,-10.020018489999005,0.5258072671566865,11.449636954351664,0.05176338417439684,3.7115789008509736,0.06395158918945797
0.5399207327583537,-10.063820811065664,0.5351684922862906,11.488798031915186,0.054153799651510924,3.7217805870280833,0.06617501221858484
0.5328545472702853,-10.108055214930387,0.5435748894755745,11.510298201067013,0.05640240872055305,3.7283036695143457,0.07001025314397435
0.5288679498692199,-10.151839536870755,0.550980327263563,11.517449767235604,0.058547218666684886,3.731622595196899,0.07534507545594367
0.5281503160769871,-10.19377674715329,0.5576259800239362,11.515836857635799,0.060693125074794206,3.7325772447543026,0.08198062495348192
0.5307238908066241,-10.232174777618065,0.5639029434910415,11.512197606785938,0.06298106442599924,3.732195925208795,0.08966537445963915
0.5364532878487833,-10.265313211086076,0.5701888035412433,11.513090288612904,0.0655511705161066,3.7314836384300145,0.09813365663601777
0.5450443347816917,-10.291725167372068,0.5766864440502425,11.523591399223791,0.06850579832809747,3.731219519478503,0.10714053270364433
0.5560347073966748,-10.310412172115264,0.5832911984203348,11.546220564757181,0.07187824840504901,3.731791457673051,0.11648641904280911
0.568786034911785,-10.320972738795021,0.5895129077774263,11.580315275742725,0.07561265749492821,3.7330990939914805,0.12602865738549368
0.5824914034734756,-10.323624397422133,0.5944730533674548,11.621951944559784,0.07955907290350812,3.7345417672201773,0.1356809098501018
0.5962095293874737,-10.319117540631936,0.5969891241638517,11.664472235892775,0.08348555557772794,3.7350998032670613,0.14540364050068533
0.6089317890012231,-10.308595679123847,0.5957453619892749,11.699565563013124,0.08710631098893908,3.7335032875669856,0.15518938919709568
0.6196742227412301,-10.293401142093836,0.5895304497201418,11.71872184071234,0.09012098163496289,3.728457792863179,0.16504513442806543
0.6275809484694962,-10.274893687909872,0.5775079150605036,11.714838779798155,0.09225811204525064,3.7188981435465553,0.17497344767405873
0.6320160599299673,-10.254295171676308,0.5594714567098035,11.683676954801289,0.09331418442933072,3.704221573239762,0.18495360465235589
0.6326268995295649,-10.232584820865558,0.5360323690673995,11.624900006544047,0.09318132700849388,3.6844580542759227,0.19492485631886128
0.629365491830522,-10.210459214596858,0.5086916252447499,11.542492643788075,0.09185909940067681,3.660345207332237,0.2047753486615965
0.6224649836334903,-10.188330921624244,0.479761093119772,11.444437568021712,0.08944912541712664,3.633283595352077,0.21434024351531333
0.6123771958652513,-10.166371141742122,0.4521256958025187,11.341677046507595,0.08613477636419128,3.6051790026611443,0.22341141397288028
0.5996843765692557,-10.144570863966978,0.42886972573390686,11.246493749883669,0.08215060586989197,3.5781902743617158,0.23175763031292224
0.5850034361414251,-10.122813449571018,0.4128257403613552,11.170596497709953,0.07774831790852636,3.5544322971811164,0.23915076363423426
0.568900787532763,-10.100936596632872,0.4061260520808268,11.12324469148201,0.07316595002724514,3.5356849515473963,0.24539172183150584
0.5518319203068036,-10.078782903460125,0.40984155146916634,11.109745790483574,0.06860547400134437,3.5231641979786863,0.25032968311778614
0.5341119218522168,-10.056241019448992,0.42377755782097165,11.130613090748843,0.06422098101698509,3.5173925961371606,0.2538713311869683
0.5159144808412306,-10.033260310605105,0.4464691037061797,11.181498989004808,0.06011650461876898,3.5181818123458632,0.2559792033970084
0.4972927018764003,-10.009848730010699,0.4753826844885992,11.25392547700649,0.056350714072595835,3.5247169744081006,0.25666108888187683
0.47821437907467146,-9.986056056454107,0.5072952222385076,11.33669011939863,0.052945184823924414,3.535726251589752,0.2559543756347061
0.45860482480093384,-9.961947512776,0.5387825961762945,11.417666370944549,0.04989351896589623,3.549686922085164,0.25390895649116774
0.43839290356066196,-9.937574843705065,0.5667283623700344,11.485686625482703,0.04716973888935076,3.5650299067927853,0.2505721999031501
0.4175560679527776,-9.912953491107526,0.5887603539961773,11.532164704900707,0.044735440047739765,3.5803078064430855,0.24597825718407326
0.39615767008657216,-9.888047120338648,0.6035414352255052,11.552177625690005,0.042545630363684035,3.5942994904538383,0.24014226908952907
0.3743704268899731,-9.862767431154495,0.610875206267653,11.54488685275594,0.040553759510059524,3.606058513184718,0.2330593826659099
0.35247800794211215,-9.836976768148647,0.6116221989396037,11.513252702389535,0.03871620556268349,3.6149097207818324,0.22470735688133314
0.3308529688188246,-9.810506721885004,0.6074536519307667,11.463170475291184,0.03699677958268564,3.620424269081488,0.21505232325559892
0.3099141472163105,-9.78317686906317,0.6004951587051777,11.402194732490608,0.03537142143753029,3.6223846479301476,0.2040578311312892
0.29007432867443134,-9.754818664083107,0.5929271951600477,11.338111065458778,0.03383324343640583,3.620758339031488,0.19169768924236938
0.27169162136610553,-9.725306633331678,0.5866127380578424,11.277609293343449,0.03239748937484183,3.6156830421828703,0.17797261149949417
0.2550357541380813,-9.694583864597574,0.582811862575349,11.225278509302065,0.031105474859968785,3.6074592754216757,0.16292867869416322
0.24027490295260504,-9.66268073270325,0.5820223415142457,11.183047077350935,0.030025928635739715,3.596542430785281,0.14667344770396357
0.22748232355617007,-9.629721971180018,0.5839615209193528,11.150140493554193,0.02925199048219766,3.583528676394514,0.12938513412204306
0.21665687799750202,-9.59591893011377,0.5876806433489009,11.123488552247283,0.02889228799635512,3.5691209047294383,0.1113107816532086
0.20775104642181183,-9.56154803256496,0.5917842749727176,11.098519876985373,0.02905571146034635,3.554083645792754,0.09275449195737269
0.20069992148457674,-9.526912063417136,0.5947101379854097,11.070141039861472,0.029830832226206538,3.5391790453004894,0.0740599004945386
0.1954477355976354,-9.49231604461697,0.5950199254688011,11.033782500309048,0.031262884460970586,3.5251126068551515,0.05559517861661844
0.19196877081541253,-9.4580407931821,0.5916492781310249,10.986285097453637,0.03333226023829747,3.5124827902807665,0.0377460375920378
0.1902811385054608,-9.42434103077919,0.5840799747669034,10.926525234677078,0.03593945028015526,3.5017556451824055,0.020918531204265775
0.19045120771354992,-9.391446348975611,0.5724103639180912,10.855661551042123,0.038900926975339624,3.4932582102787957,0.005546688714662049
0.19258728426559288,-9.359567934747155,0.5573212300138086,10.776977687166541,0.04195935839222823,3.487187677604037,-0.00790284314408322
0.19682118464077267,-9.328912979235715,0.5399512943065377,10.695377468313255,0.04480891304141807,3.483633899828121,-0.018936452189789642
0.20327779100685317,-9.29967694995228,0.521711166556606,10.616602057097767,0.04713287074810192,3.482595937061803,-0.027051968762999812
0.2120355777240586,-9.272051742395869,0.5040760161039823,10.546346850752634,0.048647671066265843,3.48400001987892,-0.03176648544446159
0.2230831433906656,-9.24621363411318,0.4883963970518806,10.489429739065555,0.04914516346235424,3.4877031024322225,-0.032646091298814496
0.2362805109647592,-9.222332280137802,0.4757586026716953,10.449173284283862,0.04852507429900061,3.493496690129105,-0.029329742353322145
0.25133482426549175,-9.20056712192965,0.46690730259283114,10.4270577867666,0.046811152642920836,3.501104823800881,-0.021541953240914624
0.26780008268483674,-9.181077486832887,0.46222860018629913,10.422694784906186,0.0441476079500474,3.5101921222745522,-0.009093848530463461
0.2851061026340881,-9.164018420801005,0.4617774303518407,10.434073342208281,0.04077580649697319,3.5203855827813864,0.008123555796795459
0.30261418646160515,-9.149528246134423,0.4653273903619474,10.457979278368777,0.03699487291691216,3.5313051706787046,0.030146457867307932
0.31968977261709247,-9.137716394873166,0.47242363281844574,10.490511474927892,0.03311331968727924,3.5426091335051595,0.0569373887156771
0.3357753018415375,-9.128627370742747,0.4824225369845404,10.527551584506854,0.029400316198433477,3.5540324473504157,0.08837075717860933
0.3504478783612692,-9.122220722934333,0.49451447289442535,10.565143349662556,0.026045234021158315,3.565419425438197,0.1242053533493537
0.36344978981804,-9.118349465783345,0.5077345488632249,10.599721013821453,0.02313152995666516,3.5767347991820317,0.16405227351858784
0.37468840157388034,-9.116752242475302,0.5209773571021804,10.628222108086371,0.0206277209185452,3.588054067354613,0.2073527499787947
0.384208356505056,-9.117071580772913,0.5330324559409629,10.648141185548543,0.01839495063235382,3.599535820495793,0.25337971027946005
0.3921424522596057,-9.118881309013549,0.5426532905387421,10.657568276302483,0.016207871151858427,3.6113720288111018,0.30126843650700524
0.39865092931789103,-9.121739567377688,0.548660171746856,10.655279930609069,0.013784001625031598,3.623731072296946,0.3500696868888392
0.4038572673741727,-9.125236393862323,0.550063844362375,10.64087062987856,0.010815796442667546,3.636688082887428,0.39880647503314953
0.4077902792166692,-9.129041093622302,0.5461875811352074,10.614920041034944,0.007000229318408108,3.6501595088559546,0.4465159063847861
0.410340455246048,-9.132924845573239,0.5367613913029864,10.579123361827868,0.002062192538747956,3.663845935169389,0.4922653829421091
0.4112398189015034,-9.136778091102316,0.5219675290190943,10.536358243695659,-0.004229500146300922,3.6772079262118016,0.535149505015139
0.41007058232529764,-9.140593804509306,0.5024234717575935,10.490580475898396,-0.012052282769459334,3.689478663200778,0.574285225807597
0.40630803050750786,-9.144457556437304,0.4791029494643707,10.446566281856162,-0.021522881985059555,3.699733872683084,0.6088273813527065
0.3993949557459858,-9.14852076860434,0.4532087962019108,10.409470254021702,-0.032689008569355874,3.7070120029089364,0.638017473260611
0.3888397340944881,-9.15297032790847,0.4260226610321697,10.384268032888937,-0.0455159863983664,3.7104695466596724,0.661262772541903
0.3743240341037494,-9.15801023498919,0.39876416225015937,10.375199564068337,-0.05986725987127461,3.709551754214584,0.678231203863801
0.3557985366292353,-9.163828608947684,0.37248344153907464,10.385270502161251,-0.07548201397691039,3.704136849125133,0.6889352882165944
0.33354590118226524,-9.170575829591858,0.34800136929489034,10.415940622062896,-0.09195817003751723,3.6946308676231348,0.6937825310654486
0.30818996658222186,-9.178348640561596,0.3258944360085031,10.467024626156652,-0.1087524074951396,3.6819874448481587,0.6935736204676596
0.2806384638040414,-9.187178675032358,0.30651044699035,10.536817115815092,-0.12520796201138001,3.667641227982625,0.6894409547420366
0.2519596339040635,-9.197025007705662,0.28999776197807087,10.62238081159649,-0.14061507022385922,3.6533603869514475,0.6827323287070741
0.22320961030695527,-9.20777582804185,0.27633405607721445,10.719940657860118,-0.15429945050418956,3.641043284882454,0.6748576170730719
0.19524157536945405,-9.219238072189112,0.26534661127177384,10.825255519421592,-0.16572426957178388,3.632494073812646,0.6671250250631567
0.16853447175295563,-9.231125457984689,0.2567236648102585,10.933897940450644,-0.17458544172272247,3.6292171333114616,0.6605963890850662
0.14307603253343712,-9.243042011585084,0.25002084451120804,11.041413970181596,-0.18088007643177903,3.6322711607513263,0.6559865153347483
0.11832468817886221,-9.25446784430519,0.24466946356247804,11.143376092855169,-0.18493222509919688,3.6421990015396695,0.6536199186309587
0.09326170257666189,-9.264768056360486,0.239993813428068,11.235426160006657,-0.18736818809151876,3.6590437877752966,0.6534480052199979
0.06653165715213635,-9.273222415599221,0.23524134523793183,11.313359756792666,-0.18904133077904514,3.6824327150132605,0.6551172135862884
0.036656962270704856,-9.279086786345603,0.2296265240527577,11.373335843245185,-0.19091662729081893,3.711709763290301,0.6580738043282571
0.0022992281885859086,-9.281680252508808,0.22238337068503605,11.412174126719675,-0.1939326506837967,3.746080351968004,0.661682469206285
-0.03747027148631975,-9.280471117135406,0.2128186976289328,11.42770262280322,-0.1988639908209452,3.78473516613031,0.6653390970029701
-0.08293649257780832,-9.275144368690452,0.20035633339635442,11.419053259451486,-0.2062078422934594,3.826931246189732,0.6685587560951752
-0.13359063345921002,-9.265646943054849,0.18456503598241095,11.386849410270353,-0.2161146315306121,3.872028447704724,0.6710290499615312
-0.18810547676825776,-9.252179619851203,0.1651655609495824,11.333187469123105,-0.22837447952349782,3.9194807779456475,0.6726248067741841
-0.2444605053628585,-9.23515750951725,0.14201887684492426,11.261437580090028,-0.24246294203754584,3.9688109514964722,0.6733896048487616
-0.3002115669839452,-9.21512450618896,0.11510102743420285,11.175852299433824,-0.257637369766656,4.0195703509540195,0.6734901857143919
-0.35286545462098756,-9.192660328486062,0.08447604530970457,11.081091612998044,-0.2730664809502049,4.071299405037068,0.6731578001926888
-0.4002902257325765,-9.168274627751083,0.05027740885498425,10.981731457392534,-0.28796723523278894,4.123475618047583,0.6726247572740808
-0.4410811817643153,-9.142325525173446,0.012705396248705779,10.881885820258956,-0.30172422449437175,4.175457910825784,0.6720703246775747
-0.4748113508525839,-9.114961923304241,-0.027961127888117738,10.784965018319332,-0.3139709163224645,4.226426118692566,0.6715819009533559
-0.502121288986962,-9.086108330893312,-0.07134755420183356,10.693625554039256,-0.3246240213959219,4.275343074659489,0.6711394548153957
-0.5246320594671426,-9.055485517037285,-0.11697418808216341,10.60983562492312,-0.3338704963165951,4.320962519191277,0.6706235036395074
-0.5446954097531238,-9.022663845172072,-0.1642638443007412,10.535036159551316,-0.3421158638736752,4.361902374959847,0.6698470698768014
-0.5650204792964144,-8.987148850580443,-0.2125656873472274,10.470323494342436,-0.3499066103479054,4.396790331587688,0.6686066216426125
-0.588236503234411,-8.948480884701349,-0.26118418370834207,10.416637260906091,-0.3578416036188968,4.4244534072029635,0.6667441275672428
-0.6164631702868213,-8.906348050089784,-0.30939826926392355,10.374920890455943,-0.36648763107474386,4.444120784029754,0.664210503025133
-0.6509585579593469,-8.860686646298236,-0.3564615362074208,10.346247315626234,-0.37631107328676366,4.455584330390239,0.6611180965756467
-0.6919045506096596,-8.811754890766645,-0.4015868813858928,10.33189536254417,-0.38763492137788397,4.45928577819799,0.6577709765809412
-0.7383669182847623,-8.76016471052484,-0.4439309389807645,10.333355342806867,-0.40062435609975994,4.456303966002116,0.6546638342110451
-0.7884404847025366,-8.70686793774236,-0.48259868034786874,10.352250139639526,-0.41529983803017373,4.448235178436651,0.6524435783131329
-0.8395528817587011,-8.6530845198268,-0.516680066584734,10.390137534435327,-0.43157058758774464,4.436983566374589,0.6518340160928431
-0.8888712507552703,-8.60021184736038,-0.545319471910155,10.44821747553016,-0.44927854527045935,4.424492835922808,0.6535333638775104
-0.9337285974616035,-8.549722202225915,-0.5678015541646294,10.526954244433625,-0.46824037700358906,4.412467595451211,0.658098419990463
-0.9719905300132388,-8.503084468814484,-0.5836334866273314,10.625686866506825,-0.48827841604737354,4.40212768329946,0.6658373074263627
-1.0023002898714726,-8.461726108066959,-0.5926033618067335,10.742304616366095,-0.5092361301457702,4.394047350095762,0.6767300114590579
-1.0241724885432435,-8.426995120249043,-0.5948033960963759,10.873092517741677,-0.530980121798031,4.388090803762642,0.6903936356728799
-1.0379423629782218,-8.400138595486217,-0.5906186830450842,11.012823714634344,-0.5533942044966572,4.3834635219743445,0.7061024947798984
-1.0446007422469468,-8.382238478792507,-0.5806908804532441,11.155150240725119,-0.5763722469214811,4.378867524041273,0.7228627034065822
-1.0455568869664815,-8.374097089041664,-0.5658715099743347,11.293211378253371,-0.5998103198311855,4.3727254583692385,0.739526768876368
-1.0423848919357093,-8.376085053503692,-0.5471832003583951,11.420388614783718,-0.6235994745823563,4.3634488903404245,0.7549281024894573
-1.0365939089937106,-8.387951823564757,-0.5257980193833011,11.530993898110367,-0.6476137838959208,4.349688377120271,0.7680055905388125
-1.0294614779114142,-8.408666893367286,-0.5030351670258445,11.62080537932207,-0.6716957624295641,4.330540258687227,0.7778992573948845
-1.0219417762202998,-8.436317287357673,-0.48036161725442217,11.68732135952283,-0.695641657563623,4.305664867376046,0.784002939221943
-1.014653033489257,-8.468130299570877,-0.4593740372627119,11.729759763254728,-0.7191966557628334,4.275311293583696,0.7859779394319674
-1.0079285998723484,-8.500642955510845,-0.44173610504421584,11.748838564425075,-0.7420665624392964,4.240243542411023,0.783737296187363
-1.0019161247938129,-8.530020050085419,-0.4290590995121857,11.746439750067164,-0.7639512477597977,4.201596940460305,0.7774176264914807
-0.9967016288003642,-8.552477499898337,-0.42273108097962275,11.725241114747343,-0.7845937337013843,4.160693092679998,0.7673532000193186
-0.9924382217071113,-8.564734039318122,-0.4237204417142603,11.688396693728171,-0.80383561483299,4.118859033470177,0.7540623336579181
-0.9894569592962951,-8.564409592267038,-0.4323920993556308,11.639303770593466,-0.8216638154394292,4.0772809338806395,0.7382464744020371
-0.9883421925897656,-8.550292669464346,-0.44838029769623355,11.581468614666395,-0.8382381452240554,4.036920665627771,0.7207940865239468
-0.9899500449022316,-8.522440075951543,-0.470554180730316,11.518424147034388,-0.8538922436532372,3.9984860704190437,0.7027707811105984
-0.9953578217936132,-8.482098759552589,-0.4970988870144844,11.453647865684879,-0.869106038085003,3.9624486402655563,0.6853774512948573
-1.0057371480132253,-8.431475772478638,-0.5257121958975624,11.390424405959285,-0.8844523860854948,3.929078479574807,0.6698625859874054
-1.0221590577511586,-8.373428925357548,-0.5538905423495383,11.331658554198132,-0.9005250344570235,3.898493917425935,0.6573907858054606
-1.0453516137026855,-8.311130492034199,-0.5792533049410078,11.279618738908072,-0.9178543916481745,3.8706981059026715,0.6488821165648885
-1.0754510443099,-8.247788840879979,-0.5998466663911219,11.235700902369384,-0.9368252922520082,3.8456188372628084,0.6448532252634399
-1.111793533845057,-8.186455046789987,-0.6143701077113823,11.200229809347233,-0.9576074013222239,3.823136073677994,0.6452921653137653
-1.1528046656336903,-8.129921436005109,-0.6222925051748966,11.172386295957972,-0.980114109046019,3.803110653801915,0.6495998070815269
-1.1960339085552207,-8.080680994072486,-0.623846537585434,11.150266688106305,-1.004000946658561,3.7854096352920306,0.6566194322507319
-1.2383603356715696,-8.040881961090944,-0.6199136923914149,11.131088645146802,-1.0287069374384517,3.7699248106747056,0.664761684109061
-1.2763625602057524,-8.0122550367028,-0.6118315031414481,11.11152223567654,-1.053536708493462,3.756590099590325,0.6722148342676324
-1.3068023303225715,-7.99598732436005,-0.6011640619017252,11.088098028999767,-1.077766677435065,3.74539389573943,0.6772105617305882
-1.3271344612526135,-7.992543106500727,-0.5894788736143588,11.057611267362129,-1.1007512578088094,3.7363857209500817,0.6782992521442843
-1.3359507320609125,-8.001499471067541,-0.5781680608424872,11.017476735651263,-1.1220106825906229,3.7296844772262303,0.6745872586162984
-1.3332643320939919,-8.02142497456784,-0.5683324313246851,10.965959394642018,-1.1412823985710658,3.725477158449228,0.6658914485727528
-1.320576778003637,-8.049871587902445,-0.5607324504163038,10.902263338963436,-1.1585331178775924,3.724013144096539,0.652781568026781
-1.3007031129164457,-8.083516806541203,-0.5557931363026598,10.826480223227033,-1.1739372587783654,3.7255846342077867,0.636499685260756
-1.2773736501081114,-8.118461999070647,-0.5536429702963552,10.7394229084922,-1.1878295466909452,3.7304909235418173,0.618766876826459
-1.2546757226140235,-8.150666358865536,-0.5541662035128134,10.642408682684204,-1.2006465918570455,3.7389882127070906,0.6015095379696183
-1.2364294845979031,-8.17642036096737,-0.5570511758049735,10.53702490815982,-1.2128639676715272,3.751218562254733,0.5865532064572981
-1.225611775007035,-8.192799241982224,-0.5618262636459472,10.424973463968712,-1.224941601939781,3.7671396359725158,0.5753409757213801
-1.2239251175074122,-8.197991089519697,-0.5678831491363139,10.30797901921373,-1.2372795927368219,3.7864607420022223,0.5687242948635749
-1.2315826066177014,-8.191444610240847,-0.5744939992466548,10.187764077470092,-1.2501901735882355,3.8086034738554906,0.5668585997147574
-1.247339557490762,-8.173838653427651,-0.580836700169222,10.066060801398258,-1.2638867426387157,3.832711103262818,0.5692174226172477
-1.2687574289021306,-8.146869770586113,-0.5860381005709209,9.94460895852884,-1.2784867555263595,3.857710205728637,0.5747155227807569
-1.2926486812302707,-8.112911803035688,-0.5892405250056627,9.825115215769305,-1.2940245446352665,3.882423294240989,0.581915090366539
-1.3156188333030223,-8.074627378518347,-0.5896881203397438,9.709184948308867,-1.3104660128297017,3.9057117171541798,0.5892760308814643
-1.3346056777222233,-8.034593883870519,-0.5868191547744276,9.598259926607165,-1.3277202228586356,3.926622552841147,0.5954035781679374
-1.347323412868548,-7.9950115961581645,-0.5803468715375087,9.493584707675932,-1.3456427726047069,3.9445060003066477,0.5992518326462453
-1.3525440290168858,-7.957527435090516,-0.5703101073117294,9.39621261812409,-1.3640347674942805,3.9590824619660068,0.6002521949125146
-1.3501861831165434,-7.923179559431281,-0.5570792452766463,9.307042262104835,-1.382641824545408,3.970444901480121,0.5983528466126604
-1.341218935578528,-7.892441252456293,-0.5413109059901793,9.226852980692627,-1.4011629147904858,3.979007276437148,0.5939716318710594
-1.3274160154611427,-7.865336362017132,-0.5238553878059996,9.156316263886122,-1.4192735529289287,3.9854053898802353,0.5878789139623207
-1.311020340325801,-7.841583800150271,-0.5056306852062361,9.095961413518282,-1.4366621647847975,3.990369997119233,0.581035563078264
-1.2943855937300381,-7.820744204239704,-0.4874872800002308,9.04610801363599,-1.453070733758273,3.9945903845777537,0.5744188253029435
-1.2796622504276907,-7.802349534798383,-0.4700897574652855,9.006792149194105,-1.4683325798468576,3.9985943188469815,0.568867251759937
-1.2685714041407297,-7.785998973510285,-0.45383628561915246,8.977709120782919,-1.4823958378239912,4.002657765246885,0.5649682758163233
-1.2622865803777306,-7.7714110066205135,-0.4388279332307212,8.958196732280838,-1.4953275301999607,4.006757966828874,0.5630017026341195
-1.2614171408864348,-7.758439870952405,-0.4248901592409811,8.947271132742372,-1.5073008476238519,4.010579765187794,0.5629409061348933
-1.2660683868480338,-7.747062865313624,-0.41164000024153,8.943725017907093,-1.518567713081439,4.013574371317787,0.5645037145587667
-1.2759422709008208,-7.737328430415768,-0.3985863400223316,8.946252672054648,-1.529419607782593,4.015056575435166,0.5672368763740466
-1.290447941350967,-7.7293000578678885,-0.38524871405087235,8.95360138393653,-1.5401453150755118,4.014330519007847,0.5706165066757607
-1.3087928621794394,-7.722991031148278,-0.3712763216386173,8.964702593878926,-1.550988319357607,4.0108162080025656,0.5741446849573335
-1.3300427395909042,-7.718301528298883,-0.3565484412727969,8.978769987364215,-1.5621089971484639,4.0041529395504805,0.5774255736200845
-1.353153181176991,-7.714985668651808,-0.341238700419431,8.995347672583907,-1.5735595232516202,3.9942669831993514,0.5802122881098464
-1.376987555049793,-7.712638988734685,-0.32582785565393035,9.014304167717588,-1.585274750583624,3.9813862171308743,0.5824210391945692
-1.4003403076195722,-7.710724776171351,-0.31105651792167915,9.035780888739014,-1.5970841114402374,3.966002649560025,0.5841149866518524
-1.4219792055302882,-7.708633485289056,-0.2978193206830951,9.060105812981554,-1.608741822415952,3.9487899122187473,0.5854652210158365
-1.4407097698140783,-7.705768773231584,-0.28701471262043843,9.087683651288996,-1.6199725917655383,3.930493568323374,0.586698108225804
-1.4554495940082304,-7.70164377745048,-0.27937547492478626,9.118875102724784,-1.6305206603345124,3.911815374186975,0.588038437954765
-1.4652965661343222,-7.69596579195248,-0.2753112573798983,9.153868016611415,-1.6401924048201275,3.8933103529284963,0.5896582997016752
-1.4695794449106223,-7.688705576666081,-0.27479395372564086,9.19258133101228,-1.6488860911155876,3.875322227527225,0.5916398532021448
-1.467880239724445,-7.680113425273222,-0.27730888098857026,9.2345944497621,-1.656602095165366,3.857954885498895,0.5939563780149308
-1.4600388998097913,-7.6707044350247084,-0.2818853353675582,9.279149806929958,-1.663438277321374,3.841088985615056,0.5964757459165471
-1.4461475451546926,-7.661185151479877,-0.287204984008571,9.325207851397488,-1.6695706644838157,3.8244289924431043,0.5989831640872874
-1.426552213645499,-7.652356514821571,-0.2917732024155827,9.37157882501788,-1.6752291441658995,3.8075795114813955,0.601221221494486
-1.4018709903959508,-7.644986231747681,-0.2941234043480164,9.417060379579272,-1.6806676921117785,3.7901275030627404,0.602937524508216
-1.3730334577816927,-7.639690333406416,-0.29301826048696905,9.460587374143834,-1.6861384930432943,3.7717309973547173,0.6039327345084732
-1.3413262058013147,-7.636830564868207,-0.2876101714732776,9.50132499910333,-1.6918688131807522,3.7521890058298815,0.6040975779450884
-1.308419413332468,-7.636453111557116,-0.277533438116244,9.538713008355412,-1.6980453837028293,3.731488852113017,0.6034331505557473
-1.2763369364614974,-7.638277666257855,-0.2629120010165286,9.572449533960162,-1.7048048486229117,3.7098212389749334,0.6020490063145819
-1.2473366101484857,-7.641739578077913,-0.24428284252898883,9.602444706413722,-1.712232211680369,3.6875569480806534,0.6001382239940686
-1.223686317957156,-7.6460783368379115,-0.22244931056798303,9.628746819812035,-1.7203619155586698,3.665190160132092,0.5979317288191982
-1.2073507166071098,-7.650455308455783,-0.19829278194124153,9.6514732739756,-1.7291816819348178,3.6432622603812033,0.5956389145914758
-1.1996328463691932,-7.654072844498408,-0.17257802534627714,9.670737977735806,-1.7386321073401299,3.6222769589666637,0.5933833065399101
-1.20084042094074,-7.656277490664409,-0.14578911276739834,9.68658734690233,-1.7486030362783647,3.6026305139814254,0.5911451350624276
-1.2100506345395712,-7.656627834931042,-0.11802391693310732,9.698956665414965,-1.7589285199044555,3.584568547974096,0.5887229468152456
-1.2250404477865373,-7.654906865649602,-0.08896295077278245,9.707631832412421,-1.7693820686471955,3.5681729825865505,0.5857237519582704
-1.2424306691654086,-7.6511005276015265,-0.05791666586270287,9.71225550084108,-1.7796832107156109,3.5533831273306324,0.5815902355158926
-1.2580528458608833,-7.645330353226039,-0.023944838048373114,9.712359184419855,-1.7895159944435595,3.5400425080762474,0.5756673187486007
-1.2675028654891536,-7.6377578733222045,0.013965836100533046,9.707426342503094,-1.7985593859571813,3.527957833561372,0.5673030294362206
-1.2668049721251118,-7.62849011023922,0.05668709724134704,9.69699466281701,-1.8065291702105972,3.5169727226413894,0.5559736389880234
-1.2530662565878319,-7.6174722094641,0.10472663975590564,9.680745372751963,-1.8132153885735713,3.507029549362606,0.5414116406792697
-1.225008320588529,-7.6044154548703995,0.15803393101662924,9.658594137851718,-1.8185143913286532,3.4982236053219213,0.5237148037677133
-1.1832658971492365,-7.588752046067664,0.21587444566457975,9.630742907260338,-1.8224433680575032,3.490828209744164,0.5034096651327706
-1.1303882510562553,-7.569644430488272,0.2768091804578298,9.597686056046257,-1.8251389009219185,3.4852875804978862,0.48144876423486255
-1.0705221960705922,-7.546047383400752,0.3388004948266598,9.560165336811552,-1.8268397496123232,3.482168362645011,0.45913023817987936
-1.0088193739572668,-7.5168253811729455,0.39943816885180466,9.519085158595923,-1.827856699306946,3.4820697790640898,0.4379425093778172
-0.9506667791025984,-7.480920045419833,0.4562476401785293,9.475398710578759,-1.8285375956485417,3.4855005192675512,0.4193577395274892
-0.9008829678647416,-7.437543078468563,0.5070190141341754,9.430004110859022,-1.8292330240300632,3.492741380101395,0.4046097989101534
-0.8630248546381498,-7.386357430871908,0.5500885582496665,9.383660800876736,-1.8302658486790766,3.5037114103221785,0.39449914001954345
-0.8389266820463808,-7.327624466304906,0.5845237883454872,9.336949849849688,-1.8319115957315417,3.517876836228365,0.3892622520701052
-0.8285330364025573,-7.262257214416681,0.6101860490836024,9.290259305010318,-1.8343845947386164,3.5342135758881,0.3885283883964009
-0.8300393921329182,-7.191784461539237,0.6276793380403402,9.243820790580116,-1.8378358529130425,3.55126533654552,0.39137365152558273
-0.8402916237144344,-7.118192651433865,0.6382093398706528,9.19774166046085,-1.8423508997257174,3.567282354671286,0.396461145577176
-0.8553621818663997,-7.0436876185220445,0.6433931521343578,9.152050806920238,-1.8479492885431428,3.5804395476923254,0.4022441224143678
-0.8711912136368276,-6.9704281121453775,0.6450612187702327,9.10675745435699,-1.8545819062458955,3.5890978913871034,0.4071951934043157
-0.8841765571854223,-6.900271305949044,0.645084724901196,9.061888721660628,-1.8621211557775406,3.592052267803474,0.41002023841983265
-0.8916211187395693,-6.834602502352144,0.6452509421503424,9.017546968809153,-1.8703523719379849,3.588730756014442,0.4098231676597643
-0.8919800765891167,-6.774255284110782,0.6471862659818087,8.973937549411316,-1.8789676920050637,3.5792951345844672,0.40619637222401533
-0.8848988269990726,-6.719532214375898,0.652315081608939,8.931397294749756,-1.8875746603131494,3.5646326800940322,0.3992310031383474
-0.871065451885307,-6.670288214307433,0.6618297675785919,8.890376517979437,-1.8957225792779213,3.546228618923927,0.38945259270837007
-0.8519313302999848,-6.626060925496258,0.6766506961743272,8.851407010761958,-1.9029519731194995,3.525947055925085,0.3777017731323406
-0.829368811943947,-6.586210603119718,0.6973633921644629,8.815040018192107,-1.908859419331931,3.5057581361093577,0.3649879313666392
-0.8053344121385644,-6.550051179350722,0.724133220591328,8.78178210786608,-1.9131683362761303,3.4874588950435608,0.3523445858716131
-0.7815951912704966,-6.516960492281407,0.7566154068109139,8.752041685969093,-1.9157910306294101,3.4724417079367504,0.3407124875025661
-0.7595503145884136,-6.486454664814531,0.7938894956600019,8.726096011590565,-1.9168675781170432,3.461542834171069,0.330863127532806
-0.7401530197122934,-6.45822684003028,0.8344553602368879,8.704088863806138,-1.9167715615451597,3.4549906289027774,0.323363979090586
-0.7239149616437217,-6.432145586432629,0.8763218368683469,8.686044223665224,-1.9160774842876098,3.4524478227940167,0.31857521089122903
-0.7109657338676862,-6.408212202692045,0.917200251382972,8.671889849060785,-1.915490172236416,3.453131466079702,0.3166632126210578
-0.7011376252853634,-6.386496043065597,0.9547877718471114,8.661496930711401,-1.9157470969014323,3.4559807334765784,0.3176168403626322
-0.6940507705237556,-6.367047978670737,0.9870940104074908,8.654696148008602,-1.9175042914736034,3.459834188941026,0.3212566717212367
-0.6891851809990958,-6.349821018685468,1.0127500671844687,8.651297687199529,-1.9212298616532466,3.463590181644803,0.32723552735437633
-0.6859326840299282,-6.334604536905516,1.0312357766914388,8.651099094043412,-1.9271196990281572,3.46632065670769,0.33503515468265754
-0.683631976596729,-6.320988718578135,1.0429776165635347,8.653878665191375,-1.9350550578336168,3.4673339966483994,0.34397093416895913
-0.6815947446896828,-6.308371147516366,1.0492939892820978,8.659399867139813,-1.944611112531078,3.4661891380991454,0.3532188155749928
-0.6791314628173293,-6.29599844125411,1.0521869464782971,8.66741480958749,-1.9551190116100636,3.462674502496092,0.36187561437301763
-0.6755829828832312,-6.283042336015809,1.0540089234824683,8.677666626229962,-1.965771538010635,3.456764304977078,0.3690552355350348
-0.670359587876619,-6.268700913858148,1.0570558877619736,8.689900422035109,-1.9757572410716344,3.448575510093157,0.37401266182744486
-0.6629834681966712,-6.252303333708157,1.063153567188022,8.70386226109323,-1.9843949323628154,3.4383262847500355,0.37627543927947965
-0.653126267360103,-6.233403799456495,1.0733087532898662,8.719292244001306,-1.9912457252109377,3.426310377893421,0.3757571488423187
-0.6406346205039274,-6.211847046656058,1.0874906121437182,8.735911069494957,-1.9961821466552323,3.4128807676425095,0.37282601383971536
-0.6255352869262931,-6.187796155807169,1.1045866257639323,8.753405630436061,-1.999404496568893,3.398438052282532,0.36830619137053827
-0.6080188818446017,-6.161717338124104,1.1225562293303464,8.771429379923825,-2.0014029154866613,3.383418678383685,0.3633989747561318
-0.5884028455114365,-6.134328523709079,1.1387697055935544,8.789616414760582,-2.002873165788166,3.3682744052978015,0.35952412221376584
-0.5670842924840492,-6.106527089608621,1.1504873395259356,8.807610631184046,-2.004601962492234,3.353445933460987,0.35809884023178395
-0.5444930057210963,-6.0793082859247285,1.1554004999695575,8.825100699409774,-2.0073393066607124,3.3393321292027083,0.3602867358113211
-0.5210573224635981,-6.053700753004931,1.1521398238549534,8.841848182886537,-2.0116814016403293,3.3262643613599967,0.3667605097466717
-0.49718718564871056,-6.030716970558378,1.1406534278071048,8.857705616278965,-2.0179825241456117,3.3144889631148455,0.37752338131842184
-0.47327336005536236,-6.011313716122837,1.12237532422851,8.872604455723048,-2.0263081551387194,3.304160613834938,0.3918288663037247
-0.4496942993360154,-5.996353934354889,1.1001356761818657,8.886547388182633,-2.0364386732763817,3.2953476092876124,0.4082255471287985
-0.4268214319777488,-5.986534623642312,1.0777994587147233,8.899575198389012,-2.047919199934954,3.288039568296004,0.42473310668437175
-0.40501793711793543,-5.982279414266575,1.059675768830748,8.911742769761304,-2.060145727276982,3.2821566474485366,0.43913167967035216
-0.38463202501765476,-5.983592654536871,1.0497842446053336,8.923094597082518,-2.072470666547698,3.277555411813294,0.44932065013974787
-0.3659892409274355,-5.989887529855983,1.0511029739504674,8.933634825078055,-2.084304697818181,3.2740299434515236,0.4536847767730288
-0.3493897274408847,-5.9998284591957205,1.064934443591121,8.943300053064789,-2.095196461159157,3.271307072234019,0.45140039218835176
-0.33511278108304654,-6.011240888559813,1.0905132786880287,8.951939563073845,-2.1048807359645445,3.269044526928693,0.4426236803103504
-0.3234247915788382,-6.021137210438327,1.1249427952274051,8.959305235717157,-2.11328833850867,3.266832886539584,0.428520919126156
-0.3145850557195969,-6.025906207129298,1.1634983708519786,8.965057917611244,-2.120526289926657,3.2642088227880306,0.4111272723126307
-0.3088433100875335,-6.021686573091022,1.2002712466957457,8.968804766767123,-2.126835723934592,3.2606835825293854,0.39305010049925093
-0.3064259462217657,-6.004891553271318,1.2290578062093003,8.970150153363655,-2.132536937040473,3.255782769523193,0.37706302612817166
-0.30751255441064046,-5.972818102261268,1.2443434457413678,8.968758978287497,-2.137973257212222,3.2490935419611806,0.3656610997836841
-0.31220891234024367,-5.924235268511438,1.2422061746113304,8.964419347558698,-2.1434607543050683,3.240311416881096,0.3606566945417356
-0.32052311262906513,-5.859831684650306,1.2209760817965831,8.957084374298185,-2.149250516766434,3.229276229430852,0.362887298255964
-0.33235283862433035,-5.782410173641135,1.1815349256341792,8.946891024662326,-2.1555069134912612,3.2159909587931086,0.3720851075555215
-0.3474885600944704,-5.696760525324915,1.1272030311936192,8.934152099191172,-2.1623043447097796,3.2006232372126435,0.38692996292491977
-0.36563252546066805,-5.609181677357962,1.0632302311013526,8.919316430463764,-2.1696387968226176,3.1834860163867784,0.40527492415075106
-0.3864289838573499,-5.526708216976557,0.9959851849215875,8.902913375560441,-2.1774514103923495,3.1650075290860324,0.42450433127007525
-0.4094961807057493,-5.456174376108848,0.9319934958318965,8.88548864025692,-2.1856553495903386,3.1456980491878452,0.4419589040124959
-0.4344506910947174,-5.403283131564127,0.8770057657134215,8.867548273334142,-2.1941628429951643,3.1261245700754854,0.4553507791237386
-0.46091890156344284,-5.371852256228789,0.8352573536495741,8.849514833945651,-2.202901271958177,3.1068941037457263,0.46309533146598797
-0.48853769510849304,-5.363371273014977,0.8090301120997703,8.83170400313634,-2.211822640701169,3.0886449544150185,0.4645092047181411
-0.516953770012952,-5.376927591456452,0.7985539812533481,8.814323844823358,-2.220904341290975,3.072034018506336,0.45984994050683614
-0.545832513252503,-5.409496336603993,0.802221084717392,8.79749168931302,-2.2301443993878243,3.057708885975885,0.4502031205221522
-0.5748828194242275,-5.456513213249787,0.8170339446257984,8.78125516170255,-2.2395569980870236,3.0462505734773746,0.4372459925141744
-0.6038972296787297,-5.5126120648712895,0.8391795769827545,8.765627265743243,-2.249165447340863,3.0380931481177633,0.4229378195157172
-0.63279729346537,-5.572374657048303,0.8646112634334471,8.750612727545438,-2.2589960329027075,3.0334231705058454,0.4091959741999655
-0.661671461693589,-5.630961258882549,0.889537823698803,8.73623981096399,-2.2690685318375188,3.0320832757234712,0.39761540336662765
-0.6907927368418886,-5.684528742812324,0.9107576334549616,8.722578142867016,-2.2793877730570458,3.0334999496628057,0.3892734424821568
-0.7206092984497563,-5.730421551042641,0.9258252967032381,8.709747475912364,-2.2899347331334727,3.036662472650698,0.3846417058391004
-0.7517053123922921,-5.767163607720496,0.9330777097915633,8.697921617923543,-2.3006648787295183,3.0401721422224823,0.3836042963519244
-0.7847324931735329,-5.794316211354099,0.9315697501252661,8.687310220927886,-2.3115119542922153,3.042367560594913,0.38556323364001954
-0.8203158069004431,-5.81227940728978,0.9209755385661111,8.67813393253643,-2.3223990624298687,3.0415187460936233,0.38960198318159894
-0.8589395769110038,-5.822090373229803,0.9014986785520205,8.6705911437976,-2.3332532011205096,3.0360631924820294,0.3946707693966722
-0.9008253146048014,-5.825256330037438,0.8738129082232848,8.664822870495112,-2.3440183644390467,3.024841772994042,0.39975910999761627
-0.9458207278165913,-5.823630982397061,0.8390340654882736,8.66087913311714,-2.354662320161623,3.007291982060626,0.40402884804224953
-0.9933261123086606,-5.819322131429699,0.7986999047472976,8.658702933910401,-2.3651778684160005,2.98355877686212,0.4068937477552691
-1.0422848856885816,-5.814591779755477,0.7547239952721391,8.658129060024615,-2.375577249471509,2.9544940803917332,0.4080434317669326
-1.091259203986103,-5.811727522721316,0.7092925983171582,8.658906557497932,-2.3858873334639386,2.9215419000727674,0.4074217480463173
-1.1385901667961438,-5.812853381754657,0.6646916583125179,8.660742548687004,-2.3961417164347307,2.8865183980584868,0.4051732291524109
-1.1826193414313508,-5.819690034602401,0.6230787586100573,8.663357433404384,-2.4063768476063827,2.8513290184948725,0.4015752853381992
-1.2219278448077557,-5.833278359594932,0.5862382498434174,8.666543901500381,-2.416625839493903,2.817674262432778,0.3969711280012715
-1.2555431755272204,-5.853728654223459,0.555369536080185,8.670209596634335,-2.4269110337013418,2.786798326234982,0.39171471112626444
-1.2830732055438663,-5.880046894369001,0.5309516996060575,8.67441218585678,-2.437237096469803,2.759327973742148,0.38613312822930684
-1.304743524694183,-5.910104098452925,0.5127109530028696,8.679356545238319,-2.4475849116916746,2.7352218223882216,0.3805058347010565
-1.3213372284237976,-5.940801114583842,0.49969636220310126,8.685373984804265,-2.457911718491514,2.713834317954813,0.3750556630471011
-1.334050477096748,-5.968440061591533,0.4904493417076724,8.692877783855518,-2.4681583734213612,2.6940780192722356,0.3699456187048379
-1.3442930317419757,-5.989276862286336,0.48323793019966627,8.70229325630403,-2.478263922433482,2.67465560172386,0.3652765065089737
-1.3534669139127573,-6.000178644606192,0.47631545970390954,8.713982919200609,-2.488185094260948,2.6543239028167593,0.3610831076576266
-1.3627599248587325,-5.999270413022574,0.4681613842641043,8.728162637012625,-2.4979141519091397,2.632147770033181,0.357329638801764
-1.3729849069515148,-5.986442513951539,0.45766673835486077,8.744830860291739,-2.5074887921642492,2.607700737642115,0.3539070981146207
-1.3844891641934063,-5.963615167152402,0.4442403651741766,8.763722290040132,-2.516996171241419,2.5811813156237835,0.3506364380729202
-1.3971430269463645,-5.934674177512428,0.42782598582039294,8.784306423538201,-2.5265671293396643,2.553417747848614,0.3472811284491094
-1.410406988577583,-5.905049300533723,0.4088370046423721,8.805837078271118,-2.536364208089162,2.5257567981967064,0.34357214180154816
-1.42346181328261,-5.880971508205133,0.388028457279346,8.827448849797499,-2.546564319685742,2.4998488793348224,0.3392452485318691
-1.4353771395477235,-5.868513326443107,0.3663368805389732,8.848292271512255,-2.557339778254948,2.4773654184829383,0.3340889309093623
-1.4452841334713475,-5.8725644121034035,0.34472164418262696,8.867668178267568,-2.5688344014763214,2.4596980604733143,0.3279961521627198
-1.4525231550296955,-5.895929540068031,0.32403752084058446,8.885140221918903,-2.5811412002930645,2.4476981950282943,0.3210114995755576
-1.4567400561205976,-5.93871668296342,0.30495656123112375,8.900603004012765,-2.594283173037857,2.441502177383746,0.3133624663168813
-1.4579210981353075,-5.998138742639791,0.2879422654111244,8.914288454891206,-2.6082020392696474,2.4404771617208643,0.30546328397887224
-1.4563656836822572,-6.068793885649381,0.27326830840968297,8.926717766139493,-2.622761514051578,2.4432941569603344,0.2978827684794351
-1.4526072969434063,-6.1433964149852365,0.2610674924562985,8.938599470503098,-2.6377640159031657,2.448121250843179,0.2912727580856469
-1.4473010227692744,-6.213849335114073,0.251396340385672,8.950700709944108,-2.652980961684064,2.4529025236768827,0.2862628859818322
-1.441099176160053,-6.272459825334915,0.2443022443969067,8.963691212005038,-2.668184484614612,2.4556708081300003,0.2833364089941204
-1.434538888601935,-6.313085957877926,0.23988425172533487,8.978001615850467,-2.683177282833581,2.454844294263993,0.2827091262562638
-1.427958934245392,-6.331997217463323,0.23833868901695646,8.993706371811493,-2.697808405604479,2.4494506122989903,0.28423604898128424
-1.4214583633222901,-6.328320519537611,0.23998285685260237,9.010460281523894,-2.7119788270665546,2.439246192728476,0.2873689064767577
-1.4149015445606343,-6.304011227129886,0.24525014083708932,9.027506202504185,-2.725636222452333,2.4247163074160465,0.29118204834844236
-1.4079661570073307,-6.263384899153528,0.25465179543946054,9.043768007230753,-2.7387683136643597,2.4069622689573587,0.29447411185816036
-1.400226416258039,-6.21231048129014,0.26870430411475876,9.058016869308018,-2.751393747900707,2.3874989943840474,0.295938955777952
-1.391258055305835,-6.157226326761492,0.28782779332579017,9.069090276347065,-2.763557183385038,2.36800648124208,0.2943842416276835
-1.3807482619944762,-6.104167973455267,0.31222854814873036,9.076119767718582,-2.7753252970700726,2.350082747995835,0.28896277135444204
-1.3685906464879558,-6.057966832791251,0.34178643572842426,9.078724175039174,-2.786779953141337,2.3350376451888684,0.2793743108285996
-1.354948319133448,-6.02173911066844,0.3759743520479372,9.07713285155025,-2.798010592856426,2.3237602758619356,0.26599699501258883
-1.3402662888101433,-5.996701162040305,0.4138372798674096,9.072196504960433,-2.8091039931792197,2.316663649244593,0.24991444990467937
-1.325225858779577,-5.98229404705948,0.45405221491866116,9.065296086204391,-2.8201359236076486,2.31370155774986,0.23281982521834887
-1.3106387808444917,-5.9765439786246555,0.4950733549088144,9.058138489186662,-2.8311635570129234,2.314435503982867,0.21679922119833414
-1.297293801670277,-5.976556055993228,0.5353445385796841,9.052473806120254,-2.8422185344430604,2.318123419090924,0.20402141877373167
-1.285781217834253,-5.979044012843211,0.5735406946599246,9.049778233370896,-2.85330144813772,2.3238089808200746,0.19638427680877812
-1.2763253912549262,-5.980791360513291,0.6087880311553527,9.050949374079318,-2.8643717108536353,2.3303894779897916,0.1951802839367233
-1.268662210860271,-5.978994472763202,0.6408174710618599,9.056080134369532,-2.87533834478719,2.3366621658304463,0.20084345024314132
-1.2619872237232381,-5.97145194188212,0.6700177697720874,9.064345589706166,-2.886051417752101,2.341351076470342,0.2128259353090822
-1.2549984959605518,-5.956627615501559,0.6973749303998983,9.074046437848617,-2.8963043125176773,2.343137096955379,0.22963200288689364
-1.2460387270630784,-5.933619703788878,0.7243003217855626,9.082810053821952,-2.90584677059575,2.3407078390498595,0.2490095084695537
-1.2333270280214674,-5.902087264964658,0.7523676294424383,9.087933909518945,-2.914414128876755,2.3328394657181417,0.26827031166096044
-1.2152531641128925,-5.862176411687612,0.7829925171030956,9.086817425922662,-2.9217670177792505,2.318512546611519,0.284684208824036
-1.1906856421738585,-5.81447114595967,0.8171006515068884,9.077400275891982,-2.927731213962189,2.297041541049952,0.29587485222101767
-1.1592436775877542,-5.759978739012325,0.8548397368611309,9.058545373585197,-2.9322326697534327,2.2681989041129516,0.3001476225585313
-1.1214743949503074,-5.7001213388092395,0.8953913166951079,9.030274595037195,-2.935316481224228,2.2322972849442673,0.296695917151146
-1.078892410242837,-5.636706801792854,0.9369326416060139,8.993821520989519,-2.9371452138566116,2.1902064870502986,0.28565863897599936
-1.0338560470585634,-5.571841116612298,0.9767817055102046,8.95149086441091,-2.9379812477113973,2.143287745273541,0.26803106237916313
-0.9892855556728378,-5.507760293039238,1.0117237480634134,8.90632732894303,-2.9381502654147016,2.0932474116753528,0.2454552405611284
-0.9482652198313979,-5.446595344840874,1.0384802430398574,8.86166960201828,-2.9379945320209675,2.0419353603132313,0.2199385840899489
-0.9136004541499355,-5.390107064747726,1.0542426807672387,8.820662075708135,-2.9378229169698686,1.9911304635768954,0.19355819583487238
-0.8874138234331568,-5.339447951537218,1.0571724630565733,8.785814807615502,-2.937866462141596,1.9423588590448606,0.1682062924457466
-0.8708532290744521,-5.294999877749113,1.0467707711500673,8.758690304701782,-2.938243902987236,1.8967761967477519,0.145414100798763
-0.8639600859642563,-5.256327268184202,1.024042907285219,8.739763286831561,-2.93894605071844,1.8551270436091938,0.12626714497888433
-0.865711465643969,-5.222255481084073,0.991418042942086,8.728454458322801,-2.939841188147113,1.8177704026530213,0.11140188703896765
-0.8742185557680792,-5.19107305426091,0.9524269386322577,8.723333325320564,-2.9407010447070117,1.7847512633212654,0.10105910794504026
-0.8870370623662823,-5.160821669961078,0.911187523743009,8.72242260151633,-2.941243421258363,1.755892197126341,0.09516506982336465
-0.9015263711353456,-5.1296405541727665,0.8717896332831183,8.723560221080515,-2.9411847289218023,1.730888182889294,0.09341554779805691
-0.9151898964497395,-5.096106471958132,0.8376912163351877,8.724736440862987,-2.940291445567558,1.7093896607487944,0.09534587072928989
-0.9259401015898687,-5.059519290383139,0.8112353486654563,8.72436912543298,-2.9384235396997758,1.691070845427819,0.1003804199617609
-0.9322546036505434,-5.020077247701407,0.7933663103065023,8.721461659396962,-2.935559645436595,1.6756757379013143,0.10786444803028467
-0.9332173751831342,-4.978911635298006,0.7835816888854773,8.715647800861333,-2.9318020511362763,1.663043909709193,0.11708778015264852
-0.9284630950357613,-4.937953241872827,0.7801151636761047,8.707130689422115,-2.9273611988698924,1.6531136976382106,0.12731125274255678
-0.9180545093851683,-4.8996523013966025,0.7803076024180068,8.696541436878642,-2.9225229217939974,1.6459062331058136,0.13780339222083518
-0.9023308480510233,-4.866588217416214,0.7810948310703073,8.684748256540868,-2.9176047873355833,1.6414936618423772,0.14788761368245013
-0.8817594806933012,-4.841038081930977,0.7795255566565571,8.672663874818616,-2.912909291514245,1.639959099799308,0.15699308333994988
-0.8568177426585534,-4.824588389340215,0.773221947289585,8.661067150928394,-2.908683533153893,1.6413557898961026,0.1646987583868635
-0.8279167531329198,-4.8178562110123115,0.7607155578974969,8.650487920880796,-2.9050897127622215,1.645674694885551,0.170760719847339
-0.795367189339339,-4.820375528494149,0.7416177960073077,8.641143449529991,-2.902193709676786,1.6528258119968364,0.1751167124251816
-0.7593786234320539,-4.8306670415935775,0.7166185159195074,8.632947024750047,-2.8999690433684115,1.6626376498460238,0.17786695337925468
-0.7200819924895208,-4.846478403059949,0.6873352947083688,8.625565484723712,-2.898314314986705,1.674872392278409,0.17923474289399782
-0.6775684934247304,-4.865156937682587,0.6560633124244738,8.618529378398057,-2.897085107188286,1.6892545781392931,0.17951389244506705
-0.6319407771778796,-4.8840801675795715,0.6254862386793931,8.611348284690624,-2.8961235258582017,1.7054998307971674,0.17901142186598715
-0.583376013653172,-4.901069955907684,0.5984111774263718,8.60363732797344,-2.8952923627000406,1.7233401355584441,0.177995099987107
-0.5321911438986184,-4.914709900070369,0.577569383274535,8.59520693809889,-2.8944963897029705,1.7425343706531802,0.17665297904458505
-0.4788973050823813,-4.924522094954133,0.56549434226196,8.586124076700777,-2.8936965900708507,1.7628683539522034,0.17507039103285135
-0.4242209942893809,-4.930970823490746,0.5644561517678077,8.576717301854288,-2.892912447881456,1.7841467869366732,0.17322604272111447
-0.3690748704073123,-4.9352991731756735,0.5764122874760023,8.567532191171496,-2.8922111559026713,1.8061834450363508,0.17100647991279952
-0.31447408298292623,-4.939232883303173,0.6029337637403855,8.559251593396,-2.891692557240892,1.8287962959313797,0.1682358708416788
-0.2614113467821396,-4.944593036912353,0.645078595568562,8.552579764334885,-2.8914665139609745,1.851804342771922,0.16471581575665992
-0.2107206453444945,-4.952882029501867,0.7032121478000223,8.54811206928077,-2.8916263127150206,1.8750215893319846,0.1602689535384963
-0.1629637234568473,-4.964918037773841,0.7768039210611768,8.546226380018282,-2.8922286346340447,1.8982485452670768,0.1547793120025018
-0.11836545472735831,-4.980577956424167,0.8642552464565806,8.546996775273309,-2.893274402503883,1.9212563248437997,0.14822254438966675
-0.07680988596610379,-4.998705268568154,0.962827861875815,8.550158753628104,-2.894700967423858,1.9437719086069838,0.14068071372138824
-0.03789429715180772,-5.017212918473549,1.0687343474089048,8.5551326924364,-2.896384983619359,1.9654729015101182,0.1323383625764122
-0.0010296278747932107,-5.0333867477492245,1.1774174690520722,8.561102109742725,-2.8981579397193613,1.985996750198128,0.12346038740641059
0.034428147763626654,-5.044351669506239,1.283990377439402,8.567139565950677,-2.8998296753231014,2.0049682201847348,0.11435603911977923
0.06903190778855267,-5.047628736183846,1.3837567664918695,8.57234594395309,-2.9012172506978855,2.02203458820636,0.10533709868357602
0.1031004425676559,-5.041687943168017,1.472701325114175,8.575987524092076,-2.902172283782824,2.0369017803782037,0.09667935721126224
0.13659914312447005,-5.0263942176342296,1.5478527749346016,8.577600892860524,-2.90260143798062,2.049359892551409,0.08859512060519519
0.16906755622638273,-5.003249703170044,1.607463170255402,8.577046078117997,-2.9024760064522797,2.0592915184313916,0.08122051351641782
0.19961623666291028,-4.975372213054663,1.6509983015256602,8.574505716914157,-2.9018301007014813,2.0666648780528623,0.07461741339175854
0.2270077020136332,-4.947181418720309,1.6789802029608485,8.570435838214602,-2.9007481396654415,2.0715151928829947,0.06878683807349624
0.2498202485477995,-4.923825473210808,1.6927398708499248,8.565474958576406,-2.899344612602408,2.073921192047389,0.06368936090597102
0.2666739338508162,-4.9104261403042795,1.694148973602573,8.56033563075155,-2.8977394008824566,2.0739823313037347,0.059268497361730045
0.276479473126565,-4.911272351028193,1.6853810900442596,8.55569150305037,-2.8960326546529527,2.0718014506770697,0.05547348929104733
0.27866286038621746,-4.929103013820971,1.668736356326554,8.552077513793936,-2.8942814390584926,2.0674734652121614,0.05227879933300653
0.2733215347072142,-4.964616213049045,1.646534588196495,8.549826464343028,-2.8924849573355194,2.061083140029314,0.049697939908374726
0.26127866167320357,-5.0162921061238235,1.6210550363421155,8.549036133761213,-2.890576566597567,2.0527092252545205,0.04778949640761332
0.24402216505555802,-5.080577388492894,1.5944914896864821,8.549582962816364,-2.888428002004522,2.042438113468579,0.046653897026206044
0.22353489792154846,-5.152401135269106,1.5688919661226992,8.551168857717649,-2.885863729215989,2.030383661826871,0.04642036373535004
0.20204624540903965,-5.22593905503884,1.5460673897212407,8.553393755850266,-2.8826832690139774,2.016717334403731,0.04722530443213474
0.18175217985408307,-5.295468442877681,1.5274762842466436,8.555831474605586,-2.878687119064739,2.0017054380550405,0.04918526602068115
0.1645571907311277,-5.356167000641281,1.5141093000238974,8.558106852807091,-2.873704543208495,1.985752557420208,0.052369364727200156
0.15188283595247548,-5.404701465858363,1.5064015455677888,8.559945912341465,-2.8676128358173805,1.9694389042871998,0.05677692953036501
0.14456886313442804,-5.439527007641943,1.504200322092513,8.561200169846177,-2.860349644602036,1.9535411026085847,0.06232630364624674
0.14287045037763357,-5.460880271481918,1.5068040980399648,8.561849626125856,-2.851914302878731,1.9390164139538435,0.06885939671298734
0.14653629623436834,-5.470499942492361,1.5130736515146674,8.561982879302239,-2.842359120204844,1.9269392973058883,0.07616415763844454
0.15493985392527473,-5.471152726056084,1.5216034781333352,8.561765473076209,-2.8317751228233714,1.9183860877590226,0.0840132163688967
0.16723057375186653,-5.466064771927471,1.5309243744968153,8.561402191426822,-2.8202733025639843,1.914277583741195,0.09221281808333395
0.1824739861607369,-5.45836393909762,1.5397044942672258,8.561101346432512,-2.807970591450111,1.9152051801898473,0.10065300587102215
0.19975762039234737,-5.450619047766427,1.5469121895439213,8.561038542072568,-2.7949793185508596,1.9212710837828462,0.10934889998368107
0.21825343301100464,-5.4445377498149155,1.5519167865967858,8.561330543121938,-2.7814035000605712,1.9319806832512845,0.11846418236046598
0.2372404341123692,-5.4408517776884855,1.554515993238187,8.56201999873425,-2.7673402774949265,1.9462144409435622,0.12831047733625467
0.256099711051946,-5.439377732884261,1.55489197143238,8.563074372496583,-2.7528815048089412,1.96230048288246,0.13931954130433769
0.27429563806701146,-5.439223414052759,1.5535083276905108,8.564393751044744,-2.7381143456623,1.9781850381871797,0.15198845119848015
0.29135322512542844,-5.4390881818452,1.550970851882298,8.565825119204078,-2.7231203138346833,1.9916790778962083,0.16680194371630552
0.30683576011211133,-5.437596312264034,1.5478755329794394,8.567185286999532,-2.7079738462580774,2.0007414385145754,0.18414077749485083
0.3203237449946294,-5.433607698986801,1.544670800825336,8.568272271544888,-2.6927431446435506,2.0037419541344366,0.20418907070366948
0.3313962227271848,-5.426445791915732,1.5415540134874177,8.568869394418964,-2.6774928379288356,1.9996613747479963,0.22685784300183923
0.3396202566313485,-5.4160283861143235,1.5384216230696686,8.568753368890832,-2.6622919136437346,1.988194326806266,0.25174386931273396
0.3445559549053728,-5.402869674221488,1.534875252624218,8.567686092575496,-2.647216385694065,1.9697422274133738,0.27813981202662724
0.3457867479936765,-5.387974750571789,1.5302885690867,8.56542034863844,-2.6323510654052664,1.9453076831089962,0.3051037401270866
0.3429795695837084,-5.372646864303675,1.523923470781849,8.561715675893689,-2.617786236969636,1.9163185199587363,0.33158352782725464
0.33597193044727,-5.358238336100051,1.5150769693198833,8.556345955499664,-2.603607716642215,1.8844194647130368,0.35657433560877344
0.3248751798537467,-5.345907960158861,1.5032388034481927,8.549131240008448,-2.5898912787807347,1.8512803514939153,0.3792800959385445
0.31017205058959907,-5.336409537704311,1.488228083382473,8.539948206096584,-2.5766958512439757,1.8184482215076654,0.39924463925971304
0.29278295524586995,-5.3299648113251505,1.4702868184438243,8.528747418236986,-2.564064411277199,1.7872632911174948,0.4164275567945847
0.27407253546677396,-5.326227140580959,1.4501065638617672,8.515552180425734,-2.552027550415495,1.758826775131837,0.43121024106195666
0.2557755831681485,-5.3243508041182865,1.428777663880697,8.500454358940567,-2.5406089522520894,1.7340022146817329,0.4443302368989265
0.23983618518662295,-5.323149391762024,1.407665711505232,8.48360103012436,-2.52983157045068,1.7134251307366157,0.4567542774301833
0.22817512614734156,-5.321314814621378,1.3882315907462537,8.465180519203532,-2.5197202195885744,1.6975018142441953,0.4695076638565113
0.22242213849125642,-5.317662062116019,1.3718305997639955,8.44540879149276,-2.5103047208000926,1.6863937004030776,0.48348714311992474
0.22366175658673662,-5.31135648487579,1.3595282592867717,8.42452804128433,-2.501622191912965,1.679993447165877,0.4992864418427157
0.23224271518117584,-5.302080113616815,1.3519654270591952,8.402805487834524,-2.493717290704358,1.6779027661284978,0.5170646267577065
0.2476912472486667,-5.290114284514427,1.34929535043085,8.380537307891995,-2.4866430751095256,1.6794330365485084,0.5364833080375353
0.2687504322595488,-5.276322435840849,1.3511974647380758,8.358049907606777,-2.4804572639109814,1.6836396629551587,0.5567300220456527
0.29354513264373283,-5.262036121361039,1.3569595940427255,8.335693127228943,-2.4752129259204723,1.6893967400000542,0.5766317144446181
0.31984723487303673,-5.248861760039161,1.365606748726262,8.313822824564818,-2.470941775159786,1.6955102006323726,0.5948454704870856
0.34539297008421194,-5.2384479968071815,1.3760505296847494,8.292781598267803,-2.4676331435193934,1.700851990432006,0.6100956932731256
0.3681926784005246,-5.232248793428577,1.3872259737778414,8.27287080217257,-2.465206489290535,1.704492148560723,0.6214143231185751
0.3867776290619053,-5.231333484216539,1.3981973735014877,8.25433832297803,-2.463491189168321,1.7058063486770147,0.6283399591791934
0.40034455902833305,-5.236267983641669,1.408217094177505,8.237366520807155,-2.462211394413343,1.7045369293935426,0.6310366035395044
0.408783864121728,-5.247087796349899,1.4167409272272766,8.222078391171896,-2.4609903509428475,1.7007982550175271,0.6303088225420156
0.4125988869946101,-5.263364862922526,1.4234100570832102,8.208544958258758,-2.4593762184208754,1.695027240717002,0.6275061331164752
0.4127411172106578,-5.284344646594824,1.4280108134529097,8.196792707264267,-2.4568892611742954,1.6878851295690889,0.6243281770134963
0.41039814435953725,-5.3091292565109525,1.4304301992365236,8.186816658039326,-2.453091490390495,1.6801325749957894,0.6225618287260227
0.406773861325749,-5.336866488737711,1.4306111638442753,8.178584360085123,-2.4476654851883097,1.672497137536835,0.6237939604838729
0.4028988769374895,-5.366901201588343,1.4285177116458303,8.172033030110256,-2.4404877389136423,1.665556774059943,0.6291505206986657
0.3994985962233257,-5.398869339615015,1.424110366646604,8.16706949313416,-2.4316842430794456,1.6596586527678294,0.639109299852712
0.3969337196913371,-5.432719833983577,1.4173351320470349,8.163566868258604,-2.421652219210907,1.6548832986559867,0.653420456929943
