0.0,0.0,0.0,0.0,0.0,0.0,0.0
-0.8189006909664572,0.7694026848069035,0.6177304107449264,1.4816304333679022,0.5078212245333767,-0.3252089491986776,-0.1790419046198729
-0.8155648160842291,0.7852849945890461,0.6046265428920722,1.4761589751985107,0.51375733751222,-0.31936057565235054,-0.18063477523562502
-0.8114099590447899,0.7878775748667591,0.6008931813131295,1.470725898669413,0.5132969640237318,-0.31807229072002796,-0.18018847757175013
-0.8067818132325925,0.7899677376613505,0.5970243925051318,1.4660636631074353,0.5128758414645196,-0.3171766506326693,-0.17978283564401604
-0.8016424431725426,0.7911648122560203,0.5931218428423565,1.4626471143571913,0.5125006002444421,-0.3168710197896602,-0.17944357809738537
-0.795950169388641,0.7910566584373206,0.5893004332112278,1.4609649545386019,0.5121813404638019,-0.31735842650724133,-0.1791969836009508
-0.7896544277548929,0.7892608268254276,0.5856744227337436,1.4614505712034995,0.5119330540047764,-0.31882010293163004,-0.17906581756637394
-0.7826918135030996,0.7854823111487311,0.582342315002034,1.4644051087570278,0.5117775637085432,-0.3213847463381849,-0.1790650672004672
-0.7749820208487223,0.7795639082019865,0.5793727948177917,1.4699266514099436,0.511744570638421,-0.32510004271211485,-0.17919794421504573
-0.7664271185778629,0.7715164450165632,0.5767960618404333,1.477865352626411,0.5118721685337349,-0.3299141426479112,-0.17945354683937068
-0.7569118381084033,0.7615171369989681,0.5746003367466045,1.48781605467175,0.5122055028199487,-0.33567169426873344,-0.17980673704357936
-0.7463078075795048,0.7498728737281056,0.5727355801611732,1.4991555733809574,0.5127936451064072,-0.34212737257693093,-0.18022077332251873
-0.7344807533851522,0.7369519505653677,0.5711220239729597,1.5111186523097129,0.5136842162669301,-0.3489741122930812,-0.18065243051037075
-0.7213017247288214,0.7230963323589931,0.5696614819284301,1.5228973305659763,0.5149161449294112,-0.35587981969221016,-0.18105855949878713
-0.7066622948156239,0.7085326294407424,0.5682490865421456,1.5337422206781344,0.5165112329797158,-0.36252387045380585,-0.18140298936074845
-0.6904918463513335,0.693298600273829,0.5667828122231963,1.5430446528478852,0.5184659089864063,-0.3686253920299835,-0.18166211256759562
-0.6727733077033456,0.6772001845711993,0.5651707680653263,1.5503879724382512,0.5207452665763229,-0.3739593184622879,-0.18182843173421323
-0.6535527131476189,0.6598072633398534,0.5633351463739157,1.555564958445933,0.52328097511221,-0.3783600062532915,-0.1819113020207664
-0.6329386233984033,0.6404907376501876,0.5612145568252739,1.5585664713562928,0.52597501697986,-0.3817158051545346,-0.18193491063005876
-0.6110904346451632,0.61849855790419,0.5587653699620311,1.55955119412948,0.528708725137154,-0.3839590021981934,-0.18193384437993132
-0.5882001773552109,0.5930627893429619,0.5559640420635092,1.5588098306025817,0.5313565105845043,-0.3850551677421461,-0.18194712868820076
-0.5644744207952794,0.5635244468488353,0.552810382564016,1.5567312344808302,0.5338010336702195,-0.3849946849241914,-0.18201159947918533
-0.5401233574315454,0.5294582567680983,0.5493323433611463,1.5537781379749482,0.5359470899375787,-0.38378668582856673,-0.18215588675041924
-0.5153595803182823,0.4907726519333069,0.5455899152343239,1.5504704671160576,0.5377306280202914,-0.38145464821747654,-0.18239577759148137
-0.49040334208951253,0.4477623338229684,0.5416773221371702,1.5473733577837356,0.5391225580780253,-0.37803211568567086,-0.18273191425984706
-0.4654872361238924,0.40109241452480343,0.5377204371992113,1.5450812931695417,0.5401270067437364,-0.373556870813201,-0.18315012062832692
-0.4408526408900531,0.35170589739340624,0.5338674019566522,1.54419040534093,0.5407750053603042,-0.36806232396866406,-0.18362424243599715
-0.41673491233714627,0.30066581824435434,0.5302737542065443,1.5452551242365558,0.5411159872600477,-0.3615666533139886,-0.1841210848342655
-0.39334088736908124,0.24896081349235466,0.5270829773926771,1.5487309494528372,0.5412083636311523,-0.35406131635620725,-0.18460643446193578
-0.37082623971015816,0.19731561228851788,0.5244066051989653,1.5549100407874794,0.5411107219382009,-0.3455011001280939,-0.18505091631266307
-0.3492804189157883,0.14604762656860415,0.5223079403286468,1.5638643387065314,0.5408752676944395,-0.3357983155892224,-0.18543479849747782
-0.32872371081190066,0.09499846877436323,0.5207928076793952,1.5754076224494735,0.5405433278006225,-0.32482223409668,-0.18575076179235533
-0.30911571043046626,0.04355286923581238,0.5198095659193692,1.5890929002417689,0.5401437492031232,-0.3124048528586953,-0.1860046915007769
-0.29037127074578456,-0.009256318561660556,0.5192578912797999,1.6042496420300678,0.539693095848775,-0.2983526091462742,-0.18621413106678567
-0.27237970660648975,-0.06456882679203856,0.5190061175199989,1.6200619849105187,0.5391975891544519,-0.2824651217678645,-0.18640531469491903
-0.25502466432146714,-0.1234612829402192,0.5189140103954131,1.6356767345457985,0.5386562605230472,-0.26456104975907907,-0.1866091171472066
-0.23820359622286383,-0.18668174965645465,0.5188564055184536,1.6503189250573347,0.5380639265092492,-0.24451069087046143,-0.18685671032574436
-0.22184674407063995,-0.254390293567705,0.5187443067299417,1.663393637828154,0.5374139666529316,-0.22227231048160198,-0.18717541737704038
-0.20593422022457858,-0.3259529963263698,0.5185397757124378,1.6745552427940122,0.5367008639147186,-0.19792551311315354,-0.18758559547329723
-0.19050729698611796,-0.39984258513078114,0.5182614467425617,1.6837320951468624,0.5359213182173415,-0.1716920926525171,-0.1880983976795488
-0.17566973057037172,-0.47369390647702697,0.5179802596164798,1.6911089514063877,0.535075256761353,-0.14393491853826687,-0.18871483141606185
-0.16157560019729164,-0.544537007629379,0.5178052034625014,1.6970691415329522,0.5341657530414445,-0.11512973244096884,-0.1894255777269408
-0.14840442652436311,-0.6091917466616052,0.5178613351766322,1.7021135350357783,0.5331991987034506,-0.08581370394498686,-0.1902112393295554
-0.13632814737294632,-0.6647620391572575,0.518263015270756,1.7067660184580167,0.5321851023883518,-0.056522508824079165,-0.19104244880610208
-0.1254778015040158,-0.7091358752304497,0.5190867017651416,1.7114829501344841,0.5311363154347442,-0.027733039101060928,-0.191879427291957
-0.115917699737476,-0.7413924423035139,0.5203486325666928,1.716578414046522,0.5300691348562918,0.00017417219451525294,-0.1926711145570701
-0.10763237414063516,-0.762033077928603,0.5219908215794584,1.7221767325520165,0.5290036594295192,0.026925504173281576,-0.19335454435926475
-0.10052807852019724,-0.7729883090809602,0.5238799894886551,1.7281960360555033,0.5279633154482339,0.0523397842569689,-0.19385550878228391
-0.09444750538084075,-0.7773920359252484,0.5258204306263553,1.7343653887142583,0.5269738191577765,0.07629595227729481,-0.1940917240802716
-0.08919422782678851,-0.7791544087280029,0.5275805667412289,1.7402697124116917,0.5260608064819009,0.09869086640596511,-0.19397919075582498
-0.08456244798044182,-0.7824026219394861,0.5289289932255896,1.7454120116973182,0.5252468768090762,0.11939309532279505,-0.19344146553069097
-0.080367418891973,-0.7908842005706486,0.5296743082831863,1.7492823264520236,0.5245476846262613,0.13819584129406356,-0.19242067975064353
-0.0764718645577033,-0.807435236618058,0.5297008817063786,1.751418533951971,0.5239686293721,0.154772618738495,-0.19088810246811655
-0.07280443145009106,-0.833601763273173,0.5289940635229718,1.7514542286096626,0.5235021305052789,0.16864262889565046,-0.18885213710341295
-0.06936682407410853,-0.8694722243188701,0.527649262076584,1.7491509581128244,0.5231268956938278,0.17915709644600789,-0.18636121122370622
-0.06622773476422816,-0.9137423783225804,0.5258626312716518,1.7444210917786045,0.5228090519725808,0.18551971260988157,-0.18350030098292744
-0.06350331224141391,-0.9639900912544941,0.5239036415308559,1.7373490178766406,0.5225057682291302,0.1868511072137384,-0.1803805728094017
-0.061326481483548065,-1.0171030221924333,0.522073661880701,1.7282205749149049,0.5221706270753864,0.18229867237622846,-0.17712384980350507
-0.05980962159062852,-1.0697683648875618,0.5206570828344759,1.7175636499863305,0.5217598994882107,0.17118042218564344,-0.17384432404529326
-0.0590070647425252,-1.118931305499844,0.5198736963536458,1.706197906657577,0.5212386991590454,0.15314028341492275,-0.1706313999362674
-0.05888439750269101,-1.162143296810938,0.5198414109319062,1.6952818061641275,0.5205861595973525,0.12828408794542084,-0.1675370125650309
-0.059300920082695,-1.1977597301180347,0.520555428189524,1.6863303474740607,0.5197980176606428,0.09726255598658744,-0.16456938735037158
-0.060010022097185894,-1.224988406016401,0.521889211511591,1.6811789699596271,0.5188869062282945,0.06127358974025279,-0.16169437762408898
-0.060679457723154064,-1.2438200444057297,0.5236171911227767,1.6818638730088455,0.5178798386244808,0.021968459810370298,-0.15884350637154027
-0.0609301503167476,-1.2548892305864416,0.5254568749407988,1.6904103319575898,0.5168136676882629,-0.018731219032449137,-0.1559276874189794
-0.06038817398393803,-1.2593141733328221,0.5271239301629507,1.7085403863074755,0.5157294876949773,-0.05887577401533625,-0.1528545542543848
-0.05874134152644754,-1.2585516244753112,0.5283897004567173,1.737335405307798,0.5146665918564406,-0.09674106825461844,-0.14954690278538063
-0.055790321415478586,-1.2542879533457247,0.5291322123398681,1.7769168489746932,0.5136577362295874,-0.13104192453853822,-0.14595972285363135
-0.051484641801892175,-1.2483656907244485,0.5293703866576028,1.8262144869402972,0.512725827283233,-0.16106568908136973,-0.14209302335021895
-0.04593623982140071,-1.2427257638343083,0.5292746612706583,1.8828925338284659,0.511882953941152,-0.18670565280336165,-0.13799768223827294
-0.03940699906512649,-1.239337473588781,0.5291505225473956,1.9434864942319408,0.5111309060061028,-0.20839617613691844,-0.13377283000700205
-0.03227143775674282,-1.240092468298355,0.5293966654136818,2.0037656872640026,0.5104640608698459,-0.22696617560024226,-0.129554562853263
-0.024960850934676454,-1.2466489062712325,0.5304412258026727,2.0592799170696816,0.5098723339241799,-0.24343831505049882,-0.12549754979377384
-0.0178995359833114,-1.2602393919340105,0.532667875022162,2.106006266514969,0.5093452181410182,-0.25880709555092274,-0.1217535843161447
-0.011445276686105812,-1.281471478380003,0.5363425407320039,2.140970526462203,0.5088749180748583,-0.27382970790852806,-0.11845123450237281
-0.005844663810712582,-1.3101677425856466,0.5415555343995029,2.162726232756049,0.5084588897490299,-0.2888616497542543,-0.11568083760688665
-0.0012095054656910743,-1.345298000140302,0.548190591536779,2.1715971637408042,0.5081011949407239,-0.30376323066237093,-0.1134871677035632
0.0024844115228582465,-1.3850476179219566,0.5559298745417353,2.1696339241818787,0.50781198500287,-0.3178939481681012,-0.11187019796338286
0.005379178765542166,-1.4270513945463748,0.564298026007343,2.1602851084492696,0.5076059651682052,-0.33020002853638303,-0.1107929445697886
0.007703006940202998,-1.4687816406048109,0.5727408966650319,2.1478324366997215,0.5074992386803868,-0.33938460764575423,-0.11019400195759559
0.009731917858543269,-1.5080486361742051,0.580727299860021,2.1366841234435077,0.5075051727673033,-0.34413416384513573,-0.11000232554474139
0.011751907949247829,-1.5435284101746982,0.5878552758298832,2.1306476745522467,0.5076299478732367,-0.3433616850467351,-0.11015150207806008
0.014027281904809365,-1.5752213057904099,0.5939428654134835,2.132310176362449,0.5078678793404953,-0.33642160203829846,-0.11059146651793562
0.01677853854561271,-1.6047449141029986,0.5990856441563895,2.1426337230424606,0.5081984133489983,-0.32325665050599994,-0.11129630363745116
0.02017050014660966,-1.6353830126695506,0.6036681679676152,2.1608353892766465,0.5085849545154801,-0.3044460429264413,-0.11226756056719328
0.024309057212731175,-1.6718462380920955,0.6083232585431912,2.184577922500732,0.5089767157471771,-0.2811431194194719,-0.11353330917437994
0.029243199864408476,-1.7197406913675837,0.6138420137255169,2.2104458180992492,0.5093134646645924,-0.25490906001660385,-0.1151435498182492
0.03496852468555944,-1.7847949994954144,0.6210438037852977,2.234631247192384,0.5095333367345658,-0.22747083536632348,-0.11716290259486441
0.04142882311409796,-1.8719491021355836,0.6306255586343485,2.2537166231392622,0.5095813596956552,-0.20044826700499363,-0.1196616767425218
0.048514260733824206,-1.9844519746116012,0.6430135928134173,2.2654173418421157,0.5094182263353737,-0.17510116733614176,-0.12270659338670133
0.056057198939377086,-2.1231337115089812,0.658244306159484,2.2691575615761725,0.5090266018615256,-0.1521404192210333,-0.1263523283447312
0.06382962978317336,-2.2860170148931305,0.6758987473626507,2.2663789931318874,0.5084144869160809,-0.13163033061898657,-0.13063508060256418
0.07154742500387035,-2.4683821672810007,0.6951074310615157,2.2605254919249127,0.5076141476575247,-0.11298932307727949,-0.13556860072973975
0.07888599772865951,-2.6633367499313225,0.7146333190684147,2.256702874806666,0.5066777130963018,-0.09507947569141206,-0.14114267134671127
0.08550860359800211,-2.862824839295276,0.7330221606112104,2.2610615127406444,0.5056693558647257,-0.0763615765241686,-0.14732271213550474
0.09110409545199785,-3.0589004320875666,0.7487960402415963,2.2800087939551,0.5046556679041422,-0.055084897160429226,-0.15404881444769114
0.09542726487216553,-3.2450227861758827,0.7606528287417036,2.3193900050495238,0.5036962964406981,-0.029477968891458522,-0.16123255441655604
0.09833326349148072,-3.417116310747498,0.7676346571589002,2.3837803180575645,0.5028360362722424,0.0020896929671253934,-0.1687515127494209
0.099798676712607,-3.574205859459583,0.7692359276642209,2.476006469378623,0.5020996865055929,0.04099590539530371,-0.1764435508253194
0.09992472726511518,-3.718535590763764,0.7654378534665839,2.596966046309028,0.5014906563180005,0.0883123456628589,-0.18410484605965147
0.0989212351423292,-3.855167517435114,0.7566697584899206,2.745750373078928,0.500992593463552,0.1448037954771378,-0.1914960834052571
0.09707401500837011,-3.9911453851082275,0.7437134346710873,2.920015617080135,0.5005739327638591,0.2109620276919837,-0.1983593019077376
0.09470124139230411,-4.134360061971711,0.7275752636240189,3.116491680455149,0.5001943179442377,0.2870485741630835,-0.20444468527525814
0.09210661812547606,-4.292288250045975,0.7093541126375333,3.3314904208259564,0.49981117263060953,0.37311976656149654,-0.2095425030373908
0.08953754455189618,-4.470800569986537,0.690131415687105,3.5612969395183374,0.49938568960648094,0.4690191636416926,-0.21351357647757832
0.08715487338142436,-4.673231560954717,0.6708970258015705,3.8023897169309095,0.4988873384627522,0.5743426248068831,-0.21631139634360713
0.08501795450307585,-4.899862807537225,0.6525114471309504,4.051513224227434,0.49829588230883437,0.6884017080957212,-0.21799075504220133
0.08308561621704252,-5.147926879256291,0.6356924573013297,4.305692499460751,0.4976017240966473,0.8102220662921444,-0.21870055879932512
0.08123088929860632,-5.412139311861542,0.621010208853695,4.562281361003989,0.4968042354097904,0.9386038220539522,-0.21866164452329778
0.07926571511593351,-5.685661177414611,0.6088764878840034,4.8191010316544665,0.4959095300231059,1.0722443398018628,-0.21813276334742346
0.07697044292822136,-5.961284280752155,0.5995219497640151,5.07464762636555,0.49492746058858145,1.2098927612113861,-0.21737046309250574
0.07412309542918127,-6.232587421594162,0.5929646202478143,5.328304310673767,0.493869240794224,1.3504884207346475,-0.21658946634650236
0.07052388566386948,-6.494834294350022,0.5889791348117466,5.580473789847211,0.49274528336130236,1.493241751583076,-0.21593007993219698
0.06601210755566139,-6.745479844167529,0.5870805975512859,5.83258959697379,0.49156447252983104,1.637646615384852,-0.21543755242294219
0.06047447458740344,-6.9842689888819995,0.5865364037659389,6.0869934816496185,0.490333713981111,1.7834423244432152,-0.21505603974137424
0.05384591828876122,-7.213001202929789,0.5864146708355444,6.346707782605572,0.4890582955210374,1.9305604252493171,-0.2146372929013802
0.046105544895491415,-7.435068122358485,0.5856715323133,6.6151300743661725,0.4877426375487009,2.0790851536568513,-0.21396191246382748
0.03727149499302594,-7.654887308467672,0.5832696874398354,6.8956733363519485,0.48639136382213105,2.2292341344848294,-0.21276907270135303
0.027398097488649853,-7.877296769467022,0.5783103375037945,7.191348904681596,0.4850103961500063,2.381338526761517,-0.21078899771414739
0.016577194399942093,-8.106994666479036,0.5701567490000804,7.504326833605322,0.48360845379123785,2.53580229706339,-0.20777266349998844
0.0049425297831917625,-8.348065716527987,0.5585264166727032,7.835519613090753,0.4821983883572187,2.6930268463095963,-0.20351406897359636
-0.0073267301001947865,-8.603623341405633,0.5435326541403579,8.184281655167423,0.48079769400170325,2.8533104194316556,-0.1978626037196599
-0.020008675003124757,-8.875607491151182,0.5256670160467986,8.548322464711294,0.4794287832271142,3.0167513379656015,-0.19072557901252238
-0.032851531265447084,-9.16469668498796,0.5057218136174944,8.923873714333562,0.47811734467477945,3.1831703566047733,-0.18206294571804463
-0.04559705152746592,-9.470296495911565,0.48466730620728804,9.30608136685062,0.4768901313171831,3.3520565521822143,-0.17187870501476474
-0.058010313699538185,-9.79050002461101,0.4635064171570119,9.689481770958006,0.4757714328949052,3.522509678126919,-0.16021312560759612
-0.06990884756495963,-10.121959221356398,0.4431362179286637,10.068409830117934,0.47477970319142065,3.693152047500704,-0.14713972391458086
-0.08118414886530063,-10.459662370680094,0.4242412786142151,10.437211228906468,0.47392481214850785,3.862007442531968,-0.13276776134778367
-0.09181105554080259,-10.796703854007378,0.4072335771128542,10.790247708441013,0.4732061604362192,4.026376373854979,-0.11724733923599996
-0.10184432024704618,-11.124241666459202,0.3922424791782357,11.121797894106265,0.4726128760426254,4.182788524243556,-0.10077204234953467
-0.11140425304441429,-11.431804542262132,0.37914673672928045,11.4259920243269,0.4721255507477404,4.32710239822482,-0.08357370794653485
-0.12065481651245982,-11.70804545830718,0.36763555513791674,11.696898723051378,0.47171892535748805,4.454794362364582,-0.06590693782444612
-0.12977769125139346,-11.941891330130339,0.3572845971462956,11.928801964381288,0.4713663654679387,4.561420505327301,-0.048026111352490505
-0.13894521564470297,-12.123863394707435,0.34763225225621436,12.116572470760602,0.4710433604943569,4.64315477375259,-0.030161019200851874
-0.14829542115293232,-12.247304856003948,0.33824634913111523,12.256039628799297,0.47073139212758575,4.697297024525175,-0.012498539560339559
-0.15791228648315092,-12.309237420974677,0.32877333442959555,12.344245541243131,0.4704201616605843,4.722631529183861,0.0048255693950011655
-0.16781450083910732,-12.310682524251652,0.3189663220385959,12.379546902372095,0.4701082053650655,4.719569832894468,0.021724766755319765
-0.1779555559317332,-12.256398886569423,0.30869297910883714,12.361592010661376,0.46980248561682597,4.690060922960779,0.03815381391434087
-0.18823571755599158,-12.154117884787269,0.2979259457426287,12.291269406517353,0.4695161105120237,4.637302753411947,0.054099582233489374
-0.1985235944039917,-12.01344581481446,0.28672274770128364,12.170710601466684,0.4692652803111021,4.565330376665534,0.06957373128879958
-0.20868236823196615,-11.844677707290401,0.27520238926513135,12.003429550109331,0.4690655556571924,4.478582774477,0.08460745973548495
-0.21859432229453088,-11.657769858561522,0.2635257482108691,11.794623082606424,0.4689283266132352,4.381540901242318,0.09924660147296517
-0.22817817311997937,-11.461615216212063,0.25188318614730937,11.551535343591414,0.46885754684661685,4.278493095474661,0.11354525222073703
-0.2373971046278996,-11.263700662700867,0.2404890143401054,11.283747541821702,0.4688479294253077,4.173434022958367,0.12755796176898634
-0.24625783524253808,-11.070075569369983,0.22957830085134429,11.003185056789258,0.46888456243993765,4.070048861703698,0.14133218893363084
-0.2548034449694882,-10.885514735596775,0.21940046085471923,10.723650108711965,0.46894444369461946,3.9717204031796514,0.15490336191534684
-0.2631028345199088,-10.713755374051445,0.21020562448682914,10.459850807862798,0.46899980908715744,3.8814963893100263,0.16829366437399
-0.27123877916763617,-10.557727323253236,0.2022239031535279,10.226013326219213,0.4690226211360164,3.8020042563538996,0.18151359425855657
-0.27929578753603185,-10.419747592927177,0.19564103531914737,10.034348563794657,0.4689892136144226,3.7353296501490014,0.19456356378759787
-0.28734840426207864,-10.30169563353978,0.19057652603511405,9.893691996948956,0.46888483746770004,3.6829021311864434,0.20743331980152843
-0.2954508306898205,-10.20516195771578,0.18706962170584185,9.808601805979823,0.468706365953012,3.645429478916892,0.22009822526068895
-0.3036293131630163,-10.131570814016705,0.18507664049707093,9.779076224854663,0.4684632730151575,3.622903662295724,0.23251472073055077
-0.3118792282737872,-10.082251208687888,0.18448065839268776,9.800937521434431,0.4681770234231514,3.6146843725968534,0.24461820797361442
-0.3201667926731181,-10.058405323354055,0.185111368049797,9.86676648734188,0.4678782536437627,3.6196357779140844,0.256326004392026
-0.3284350680477949,-10.060969924242029,0.1867715572275494,9.967195633039477,0.4676030356979366,3.6362884194475433,0.26754590425064745
-0.336611183179176,-10.090372304232059,0.18926503255745725,10.092292742022321,0.4673885579978753,3.6629879687466933,0.27818782438933365
-0.34461201249522966,-10.146215404166668,0.19242073813709037,10.232772898841334,0.46726863574341093,3.698000299311704,0.28817441831067747
-0.35234705390664994,-10.226972755292381,0.19610964456833793,10.380858759637507,0.46727042117208717,3.739567058041597,0.2974475773064886
-0.35971871893588603,-10.329770060175044,0.200252311294536,10.530695313893416,0.46741188241355347,3.785913883335449,0.30596941816207723
-0.3666235654601162,-10.450345652517466,0.20481757028036107,10.678370284886036,0.46770094956542957,3.8352456832856734,0.3137194860285635
-0.3729570209650393,-10.583220825862805,0.20981372233597542,10.82162184129738,0.46813547634413966,3.885752153377549,0.3206902587375016
-0.3786243889290349,-10.72208741363779,0.21527417452037875,10.959368540547093,0.4687040696164046,3.935643592107946,0.3268839443383803
-0.38355750809755157,-10.860318807920695,0.2212393629685829,11.091153267198965,0.4693869639823303,3.9832135965572664,0.33231133041953936
-0.38773398039237666,-10.991479990677556,0.22773678918723275,11.216581552514436,0.47015639121601194,4.026905983619438,0.33699219338027037
-0.3911946637298577,-11.109734845409925,0.2347614841946027,11.334812066333223,0.47097636923876995,4.065364892506491,0.3409563799241756
-0.3940545791882313,-11.210068562568026,0.2422599967428665,11.444166645092476,0.4718021420828273,4.097451198681977,0.3442440862159549
-0.3965034617445422,-11.288355436092944,0.250121648417375,11.541927812672997,0.4725803563321202,4.1222320326198485,0.34690537374724495
-0.39879342638430487,-11.341334280522428,0.25817973803541755,11.62438412407927,0.4732508807241249,4.138953351227823,0.34899917720945317
-0.40121431024138654,-11.366582058808234,0.26622413525276545,11.68715990322275,0.47375126147598207,4.1470287335234906,0.3505925031204818
-0.40405814063532774,-11.36257401284511,0.27402265577332446,11.725792970808893,0.47402366091712844,4.146049070401639,0.35176079269109845
-0.40757790264050653,-11.328825954783456,0.2813464577590568,11.736466193199567,0.4740235153718084,4.135824840729564,0.3525891606456077
-0.4119471787128575,-11.266128399362037,0.28799308968270354,11.716760312706175,0.47372824801486396,4.116451523057945,0.35317494008949524
-0.4172277030379037,-11.176764929358619,0.2938022105570009,11.666271487506531,0.4731442707386105,4.088373655525989,0.35363005253356944
-0.4233521208375383,-11.06463854572379,0.2986614051872594,11.586958009959785,0.47231043981702,4.052431610240069,0.35408197709455563
-0.43012705575299914,-10.935199275444795,0.30250300508632494,11.483135328883737,0.47129680193866785,4.009859107723414,0.3546718399392602
-0.4372584254314947,-10.795113083703834,0.30529446144132566,11.361100726105281,0.4701980942748172,3.9622287778862355,0.35554792721727607
-0.4443966028188615,-10.65169495790709,0.3070257810942603,11.22846027709019,0.4691229251697467,3.9113476216427685,0.3568547021029682
-0.45119394955325565,-10.512183935707128,0.307697079237788,11.09328950820006,0.4681802751264689,3.859128442319407,0.3587174644454138
-0.45736359117668274,-10.383006728233678,0.30730755057675285,10.963297903301182,0.4674650322889136,3.8074652443682577,0.3612247291596329
-0.4627287982790014,-10.269183763948437,0.30584777705803745,10.845169506152066,0.46704604385494974,3.7581492182610194,0.3644117279100457
-0.46725348227916047,-10.173980839854016,0.3032947628079134,10.744166643205732,0.46695811860857656,3.712826139692593,0.36824828923939645
-0.47104908271189094,-10.098838202056697,0.2996103764839739,10.66400079073642,0.46719930326838616,3.6729895503340404,0.3726345125022897
-0.4743572648115613,-10.043556923652817,0.2947431630970123,10.606916292350746,0.4677338130993775,3.6399784201406487,0.3774065791387678
-0.4775111573961457,-10.006649837169501,0.2886333513326553,10.573873362035952,0.46849916762864885,3.614950981311342,0.3823524765816812
-0.4808821530240933,-9.985791799489126,0.2812223598098463,10.564751535920804,0.4694167674920356,3.5988224936469537,0.3872354063598929
-0.48482021139869563,-9.978252110548615,0.27246580636699985,10.578489426481177,0.4704025573959575,3.5921655154750103,0.3918195805805309
-0.4895976615444982,-9.981254418242713,0.26234939031718213,10.613155920415666,0.47137650830601596,3.595094714719449,0.3958932670056168
-0.49536538875250363,-9.992228476186856,0.25090455393669375,10.665958308268765,0.4722689729827878,3.607169482202151,0.3992848671656488
-0.502128993319686,-10.008941729097753,0.23821991954464872,10.733271826384543,0.4730239381781366,3.627347230149268,0.4018707609309376
-0.5097486502628654,-10.029538575651152,0.2244438515067268,10.810736051956143,0.4735995861796932,3.6540167834791797,0.40357574045801403
-0.5179631811183414,-10.052529387802828,0.20977592470756387,10.893499641381286,0.4739673414625433,3.685122675480602,0.4043694375644526
-0.5264334394013207,-10.076752395996706,0.1944485608430065,10.976615118961481,0.4741110393347875,3.718370400205875,0.40426186056914026
-0.5347961128395702,-10.101327640921761,0.17870352493111788,11.055523103707076,0.4740262097987091,3.75147684904188,0.40330047757478243
-0.542716507077399,-10.12561122570559,0.16277073652227106,11.126549772969346,0.4737201370481604,3.7824158023135093,0.40156999135254207
-0.5499308257307325,-10.149147488759692,0.14685507673994444,11.187303024404049,0.47321242225955534,3.8096141252115294,0.3991938291516107
-0.5562710067885475,-10.171619578076243,0.13113314170441379,11.23689079711609,0.4725352048776989,3.8320624556763474,0.3963347636354051
-0.5616710535291457,-10.19279840935979,0.1157574231617234,11.275914844042802,0.471732109920762,3.849335446954715,0.3931908069127065
-0.5661575935535793,-10.212504257057478,0.1008631210660152,11.3062549282795,0.47085579551948603,3.8615327800848687,0.3899832762393311
-0.5698298506668795,-10.230586564619328,0.08657292097133198,11.330678050988762,0.46996372673208736,3.869166558941134,0.38693510073551074
-0.5728345636618473,-10.246914266183245,0.072998305650099,11.352337617082158,0.46911229713262653,3.873022261027778,0.3842402895756165
-0.5753404919729519,-10.261378883608591,0.06023874778892707,11.374239596370115,0.46835046177442263,3.8740223351271426,0.38202883515657177
-0.5775164972966496,-10.27389639420899,0.04838187278964145,11.398761697681286,0.4677136431647519,3.8731111009677184,0.380333136458407
-0.5795155716427363,-10.284404981153445,0.037506605360565874,11.427297354374321,0.46721960041618055,3.871172642369823,0.37906352363160384
-0.5814645184139942,-10.292854661074147,0.027688968645881242,11.460072327994897,0.4668662530256793,3.8689802447725694,0.37799910569645584
-0.5834601852421982,-10.299201655536825,0.01900812321630242,11.496175322152428,0.4666328615281881,3.867174006791556,0.3767992675815073
-0.5855688733604473,-10.30339635291111,0.011549467315715507,11.533769430872844,0.46648347725944167,3.866246652692776,0.37503695602855813
-0.5878286863651487,-10.305388920138457,0.005403063396606245,11.570477561999454,0.46637263408781904,3.8665367566183093,0.3722523290296187
-0.5902520916365595,-10.305137454812797,0.0006576444513620351,11.603842142640499,0.46625199195037287,3.868214121140236,0.36801923940780684
-0.5928272224831717,-10.302621786753527,-0.0026074607174313095,11.631784588825816,0.4660768204051068,3.8712604294975668,0.36201447027067823
-0.5955180919348269,-10.297853404866148,-0.004329565762010867,11.652972191598485,0.4658109644560546,3.8754499763297043,0.35407768952505825
-0.5982641470022232,-10.290883247199213,-0.004466658688226098,11.667035851858541,0.46542984320268144,3.8803408080036994,0.3442501345459452
-0.6009814699490934,-10.281798786416886,-0.002997315048992615,11.67460720534959,0.4649213889668687,3.8852896278148012,0.3327834796766118
-0.6035670457484875,-10.270722525700636,8.284317464972402e-05,11.677183325361954,0.4642849051739528,3.8895029702074604,0.320114863797992
-0.6059072941346593,-10.257799470180121,0.00476622404767049,11.676843672604381,0.46352881307656263,3.8921280730935357,0.3068110691036934
-0.6078904923693946,-10.243195344256193,0.011037359562992035,11.675881978362314,0.46266768064589436,3.892377032508598,0.2934921032896457
-0.6094208562472986,-10.227089517325433,0.01887376743259718,11.676400652321208,0.4617193630240394,3.889668361585271,0.28074961518258457
-0.6104311892814813,-10.209678501139,0.028242566416246652,11.679956157681964,0.4607027674519027,3.883756958074675,0.26907652074704347
-0.6108926626208363,-10.191179105200211,0.039093734266917486,11.6872998071572,0.45963616608051683,3.8748304516731986,0.2588200106887348
-0.6108183693657272,-10.17183197463935,0.05135253370166913,11.69825659828295,0.45853598759818076,3.8635424796947935,0.25016305932339516
-0.6102619793002673,-10.151899376635683,0.06491406503124991,11.711778388844134,0.45741566197092615,3.850970562875817,0.24313263078104416
-0.6093115891627786,-10.131655339741872,0.07964153877819392,11.726144887214504,0.45628429907815937,3.8384929967258077,0.23762801026902716
-0.6080809228004902,-10.111370419044626,0.09536714213980517,11.73930256841854,0.45514482230655745,3.827600407145901,0.2334605659065885
-0.6066992302750034,-10.09129040158424,0.11189215067556563,11.749258640672466,0.45399151074487687,3.819664848308188,0.23039613939270737
-0.6053031232283355,-10.071610736370001,0.1289824457612828,11.75447471875581,0.4528076929426723,3.815710523506023,0.22819334564694388
-0.604030538045499,-10.052462828927965,0.14635894006257372,11.754180062141943,0.45156421958792226,3.816228714965677,0.22663297389576872
-0.6030165204520902,-10.033903630183197,0.16368633003260433,11.748545552594559,0.45021920114768277,3.8210684808350472,0.2255365632353988
-0.6023905550646492,-10.015909948826053,0.1805681444783145,11.738692802669753,0.44872046362867435,3.829433407433626,0.2247747998920504
-0.6022717019342103,-9.998381427720581,0.19655589481955563,11.726523770337224,0.44701088520527843,3.8399881586338966,0.22426756210057686
-0.6027616537114674,-9.981139507342073,0.21117669073430523,11.714399014304659,0.44503732361415016,3.851064667137584,0.2239785717139623
-0.6039337090152462,-9.963938734028181,0.223976757419104,11.704722681521009,0.44276277183301543,3.8609358315463966,0.2239073676770954
-0.6058186410909027,-9.946456567909696,0.2345713326288144,11.699476514914839,0.4401798310329357,3.868103692729338,0.22408033337530198
-0.6083913668475494,-9.928306018167502,0.24268971021729058,11.699816532031072,0.4373242261258709,3.871558516585685,0.22454271354028096
-0.6115597502738184,-9.909035131324643,0.24820320470348411,11.705785639239453,0.43428413667479926,3.8709514424716716,0.2253512110468696
-0.6151629294247456,-9.888154718863323,0.25113021365709853,11.716205285828437,0.4312027049099293,3.8666579168030695,0.2265671587438295
-0.6189808334582054,-9.865178577429193,0.25161604891215966,11.728792723192319,0.428269611586774,3.859714311708576,0.22824872793268783
-0.6227581925760177,-9.839699658934826,0.2498912654917875,11.740490023361868,0.4257008607109147,3.851636126403092,0.23044100364936976
-0.6262408088465203,-9.81149988791676,0.24621542720377773,11.747971828379688,0.4237074431909709,3.8441482491247942,0.23316302054854096
-0.6292191086428646,-9.780681621415416,0.24081603350431868,11.748251381523861,0.42245711830597776,3.8388684478070645,0.23639197395361683
-0.6315711276324399,-9.747813420240877,0.23383304705151178,11.739274585440889,0.42203582486248525,3.83700142810491,0.240046652751835
-0.6332959754185401,-9.714048857571374,0.22527793539471916,11.720391893901299,0.42241666675257755,3.8390943854084845,0.24397400904147837
-0.6345309108008489,-9.681190025098026,0.215014135740335,11.692624871226812,0.4234445246817369,3.8449058490719152,0.24794521343949055
-0.6355457208814621,-9.651636921610985,0.20276190461206978,11.658640391477613,0.42484160935968496,3.853406753394449,0.25166745853867784
-0.6367135970793981,-9.628201907465732,0.1881289564390497,11.622442475360858,0.42623775346667797,3.86293045520777,0.2548175136875533
-0.6384602075587823,-9.613780829266155,0.17066500429180564,11.588799416888808,0.4272237130575705,3.871449266531904,0.25709826979295025
-0.6411968220127008,-9.610889626094552,0.14993530931360444,11.562481569117512,0.4274206752328192,3.8769358133258645,0.2583138619055778
-0.6452485260193961,-9.621162628706475,0.1256052801988791,11.54746684369591,0.42655565489283426,3.877748578716668,0.2584531851886145
-0.6507894077566823,-9.644877475195653,0.09752318993800024,11.546225933056672,0.42452832187733974,3.872971723928779,0.2577652751296887
-0.6577973043211887,-9.680627252073576,0.06578485319188658,11.55924274248827,0.421455634058148,3.862644701253971,0.25680752320185524
-0.6660387003978743,-9.725222990940203,0.030762750208589,11.584841668289581,0.4176823187076467,3.8478328591125655,0.2564469920368166
-0.6750911165875253,-9.773903646129524,-0.006913373707811082,11.61939347989957,0.41375015030075174,3.8305213609949935,0.2577993914792202
-0.6844017953693173,-9.820858403813695,-0.04642800314269598,11.657856485061037,0.41032475127155504,3.813330974217448,0.26209862686311314
-0.6933759747968512,-9.860005563480845,-0.0868919683206942,11.694579436249215,0.4080878766381589,3.7991005349082863,0.2705037575303762
-0.7014790601546727,-9.885908957054887,-0.1274711638654525,11.724225669076823,0.4076106723691469,3.790400329101151,0.2838660271981547
-0.7083336648334301,-9.894668051412117,-0.16750211215608746,11.742652346369196,0.409229817498126,3.7890632364445374,0.30249313868257144
-0.7137925575728272,-9.88459814912409,-0.2065694560261053,11.74757577051641,0.41295004902497595,3.7958176012970877,0.3259567666811221
-0.7179733555400704,-9.856586959562165,-0.24453258766701758,11.7389236910896,0.41839457575830136,3.810094072857887,0.3529917580503686
-0.7212473886202019,-9.814035387415958,-0.281501685228634,11.718814434428094,0.4248191613389639,3.8300480226863307,0.38152781756524606
-0.7241821388988039,-9.762375159841177,-0.3177722574387205,11.691164843542113,0.4311955069546759,3.8528090947996327,0.40887501842126683
-0.7274439900499141,-9.708235478654707,-0.35373020297593205,11.66100826089514,0.4363574686180845,3.8749216135506934,0.43205506878116634
-0.7316758804131046,-9.658390267688386,-0.38973961161688375,11.63363695299619,0.43918996339011795,3.8929100656828712,0.44823400152018467
-0.737368536278086,-9.618679320246144,-0.4260250080671457,11.613720201458063,0.43882872316175725,3.9038663077685105,0.4551841952467094
-0.744747090118293,-9.593072304822815,-0.46256256676756125,11.604543715443256,0.4348346618528621,3.905949514353638,0.4516885704261066
-0.7536959252441195,-9.583066141990662,-0.4990000065045028,11.607515036899668,0.42730939129608325,3.8987193701374725,0.43780933174693815
-0.7637372345661317,-9.587468169547643,-0.5346262164677137,11.621978110499638,0.4169251105695177,3.883226073590448,0.4149615082289054
-0.7740750113750894,-9.602613396687376,-0.5684099671601719,11.645376832884125,0.4048567012753393,3.861853987632189,0.3857665920505113
-0.7837035018617101,-9.622963101296106,-0.5991156421891656,11.673725090462822,0.39262069817609097,3.837931463167316,0.35370020534760566
-0.7915653420800003,-9.64194571488055,-0.6254832767879954,11.702267178168396,0.3818419702953084,3.8151700772992343,0.3225876787443794
-0.7967354545361994,-9.652909706939571,-0.646444617178204,11.726234554534503,0.37398896652399205,3.7970418227889366,0.2960379420099091
-0.7985954562815372,-9.649991241743926,-0.6613313580867319,11.741523303131554,0.37012295147057445,3.7861884258541196,0.27691724143906543
-0.796967155204396,-9.628771330236729,-0.6700333053458094,11.745201685114736,0.37070812441118184,3.7839784468348943,0.26695626969752606
-0.7921779012509443,-9.586634263836032,-0.6730717263899877,11.735769946433678,0.3755166187563323,3.7902811381706605,0.2665529796000115
-0.7850414423569628,-9.522817473056296,-0.6715677271974716,11.713152427633004,0.38364712850371396,3.803490340385497,0.2747945834727617
-0.7767545264892403,-9.438206274725014,-0.667106058631924,11.678472526509982,0.39365703623953047,3.8208000806937736,0.28968470629878984
-0.7687197169342382,-9.334957871866154,-0.6615100149382351,11.633658254071253,0.4037868210516348,3.83867294858407,0.30852575405739063
-0.7623262660261224,-9.2160771780678,-0.6565659069715836,11.580979173592018,0.4122385630978368,3.853424941504063,0.3283820824491672
-0.7587246126672836,-9.085046658074294,-0.6537432775184128,11.522610090847042,0.4174587028393988,3.861817801299038,0.34653807024338534
-0.7586367127030124,-8.945572173542429,-0.6539618693399901,11.460281745622257,0.4183745428876234,3.861552289633714,0.360872519785004
-0.762234853876362,-8.801457545889212,-0.6574473812628928,11.395086511020056,0.41454540700794973,3.8515886697361768,0.37009536320021563
-0.7691107881515556,-8.656540498875982,-0.6637037984615984,11.327433666658992,0.4062050081705181,3.8322417672909053,0.37382470215440483
-0.7783426018960617,-8.51463342266076,-0.6716122037993189,11.257159720195697,0.394192432000981,3.8050589916575484,0.37251246768678753
-0.7886470278413267,-8.379381403256936,-0.6796443336928777,11.183755483370502,0.37978679759188955,3.772504223368732,0.3672502404323603
-0.7985926087448432,-8.25403229164578,-0.6861595539199937,11.106678103887896,0.3644785843151468,3.7375250648928433,0.3595031287780424
-0.8068348491840707,-8.141154937650011,-0.6897362597400374,11.025707221346204,0.3497209060543932,3.7030820670064473,0.3508256188193632
-0.8123312137123567,-8.042370803408405,-0.6894809312355542,10.941297768654627,0.33670627845115036,3.671733084640119,0.34260968371932543
-0.8144986184967847,-7.958172839741574,-0.6852580447265135,10.854851860798044,0.32620504270257084,3.645331576386644,0.335901971265049
-0.8132906203405412,-7.887894799915129,-0.6777990753484818,10.76885742258982,0.318487398496933,3.624885221086628,0.331309304629166
-0.8091837890531115,-7.829832370258887,-0.6686630727156492,10.68680559313852,0.31333250111261124,3.6105627832363543,0.3289912768523583
-0.8030818859748818,-7.781524069918619,-0.6600480318683744,10.612862623938478,0.31011467413354105,3.6018337232784923,0.3287264186353494
-0.796156926159102,-7.740135136632856,-0.6544758432441486,10.551299398643152,0.3079445461679794,3.597692122211299,0.3300280599233326
-0.7896581353971576,-7.702894683663597,-0.6544009095568802,10.505744502006271,0.3058370465517994,3.5969128557788763,0.33228203584824323
-0.784724815298345,-7.667522301205911,-0.6618106951005824,10.478412600803386,0.30287603603575974,3.5983007860960394,0.3348803112320936
-0.7822346507265646,-7.63257277784836,-0.677888924051068,10.46943979216858,0.2983487253144838,3.6008843239396335,0.33732811276693975
-0.7827087323597419,-7.597632404504647,-0.7028036616545614,10.476487446836943,0.2918310060230642,3.6040322964833638,0.3393113520808945
-0.7862855643701415,-7.563354425737264,-0.7356627476586168,10.494752741895335,0.2832160261204189,3.6074954174977245,0.34072026099186115
-0.7927562894331446,-7.531279441177728,-0.7746467449339907,10.517418638517658,0.2726866837329694,3.611362457985067,0.3416314587475067
-0.8016519953129749,-7.5034933955073635,-0.8173025933110625,10.536564938178506,0.260644043484969,3.6159632147556664,0.342258154666502
-0.8123582563348649,-7.482141923177195,-0.8609423372571949,10.544403940625369,0.2476089579567312,3.621727360580005,0.3428797227765333
-0.8242344414339556,-7.468891884547962,-0.9030716472035312,10.534663373396977,0.23411816074012942,3.6290299770255565,0.3437648043501277
-0.8367154929078601,-7.464430288226234,-0.9417656330105508,10.503858251622418,0.22063510308928688,3.6380445397063834,0.3451013255741569
-0.8493821443193736,-7.468105269685027,-0.9759254788293479,10.452221190780161,0.20748958363473477,3.648637130702287,0.3469453662514974
-0.861993082187682,-7.477775571638148,-1.005375622326652,10.384056013163631,0.19485139951023148,3.6603098789200468,0.3491963560610755
-0.8744852416076799,-7.489947805968164,-1.0307960486411323,10.30741351548722,0.1827366061281911,3.672226274069288,0.35160435208118684
-0.8869476868845447,-7.500193561002676,-1.0535060744442388,10.233044914624587,0.17103879146749287,3.683306289354361,0.35380728400312594
-0.8995816055559516,-7.5038221119074295,-1.0751397040735622,10.17275728738357,0.15957738693426718,3.6923946191050745,0.3553943359969771
-0.912652628672313,-7.496700331186751,-1.097264074324026,10.13741231591842,0.14815352221509837,3.698466577123933,0.3559834648305168
-0.9264443334610583,-7.476095395427712,-1.1210024368432001,10.134913634463317,0.13660582781451705,3.7008399708634987,0.35530044415614015
-0.9412170516560164,-7.441366905092239,-1.1467231051703985,10.168552955620791,0.12485788312988019,3.699349171288302,0.3532440639277637
-0.9571768958891896,-7.394376043603346,-1.1738513601003537,10.23603497748738,0.11294984976465113,3.6944444689260276,0.34992502809976456
-0.9744575399017568,-7.339497576618685,-1.200847569343005,10.329420041726204,0.10104779828968598,3.687193746354253,0.34566936894005595
-0.9931153303361823,-7.283179594600703,-1.225372327775271,10.436062695826891,0.08942673117116544,3.6791718419465984,0.340983242036093
-1.0131354940862212,-7.233091383237358,-1.2446315880428789,10.540469797103821,0.07842836660592324,3.6722528852983083,0.33648246527335157
-1.0344416946771364,-7.196959554223394,-1.2558525871792987,10.626784698161401,0.06840009079632016,3.6683258449449574,0.332796954490416
-1.0569035541700684,-7.181299811163058,-1.2568158996634438,10.681489016808191,0.059626978595619294,3.6689877676699925,0.3304672479262053
-1.0803356778730322,-7.190262835720842,-1.2463460245089875,10.695834233954171,0.05227027185527496,3.675262801032759,0.32985145898918716
-1.1044899404997357,-7.224815611158155,-1.224666199653289,10.667551516552763,0.04632461175218356,3.6874018978562626,0.3310601944154726
-1.12904705238011,-7.282427483161154,-1.1935425179845303,10.601529676452847,0.0416020697616584,3.704804792711266,0.33393267438208774
-1.1536175390321712,-7.357336069813954,-1.1561711731829603,10.509298608040343,0.037745942571305716,3.726080272027344,0.33805947691071025
-1.1777590973150731,-7.441391874807719,-1.1168124161054886,10.407385159294996,0.034272360695768965,3.7492523578164416,0.34285092181160287
-1.2010121585472595,-7.525350119300913,-1.0802191230513745,10.314783777076714,0.030632953651642737,3.772073743864893,0.3476407090908549
-1.2229450096088141,-7.600383499506763,-1.0509581141414113,10.24997585095095,0.026288195556509783,3.792395370051722,0.3518075753698049
-1.2431971921111091,-7.659553051165542,-1.0327463511967212,10.22802734565962,0.020779084348821437,3.8085249951939986,0.35489325732637367
-1.2615091154979172,-7.698952617479538,-1.0279202476648057,10.258269487374106,0.013785251807951275,3.8195055005197003,0.35669502745325515
-1.2777333528589023,-7.718353843511696,-1.0371283306318793,10.342958756521128,0.005160120154368755,3.8252707528050176,0.35731604627432345
-1.291827547940304,-7.721223969128507,-1.0592879588814559,10.477118608254552,-0.005062006571270106,3.826646881399323,0.3571621470034799
-1.303834298583974,-7.714127982349403,-1.091799126417261,10.649545810262635,-0.016687041895110583,3.825203288410001,0.3568825842175644
-1.313856561703789,-7.705618893087924,-1.1309648799631313,10.84480295718408,-0.029404820901235047,3.8229832233555876,0.35726163012188156
-1.3220328297598034,-7.704796638537813,-1.172525156820766,11.045770623327932,-0.04284516873996778,3.822150264542441,0.35907600845663684
-1.3285151981977443,-7.719785364773151,-1.2121991331028905,11.236284549205484,-0.05663363451197393,3.8246206776614353,0.36294112867113526
-1.3334525937960766,-7.75639283042453,-1.2461394583092926,11.403374664764677,-0.07043566439470123,3.8317406937120104,0.369173063931097
-1.3369764845368115,-7.817168285098323,-1.2712374148676313,11.538732806560375,-0.08398291432886966,3.844065322856239,0.3776916202227613
-1.3391909785216969,-7.901016846042909,-1.285269678477406,11.639279637824785,-0.09708164235889039,3.8612801647617045,0.3879860152159337
-1.3401644428551975,-8.003415592301561,-1.286915560666661,11.7068189895138,-0.10960784411641412,3.8822798206972045,0.39915496702945397
-1.3399239006744472,-8.117193216533158,-1.275702880870336,11.746991697879357,-0.1214956339142895,3.9054013331403192,0.41002141299715816
-1.3384507106276653,-8.233708929682079,-1.2519383631009593,11.767752972633085,-0.13272387900273097,3.9287647315004506,0.41930656549638556
-1.335678798194255,-8.344201630364593,-1.2166681924349116,11.777696915004437,-0.14330373126790752,3.9506733687257003,0.42583475738371124
-1.3314950136382455,-8.441049006968809,-1.1716848885008575,11.784510401295247,-0.15326761987646048,3.969993748954645,0.4287327260168804
-1.3257445245829376,-8.518720419454901,-1.1195601198653877,11.793786638775975,-0.16265945510123805,3.986447139564701,0.4275857882554274
-1.3182429307178565,-8.574279689218983,-1.063654627584125,11.808345773561289,-0.17152674503915005,4.0007583580378405,0.4225223761413899
-1.308801014885839,-8.607437027323197,-1.0080376415601173,11.828119207103857,-0.1799160906235705,4.0146312325421265,0.41421009002030046
-1.2972655141204346,-8.620182036895265,-0.9572562974108818,11.850549990483467,-0.18787351515960435,4.030543614902732,0.4037621128928835
-1.2835804856444326,-8.616155648527414,-0.9159367627503038,11.871426939051682,-0.19545057790237855,4.051385713358765,0.39256866335536583
-1.2678655294179444,-8.599868176935727,-0.8882460046288793,11.885938379681015,-0.2027145891379543,4.079986113166316,0.3820823262361361
-1.2505092960294846,-8.575957670140715,-0.8773020089973314,11.889797536325645,-0.20976091862153143,4.118608422009968,0.3735971550949801
-1.2322561271972265,-8.548568546560663,-0.8846420332700468,11.88020299679587,-0.2167231632962596,4.16849114944736,0.36806002828173784
-1.214266900574272,-8.520958380453692,-0.9098662200603578,11.856504192324259,-0.22377847177378196,4.2295272297440345,0.36594614949771215
-1.1981185376916734,-8.495316325548693,-0.9505434134717591,11.820445168237294,-0.23114491891658664,4.300145122942624,0.3672156274610468
-1.1857174901322625,-8.472792056983204,-1.002426956237852,11.775977195288046,-0.2390695501614424,4.377436752818097,0.3713535977640343
-1.1791102166666503,-8.453676298251638,-1.0599679888490634,11.728679742827767,-0.24780662321226474,4.4575281056937985,0.3774821390701489
-1.180196876241278,-8.437648534215578,-1.117048089773921,11.6848755252437,-0.257586141446707,4.536126869011249,0.38451943828052765
-1.1903859436284927,-8.424067845618811,-1.1678038644306012,11.650639355522006,-0.2685758082708527,4.60915431238312,0.39135633842076367
-1.210244340294012,-8.412215099162255,-1.2073889896771832,11.630840369506837,-0.2808404083228975,4.673322932504317,0.3970169106131289
-1.2392176397723498,-8.401492478095635,-1.2325426003210156,11.628431138420522,-0.2943070713010721,4.7265685792507135,0.4007784860538867
-1.275488511297625,-8.39152991110789,-1.2418750192314278,11.644055283290484,-0.30874471214877913,4.768251991037004,0.40223541410097263
-1.316033022320046,-8.382216920128638,-1.235849863501782,11.676063200575795,-0.3237673940260952,4.799130489487182,0.40130505813969025
-1.3569004841365302,-8.373665137721382,-1.216493064676604,11.720900133015332,-0.3388668246468282,4.821117957598349,0.3981840779585099
-1.3936957145616897,-8.3661018312201,-1.1869036551293684,11.773778847603419,-0.35347221167306625,4.836888906989149,0.3932696396390332
-1.422199121342186,-8.359742038077517,-1.1506750517100253,11.829519081551236,-0.3670286377065118,4.849415181642573,0.3870661224688392
-1.4390115724758554,-8.354638184912128,-1.1113342360821714,11.88336788595753,-0.3790781915591897,4.861500151032491,0.38009458287701237
-1.442109202655127,-8.350554718691098,-1.071895137006746,11.931673139647957,-0.3893279192475643,4.875398325374329,0.37282190646824476
-1.4311974903056894,-8.346879372920744,-1.0345799445296548,11.972282355833066,-0.3976916309651532,4.8925588262480755,0.3656168274815644
-1.407796802509686,-8.342601447594266,-1.0007207300832772,12.004635454922793,-0.4042994214755621,4.913523672086962,0.35873458864669966
-1.3750360132835853,-8.336376120023292,-0.9708165574827962,12.029566671180538,-0.40947551952801875,4.937979762297948,0.3523260031231345
-1.3371796046016784,-8.32666240488492,-0.944700264001683,12.048850062411027,-0.4136898766694243,4.9649299547220345,0.3464631313329748
-1.2989713242820975,-8.311946041903001,-0.9217661410309029,12.064602644375512,-0.4174939965317889,4.992949055838098,0.3411748965536306
-1.2649092178560566,-8.29098678144905,-0.9012090130461226,12.078613089956358,-0.42145155994241273,5.020454175770699,0.33648499290996364
-1.2385839006320798,-8.263070666068606,-0.8822390257783114,12.091730679521083,-0.42607592298838,5.045948032437333,0.3324469202883061
-1.2221921740614339,-8.228189024944713,-0.8642428043274298,12.103389657889966,-0.43178188880569196,5.068183395823292,0.3291699598488948
-1.2162997448284227,-8.18713426779916,-0.846877923900032,12.111396440711689,-0.43885771162424725,5.086251315130502,0.32683177740557473
-1.2198730086135392,-8.141435765338594,-0.8300914054264282,12.111999921294704,-0.44745527810363184,5.099580598790145,0.3256719519830832
-1.2305592898817694,-8.093159423160161,-0.8140706134053817,12.10031681739495,-0.4575960018119373,5.1078902908573856,0.32596440902266394
-1.2451495405217077,-8.044578426848245,-0.7991377790439735,12.071051716855203,-0.46918435414736104,5.111108468121256,0.3279686453747397
-1.260131317888828,-7.997752150329194,-0.7856110081618627,12.01941926660181,-0.4820210433009428,5.109283539312001,0.3318639672231846
-1.2722324773037716,-7.954115196747787,-0.773660168716239,11.94215071081643,-0.4958110049555461,5.10251220631262,0.3376774306418813
-1.2788607010311495,-7.914129766241646,-0.763183465292987,11.838363200736964,-0.510163461206829,5.090882339946854,0.34521746862233443
-1.278379312708766,-7.8770853016827305,-0.7537299357776829,11.710140430793896,-0.5245903196335489,5.0744448972309035,0.35402991602943146
-1.270196863015043,-7.84109345446703,-0.7444837309071353,11.56266703944916,-0.5385130757162552,5.05321677379205,0.36339095999580595
-1.2546808135166956,-7.803291744062651,-0.7343174609616819,11.403841418206563,-0.5512896854457292,5.027208507791474,0.3723481347095146
-1.2329361172909008,-7.760247640785415,-0.7219111449261775,11.243373233533124,-0.5622685092902948,4.996483909956593,0.37981051780452857
-1.2065081401709559,-7.7085170870936075,-0.7059225383117184,11.091526410877435,-0.5708682043057318,4.961248890405743,0.38467885882056435
-1.1770726195422714,-7.645279806112626,-0.6851821010901503,10.957721192396757,-0.5766719376182746,4.921964281122009,0.3859942965774131
-1.146169492422463,-7.568943994782328,-0.6588802949832141,10.849263622257887,-0.5795181599387388,4.879463570130995,0.38307846700373865
-1.1150202145940558,-7.479623875106415,-0.6267126832436262,10.770453595549977,-0.579567297770832,4.835057154471672,0.37563842933277464
-1.0844387635675943,-7.379378266947427,-0.5889518257990976,10.722183672145984,-0.5773258118982219,4.7905722708645,0.36381610700425115
-1.0548290521237675,-7.272157119147725,-0.5464273862996382,10.702092552278467,-0.5736167671220822,4.748304418523734,0.3481722704232328
-1.0262450671502301,-7.163422270470497,-0.500410889674397,10.705175832888123,-0.5694920051664406,4.710837016481268,0.329607340726869
-0.9984900155500219,-7.059510768601266,-0.4524253903942479,10.724740867523282,-0.5660966301224566,4.680746174553491,0.3092352159121294
-0.9712313715910772,-6.966847590290064,-0.40401790168942747,10.753495800433706,-0.5645040025383272,4.660216559752234,0.2882357718475688
-0.944114144759197,-6.891165093233325,-0.35654406249380777,10.78457509672216,-0.5655508039479646,4.650639486149084,0.26771607708357353
-0.9168587755404903,-6.836868535964099,-0.3110077466719444,10.81233725645975,-0.5697012106580467,4.65227049520991,0.24860541301304756
-0.889333715219268,-6.806656860478695,-0.26798340906793305,10.83284779722635,-0.5769682620370299,4.6640319235747585,0.23159720720451768
-0.8615925286305077,-6.801403284349915,-0.22762504812757026,10.844011950804285,-0.5869081328442814,4.6835104441382684,0.21713655522067246
-0.8338748404026348,-6.820281161567125,-0.18975202403398875,10.845430016485393,-0.5986954569544193,4.707191305677396,0.2054430399043009
-0.8065717888725321,-6.861031856154141,-0.15399055669458542,10.838037993074085,-0.6112692554552532,4.730900882959782,0.19655245489817372
-0.7801705277764778,-6.92029241677295,-0.119949034106531,10.823658423875962,-0.6235292139157731,4.7504126013218295,0.19036378438498897
-0.7551916467310934,-6.993871608113324,-0.08740252115680083,10.804536816165921,-0.634546006833531,4.762097594368357,0.1866803972837365
-0.7321383792659257,-7.0769393730251595,-0.05646125058348584,10.782960465182956,-0.643749955038687,4.763520272469124,0.18524094214696937
-0.7114653321367996,-7.164115073458035,-0.027693038114984858,10.760973969220254,-0.6510612845822483,4.753847765508752,0.1857389194009498
-0.6935695462189082,-7.249546210543675,-0.002167883458864234,10.740231033686243,-0.6569398721089377,4.734014414403605,0.1878345312953105
-0.6787941975347748,-7.327053730319102,0.01860433543513526,10.721937128196053,-0.6623412955438165,4.706586641566241,0.19116270383177003
-0.6674361595941405,-7.390455783708846,0.03285858812557748,10.7068616109294,-0.6685827720523395,4.675347426532711,0.19534098317948148
-0.6597481505532374,-7.43408909527107,0.03887437107057439,10.695377912765592,-0.6771367086860361,4.644663786270744,0.1999787269898401
-0.6559320655853274,-7.453492743139183,0.03535370782919544,10.687508597066733,-0.689382758296566,4.618737533840554,0.2046860629001276
-0.6561255871684257,-7.446136593932013,0.021815106854947617,10.68295853248199,-0.7063592781835824,4.600878456785616,0.20908049585390814
-0.6603875577214124,-7.4120341255300355,-0.0010755510393896197,10.681127202952968,-0.7285575441464159,4.592922342139186,0.21278936831179127
-0.6686883082359809,-7.3540910195463125,-0.031319399229516535,10.681117045464125,-0.7557990360593301,4.594896579363256,0.21544988371301663
-0.6809109742260276,-7.278054122528891,-0.06561414860327351,10.68176142334774,-0.7872230274000386,4.604998350589109,0.21671071927741542
-0.696864681996186,-7.1920209123668,-0.09963949123563164,10.681670510133621,-0.8213967688509775,4.619885742579287,0.21624078173513642
-0.7163069424440999,-7.105516960014189,-0.12859138344085613,10.679319393407742,-0.8565348148313151,4.635241952180887,0.213749549095033
-0.7389682563128234,-7.028299701404679,-0.1479012163904122,10.673161798434473,-0.8907913824215651,4.6465180527139704,0.2090201523609234
-0.7645698816205778,-6.969076750950158,-0.15402415454118998,10.661750732506682,-0.9225704400822781,4.649723231634815,0.20195161740654846
-0.7928293008348687,-6.934382453445369,-0.14515346304881002,10.643847363752808,-0.950794119103005,4.642122239117028,0.19260257814803589
-0.8234543739305613,-6.927809613835339,-0.12171717707905406,10.61849619508463,-0.9750806021337981,4.622721513398013,0.18122508388654945
-0.8561320678589905,-6.9497034163525155,-0.08654295006988935,10.585048804009539,-0.9958010349031211,4.592453879373425,0.16827608696534846
-0.8905235510055795,-6.997354754679666,-0.04462476929023045,10.543147061031858,-1.0140094107928823,4.554032434258808,0.15439650663350143
-0.9262731494970282,-7.0656243418822315,-0.002492757266063099,10.492681768420129,-1.0312587366677848,4.5114974506812,0.14035418252338655
-0.9630293592814474,-7.1478411514023845,0.032734820994733585,10.433722675588267,-1.0493303975564026,4.469522512171257,0.12695551764945162
-1.0004716613839308,-7.236810490385369,0.054466183329993346,10.366485138070814,-1.069924670654665,4.43261959234099,0.11494103875342418
-1.038328059811187,-7.325707928140362,0.05772123929121396,10.291297648308559,-1.0943563082188048,4.404367918405062,0.1048843501581556
-1.0763774590451336,-7.408748024691863,0.03999078615826545,10.208628389821593,-1.1233109268783263,4.386822504516806,0.0971149640210696
-1.114430923452259,-7.48153491844371,0.0017112221053877724,10.119101934464057,-1.156699818433629,4.380184164517277,0.09167889621423732
-1.1523004389457867,-7.541142674780976,-0.053738576731613016,10.023535182257758,-1.1936452388157397,4.38279514737521,0.08834390011633719
-1.189761701271722,-7.5859845590191535,-0.12052977475775747,9.922928005762062,-1.232601950015751,4.391447740190147,0.08664729557785508
-1.2265166103991063,-7.615584117689192,-0.1912888545083791,9.818443898119797,-1.271598063156661,4.401956958985544,0.08597762925938399
-1.2621545554543097,-7.630324232710365,-0.25825780625141204,9.711361894460557,-1.308551738708505,4.409890457788545,0.08567544081113351
-1.2961108743515906,-7.631234133790793,-0.31449520521257873,9.603046953187462,-1.341600976087361,4.411330961062362,0.08513551428823067
-1.3276219443057895,-7.619832805419701,-0.35490050463918493,9.494949733151211,-1.3693840181426453,4.403531511537517,0.0838931635261706
-1.3556893755441914,-7.598027236824338,-0.37688689880856235,9.388640463829795,-1.3912222909625547,4.385359327469862,0.08168094315055187
-1.3790738262835973,-7.56803123197691,-0.3806033001293731,9.285841515112423,-1.4071803200584654,4.357454144151944,0.0784475736063694
-1.3963435555174424,-7.532273470446151,-0.36869006929800163,9.188428052326852,-1.4180032403261396,4.322077543484901,0.07433735916824824
-1.4059956185823952,-7.4932666751299655,-0.34562890690245307,9.098344877211822,-1.4249522717137613,4.282685736083118,0.06963447993383931
-1.406654119366967,-7.4534486152274075,-0.316814158781474,9.017466528693074,-1.4295750297040215,4.243304816678022,0.06468239322074655
-1.3973180307789668,-7.414990783721406,-0.28751473095209745,8.94738448141675,-1.4334506338847701,4.2078140874712044,0.05979249453960094
-1.377622778322882,-7.37964015828506,-0.2619119212293008,8.889210747269942,-1.437957298810638,4.17928152191465,0.05515849244281924
-1.348055222253921,-7.34859543439826,-0.24237411903789696,8.84341932324891,-1.4440938032112633,4.1594535278430405,0.05079160020091675
-1.3100690319166055,-7.322464695170631,-0.22908217361434136,8.809778085669134,-1.4523815597485,4.148491663997583,0.046488520366527675
-1.2660542074861094,-7.301297352835301,-0.22005713214362807,8.787395698273619,-1.4628539316324969,4.1449913484312315,0.0418391959434816
-1.219136480394102,-7.284672485964431,-0.2115797571285369,8.774851196742835,-1.4751245390902576,4.146266578931138,0.036275907924207415
-1.1728251720165834,-7.271836953678119,-0.19893299793662236,8.770406568348744,-1.4885180299722476,4.1488557939570585,0.029159073384158584
-1.130560958998951,-7.261857427157046,-0.17734536319547206,8.77225209221319,-1.502233914292642,4.149156660283989,0.019888763078622456
-1.0952457602319812,-7.253755739377741,-0.14297703274185217,8.77873359214569,-1.5155086333689816,4.144073921874136,0.008025062372858802
-1.0688463052307666,-7.246624387297938,-0.0937780761861095,8.788536503010587,-1.5277509470116968,4.131574132589321,-0.006603034918953952
-1.0521411983595037,-7.239691832827972,-0.030062958142295045,8.800790049342865,-1.5386269078919486,4.111047990134148,-0.023821494600320132
-1.0446541930606585,-7.232353349280263,0.04531602763719529,8.815094468702904,-1.548089260813753,4.083419929335355,-0.04308619379761223
-1.0447780395843393,-7.224167502201406,0.1272543108111043,8.831468104938025,-1.556353205568588,4.050989690041878,-0.06352023380171148
-1.0500611540635594,-7.214833326100763,0.2091189199817391,8.85024372560154,-1.5638298662429797,4.017023747970933,-0.08401304075332335
-1.0576017452428828,-7.2041600993575425,0.2838047706584662,8.871921272726361,-1.5710335215946445,3.985175293040253,-0.10336704194499015
-1.064474238767009,-7.1920314523773134,0.34493762701947295,8.896997733465382,-1.578476517939785,3.9588217565669845,-0.12046430145341862
-1.0681161745340189,-7.178386177480794,0.3880045693843664,8.925808402518589,-1.5865732382061168,3.940454859098971,-0.13442115912101557
-1.0666132198287168,-7.163201265674594,0.41120050356357013,8.958392373818526,-1.5955644534028555,3.931219853178865,-0.14470162779623202
-1.058848913029545,-7.146481426130223,0.4158356844439305,8.994397044200813,-1.6054738663240213,3.9306868861721482,-0.15117108264786674
-1.0445171518278262,-7.128266086499464,0.40622539435205035,9.033071052095778,-1.616106555517885,3.9368974706016493,-0.15408530325328773
-1.0240168043220563,-7.108639945781958,0.3890688367999734,9.073326694969017,-1.6270853199544413,3.9466764994779,-0.1540214393785373
-0.9982680342356803,-7.087750284556618,0.3724136139673996,9.113872768574854,-1.6379206124281007,3.9561575736915504,-0.15176737109082658
-0.9684984511552628,-7.065834698586935,0.3643784313381878,9.153386553666897,-1.6480986241334017,3.961436544348591,-0.14819196918435168
-0.9360452292215533,-7.043253757310769,0.371856434620925,9.190689449745465,-1.6571708346323022,3.9592350664450278,-0.14412016192675223
-0.9022058593258365,-7.020523967023733,0.3994243972554944,9.224880619852376,-1.6648266452197478,3.947458724080042,-0.14023344725269654
-0.8681499084715991,-6.99833601639934,0.4486419094035622,9.255407449645764,-1.67093757262477,3.9255539338089855,-0.13700859891269054
-0.8348823476463534,-6.97753994020533,0.5178535781858535,9.282064610146103,-1.6755663651265191,3.894603525225123,-0.13469850107025513
-0.8032383819544185,-6.9590826954894185,0.6025194909271038,9.30494103465634,-1.6789435172294516,3.8571512142528768,-0.13335105423572446
-0.7738866510905379,-6.943890019305436,0.6960081828524919,9.324328443257306,-1.6814182812540317,3.816781148387892,-0.13285687417142614
-0.7473265048201883,-6.9326946609865105,0.790697735219506,9.340609669503069,-1.6833921178213993,3.7775353479892018,-0.13301334739377305
-0.7238764443918526,-6.925829479804508,0.8791736545208876,9.35414189196482,-1.6852466322009927,3.7432705167859246,-0.13359224488428356
-0.7036608332826412,-6.9230302615369474,0.9553001078846494,9.365157932830357,-1.6872793148311334,3.717077446322236,-0.13439921342423142
-0.6866039186473094,-6.923286785506773,1.0149859447947072,9.37368262495957,-1.6896550345904484,3.7008588103838407,-0.13531614117699076
-0.6724387767872401,-6.924793203517191,1.0565463639923003,9.379484035797129,-1.69238171605733,3.6951208731519376,-0.13632084231361682
-0.6607354471931074,-6.925037219870122,1.080651542826428,9.382070904852966,-1.6953126044770732,3.6990022962635636,-0.13748221208620132
-0.650947835544068,-6.921060370843911,1.0899240486986823,9.38074290222513,-1.698177970847912,3.7105120692720894,-0.1389323128046265
-0.6424728663132437,-6.909858240660844,1.088295192238538,9.374675939666684,-1.7006350593388848,3.7269116282995447,-0.14081916368058806
-0.6347159655144752,-6.888894412620872,1.080261904033423,9.363050633245892,-1.7023329387374404,3.7451693745297336,-0.14324780533313078
-0.627152328167404,-6.85664063754743,1.070178065142689,9.345180504440147,-1.7029768915294177,3.762393799380931,-0.14621878090753948
-0.6193750665697629,-6.813033530353601,1.0616925527308239,9.320626734818777,-1.7023812450924882,3.776175633624689,-0.14957564339061089
-0.611123879287958,-6.759766962326652,1.0574000880755674,9.289279490370477,-1.7005037096899105,3.7847981359048783,-0.15297357679806667
-0.6022885732133687,-6.700313978073131,1.058718129903664,9.251376649851377,-1.6974548787792034,3.7873074875271575,-0.15588036051113696
-0.5928882472260645,-6.639643577974915,1.065963708681927,9.207474556604998,-1.6934840725610474,3.7834634592487992,-0.15761751653859923
-0.5830291114830628,-6.583636578732557,1.0785741668687228,9.158365268029756,-1.6889452797942306,3.773610626368338,-0.1574428796632436
-0.5728485434445992,-6.538274276315577,1.0954035516826632,9.104971035147637,-1.6842513618343045,3.7585148835736737,-0.15466717747405678
-0.5624563922019338,-6.508738088062108,1.115027032139791,9.048243630261126,-1.6798264497375244,3.7392038477322287,-0.14878785845630504
-0.5518831282920207,-6.4985739034952665,1.135997134254558,8.989078671246634,-1.6760641412909951,3.716839120542285,-0.13961659756493988
-0.5410456228794801,-6.509085361290383,1.157022819349362,8.928289409603037,-1.6733006758762692,3.6926328337893515,-0.12737433947007837
-0.5297345777016359,-6.539048988700018,1.1770599516542464,8.866587806567676,-1.6718008034712244,3.6677939118700684,-0.11272878059552335
-0.5176271820201958,-6.584820082146572,1.195332529787075,8.804602348179936,-1.6717599880024843,3.6434929900178386,-0.09675709556061333
-0.5043230296970708,-6.640787508634759,1.2113034029772773,8.742875033225406,-1.6733120568287994,3.620813744819814,-0.08082803060287928
-0.48940102522507484,-6.700108602300654,1.224622986670876,8.681864465356314,-1.6765441979871787,3.6006901836649985,-0.06641520668185326
-0.4724896367977464,-6.755557914493895,1.2350703224150645,8.621917922007137,-1.6815064666745638,3.583816913851343,-0.05486995420598241
-0.45334265455836387,-6.8003464368594955,1.2424996807191129,8.563260661878502,-1.6882217803017348,3.570560690961338,-0.047194345034058706
-0.43190677342895434,-6.828754455412657,1.2467966288796555,8.505990978236206,-1.6966879387439557,3.560881676300825,-0.043856992954345704
-0.4083680925638778,-6.836518704482797,1.24784577807376,8.450090226539972,-1.7068812416975645,3.5542963279329056,-0.04468769060691347
-0.3831642901351305,-6.820971292174188,1.245513751960028,8.39544955888387,-1.7187613309408214,3.5498947275671546,-0.04887330556388617
-0.3569545180221465,-6.780991011907183,1.2396472121372457,8.341903055029382,-1.7322844491707678,3.546423371527422,-0.055060658852025476
-0.3305486794580333,-6.716866858765709,1.230089514954039,8.289256044581418,-1.7474233659933056,3.5424304279010546,-0.06155333840226918
-0.3048096422547642,-6.630169646398082,1.2167145218276418,8.23731822987041,-1.7641945479683399,3.5364543139722553,-0.06657125201310622
-0.2805491970534103,-6.52369228855305,1.1994723462833987,8.18592606255999,-1.7826834707183277,3.527227141478396,-0.06852817219201829
-0.25844110193425474,-6.401474382881115,1.1784408330147202,8.134975262743827,-1.8030641522548505,3.513857887417642,-0.06627867276063103
-0.23896777795941745,-6.268867776061453,1.1538690228744235,8.084457834142377,-1.825609376786502,3.495965621469609,-0.059291727636735105
-0.22240615480965886,-6.132515277266045,1.1261973384117914,8.034485459945087,-1.850685870995094,3.473733650881942,-0.0477224019668334
-0.20884906095576528,-6.000140698932175,1.0960436685883168,7.985309947294491,-1.8787418044949962,3.4478813384667406,-0.03237121937370522
-0.19825146407594152,-5.8800451365341955,1.0641492602182097,7.937317399972852,-1.9102814944194415,3.4195553521560473,-0.014540079359113911
-0.1904891342224419,-5.780305522651528,1.0312887205247963,7.891003863671228,-1.945827897112994,3.3901577741503246,0.0041875007965678996
-0.18541932487690715,-5.7077881239126835,0.9981678592347614,7.846950401471092,-1.9858767120582317,3.3611582883458997,0.022199587561733014
-0.1829338672680948,-5.667131067592697,0.9653261646819644,7.8057884846246735,-2.030836039477375,3.3339118261434795,0.0380950849763311
-0.18299939210178684,-5.659930353301532,0.9330727810172008,7.768189874712852,-2.0809659262141915,3.309526642273181,0.05086780877945448
-0.18567985192856137,-5.68429261785239,0.9014650739105395,7.734857580639178,-2.136324746723913,3.288788770246544,0.06000944840385198
-0.19113896023793453,-5.734894405076582,0.8703361927521316,7.706515413660386,-2.196740307717658,3.2721448809703686,0.06552427702839568
-0.1996212411675094,-5.803571254098856,0.8393660704899427,7.683878752595387,-2.261812886334052,3.2597260498872394,0.06786449214084679
-0.21141181763227757,-5.8803655877821335,0.8081879302245193,7.66758562625703,-2.3309468175823174,3.251391529285269,0.06780748696229857
-0.22677822313104545,-5.954866081069417,0.7765196790765989,7.658096029187663,-2.4033951100949436,3.2467753503970465,0.06630293506706239
-0.2459008431438671,-6.017592686595796,0.7443064488771458,7.655569724395856,-2.478293292802076,3.2453214036377993,0.0643193085840314
-0.26880253445460756,-6.06117362312655,0.711854546983684,7.659737303646487,-2.5546651253822983,3.2463021337655777,0.06271495842086525
-0.295292699182993,-6.081130555111397,0.679933011810499,7.669814027373489,-2.631405433143844,3.248830701271745,0.062150200256404824
-0.3249406925466755,-6.076151714890931,0.6498110055272613,7.684463115834514,-2.7072573535691453,3.2518708115255572,0.06304534216882254
-0.35709217869031296,-6.047879237392062,0.623208756386264,7.701866755115936,-2.780828266773596,3.254273373295074,0.06558036170573099
-0.390930988478063,-6.00026902734699,0.6021460333469911,7.71987967868149,-2.8506594171617894,3.2548376583477863,0.06972483317327352
-0.4255772922111617,-5.938691955948145,0.5887011298571314,7.736267626260002,-2.9153600602597742,3.2524071293116266,0.07528391143544606
-0.46020132179355483,-5.86896069026467,0.5847155367016509,7.7489945320289495,-2.973782803433841,3.2459891427465783,0.08194665075988615
-0.4941254632933271,-5.79644665943163,0.5914968071926167,7.756484677130379,-3.0251919342326072,3.2348718793237388,0.08932623251082485
-0.5268936630045421,-5.725440941290555,0.6095805709072262,7.757832177914277,-3.0693896310509614,3.2187234816744676,0.09698791976981436
-0.5582964602745428,-5.658814654541065,0.6386024028166911,7.752899438744365,-3.1067609883280523,3.1976439717886587,0.10446697606379284
-0.5883536047036004,-5.597983349900736,0.6773134857315348,7.742308269754079,-3.138233069984981,3.17216299374999,0.11128412862559572
-0.6172624662414906,-5.543113402771691,0.7237468592208746,7.727306613181225,-3.1651468243772283,3.143173366898656,0.11696712226491861
-0.6453244138303174,-5.493503209348715,0.7755101698861356,7.7095529209765195,-3.189064169735919,3.1118169575668317,0.12108449195904415
-0.6728597264982304,-5.44804551180342,0.8301502798257331,7.690852372803196,-3.2115381688152644,3.0793441702449087,0.12329166567288108
-0.7001196675372154,-5.405691102950101,0.8855179991214897,7.672887931331655,-3.2338780602855204,3.0469754301844283,0.12338335991616539
-0.7272068160402885,-5.365849979900803,0.9400626754715635,7.65700183699828,-3.256948721697831,3.0157937103982557,0.12134157861426058
-0.7540131806632513,-5.3286694431555475,0.993005991506528,7.644051611784401,-3.281034242308313,2.9866791892144073,0.11736679036290401
-0.7801906681673225,-5.295145840842471,1.0443745367271828,7.634356447549199,-3.30579265723838,2.9602852136515883,0.11188042027847314
-0.8051634620335878,-5.26705235811995,1.0948974977083474,7.627733715165973,-3.330317716593816,2.937040725223111,0.10549137747389906
-0.8281857933077363,-5.246682843221617,1.1457926976755495,7.623605496697701,-3.3533003070980687,2.9171600889786564,0.0989253921242359
-0.8484378871080193,-5.236450953814098,1.1984770606001278,7.621149679536258,-3.3732720968166308,2.900649473738279,0.09292503271334686
-0.865140106068661,-5.238401895180243,1.2542408613853975,7.619462249098855,-3.3888815096593388,2.887296823870847,0.08813581182130717
-0.8776624120478267,-5.253734283699794,1.3139320867404591,7.61770321021211,-3.399158588004699,2.8766561391811325,0.0849990654161209
-0.8856053176064757,-5.282412735364744,1.377699902415382,7.615203549037789,-3.4037133295702104,2.8680309549001386,0.08367206724509237
-0.8888388557722248,-5.322959570245391,1.444844907982919,7.611518701134378,-3.4028360456131557,2.8604756257174007,0.0839920302555929
-0.8874957894350788,-5.372484361120365,1.5138163991619085,7.606441544313607,-3.3974821474299364,2.8528293585901237,0.08549366111782752
-0.8819241541881269,-5.4269581480385085,1.5823741627978616,7.5999718310453765,-3.3891430963494558,2.8437951326579407,0.0874814311972828
-0.8726123914429318,-5.481704534051941,1.6478963849599304,7.592257920796017,-3.3796255085482296,2.8320618123680332,0.0891482556175909
-0.8601047304240684,-5.532020519212603,1.707782747001244,7.583535470444444,-3.370780806386845,2.8164655479695573,0.08972287186560428
-0.8449224995896129,-5.573805984876382,1.759869730802506,7.574061359963932,-3.3642306512529006,2.7961603489259574,0.08862133321839548
-0.827505112943409,-5.604082232412582,1.8027771007953526,7.564061435747129,-3.3611380143960266,2.770772980515729,0.0855752182540379
-0.8081747842406605,-5.621313134809002,1.8361195645181028,7.553700052484937,-3.362062833915861,2.7405077182421724,0.08071162649303355
-0.7871224405766013,-5.625478914197521,1.860551723167072,7.543060142255438,-3.3669208741332297,2.706172787351266,0.07456578834968877
-0.7644077176155604,-5.617914186672486,1.8776450749316855,7.532151351978306,-3.375050975541789,2.6691143720037847,0.06801710278504623
-0.7399653114166441,-5.600949868981038,1.8896261587086345,7.520924206690195,-3.3853731604733395,2.6310596388023453,0.062151440762678166
-0.7136133807555808,-5.577441685384153,1.8990273044416945,7.509301339996981,-3.396609490389319,2.5938935414027786,0.05806724975314992
-0.6850630523514273,-5.550267104459067,1.908308077022816,7.497205913805223,-3.4075223539908337,2.5594125825984135,0.05665597424244087
-0.6539319019171178,-5.521888481243824,1.919514711539869,7.484596190474347,-3.4171295306434852,2.529102641009647,0.0583958322265394
-0.6197625546988438,-5.494042240554894,1.9340292993729797,7.471488514540534,-3.424860168876317,2.50398210564005,0.06319944016033406
-0.5820482203942746,-5.467592223607311,1.952442344867095,7.457968597039543,-3.430626144712905,2.484529312718968,0.07035015122056863
-0.5402658896551525,-5.44255699834714,1.9745634016131355,7.44419418091893,-3.4348107488954303,2.4706979081641665,0.07855104687201063
-0.493918727502076,-5.418278713502605,1.9995559410880692,7.430375452145158,-3.438172786525498,2.4620001675599297,0.08609342580713375
-0.4425930624795626,-5.393707310065833,2.026167624329088,7.416745377175096,-3.4416935737558396,2.4576344992000716,0.09112997463589424
-0.3860334275978816,-5.367741030435308,2.05300748067253,7.40352466992009,-3.44639169336748,2.456628310729592,0.09201519799039669
-0.3242359345229885,-5.339573007206521,2.0788150431716454,7.390881850529019,-3.4531342131689073,2.457965876652697,0.08765685404282351
-0.25754830273422,-5.308978266269942,2.102672828526503,7.378898956598764,-3.4624784523630394,2.4606860235679386,0.0778138949022947
-0.18675276767016885,-5.276505678426146,2.1241341413640704,7.367554966163028,-3.474570231969383,2.463942457362722,0.0632789524067886
-0.1130996047765376,-5.243517258425413,2.143248628848595,7.356719829750004,-3.4891139153224358,2.4670279004581643,0.04589686516585285
-0.03826316435673743,-5.2120655437493015,2.160496937211293,7.346165937468273,-3.5054199672787103,2.46937643454419,0.02839385212709277
0.035787860580811924,-5.184612847815033,2.176652043476691,7.335597337012626,-3.52252420369696,2.470556846371609,0.014024076981663974
0.10698673861746136,-5.163624116027177,2.1925917568398297,7.324686277962346,-3.539353605178471,2.470263353551434,0.006078268795065295
0.17338749839050652,-5.151106673641338,2.2090948022064856,7.313111783786578,-3.5549059082986867,2.4683122083158295,0.007332432602575177
0.23335520631268003,-5.14817907254226,2.2266529202067633,7.300598021912079,-3.5684111076136564,2.4646411564702655,0.019533690745973824
0.28568895183532034,-5.154748804232178,2.245325040896542,7.286939340478462,-3.5794428771309303,2.459308332256722,0.04301900752795379
0.3296638362899396,-5.169375274073569,2.2646619780593262,7.272008896341503,-3.58796331668826,2.4524823185032565,0.07654375450463476
0.3650041953762638,-5.189354992501423,2.2837179900619273,7.255761729592339,-3.5943053647403573,2.444423003644088,0.11736355365074759
0.3918141099811228,-5.211032565791112,2.3011488019293393,7.238212038653077,-3.599090271197199,2.4354451668472565,0.16156928344521465
0.4104956243881749,-5.230300123435056,2.315385031761061,7.2194105630915875,-3.603106568688948,2.425870205103992,0.20462605166329617
0.42167707375684704,-5.243201479116706,2.3248489878168943,7.19941445208095,-3.607166805943048,2.4159695626854885,0.24202101395297246
0.42616320839044775,-5.2465380251214855,2.3281721038659264,7.178261922465062,-3.6119696631711493,2.405912525360877,0.26990111147848006
0.42490630569234994,-5.238358078013717,2.3243733306169734,7.155956846443275,-3.6179848518390796,2.395724084602181,0.28558511531030895
0.41898654024926757,-5.218252248646661,2.3129650566106963,7.1324585702987084,-3.6253815950500745,2.38526468997525,0.2878675628251681
0.40958607748030273,-5.187400063518394,2.293974874930085,7.107686312497726,-3.6340108260640474,2.3742374548849505,0.27707698392113406
0.3979402708412885,-5.1483664616664,2.2678836575299965,7.081525622762417,-3.6434419859862888,2.3622228600782216,0.25489866876122297
0.38525872563070845,-5.10468248390179,2.235498706695607,7.0538427839495,-3.6530481975666484,2.3487409603558236,0.22401239798267703
0.3726203706489697,-5.0602952550524245,2.1977966880713744,7.024504211226277,-3.6621231859830576,2.333335658597174,0.1876267899404754
0.36085879411196636,-5.018989378810811,2.1557671645158636,6.993398690583327,-3.670005483805131,2.315667682394932,0.14900384736358405
0.3504608244502376,-4.983885482437257,2.110295617905318,6.960467134538742,-3.6761897872541316,2.295606663800073,0.11105989418746011
0.34150151869612244,-4.957094153276138,2.0620944194321704,6.92572749351539,-3.680401053893001,2.2732981621751844,0.0760979418976568
0.33363334568480274,-4.9395673253835595,2.0116902160312073,6.889294523136938,-3.68262608287829,2.2491943281437297,0.045688764512337214
0.32613931148379893,-4.931144320499407,1.959451639631558,6.851384421475277,-3.683100924221023,2.2240317461556103,0.020682124940291674
0.31804894155915425,-4.930751599998345,1.9056433547282707,6.812296696346592,-3.682258434385753,2.1987512951284724,0.0013090475417802643
0.3083059810261977,-4.936708239631649,1.8504955752400338,6.772384830430518,-3.6806501945385732,2.1743709666995668,-0.012669164809341254
0.2959659406096044,-4.947059620496817,1.7942848585269366,6.7320190318668365,-3.67885873085454,2.151832542135322,-0.021804250645375126
0.2803930250351117,-4.959887990455236,1.7374215092681682,6.691556518952525,-3.6774122617441725,2.1318516149152242,-0.026823624655405776
0.26142325503933483,-4.973545533261568,1.6805366004854387,6.651328357628482,-3.6767178823572335,2.1148014907966965,-0.02852544937569855
0.2394615786950426,-4.9868012025295005,1.6245480820032734,6.611646947790932,-3.6770204969151994,2.1006543601662377,-0.027706488302136272
0.21548820798886126,-4.998897767022867,1.5706780734779713,6.572819875170531,-3.678388230169793,2.0889888834551074,-0.025113533604428553
0.19096335281463506,-5.00955357874958,1.5204006185999248,6.535176511676704,-3.6807280207745685,2.079067106155544,-0.021405614714913607
0.16763777044713488,-5.018927926363381,1.4753067180705297,6.499082412535182,-3.6838163617122976,2.069965896634213,-0.017115881510810105
0.14729876802042488,-5.027579561909061,1.4369067372207889,6.464956422583507,-3.6873432186977215,2.0607459305027764,-0.012608144955445504
0.1314969138200551,-5.03643328278203,1.4064031352193669,6.4332826605856805,-3.6909534671551247,2.0506278020690987,-0.008030351293181984
0.12130491054092082,-5.046755031831161,1.3844840649116563,6.404623373711417,-3.6942805293602885,2.0391490937188026,-0.0032735539218749746
0.11715208890814537,-5.060122910503037,1.3711803640961326,6.379633210852719,-3.696966901782619,2.026272500405879,0.002051321046093433
0.11876255076935893,-5.078379476652976,1.3658168760428442,6.35905793240851,-3.6986763569205525,2.0124242793641205,0.008605705723210821
0.12520424037232392,-5.103533726452582,1.3670680869313978,6.343707670452148,-3.6991017860232653,1.998451191372878,0.01727361465275298
0.13503718842936854,-5.137593635514826,1.3731080441303058,6.334387649676253,-3.6979761770424546,1.9854943451070168,0.029064460575714116
0.1465306420914757,-5.182325580304217,1.3818258773208847,6.3317828507430525,-3.695090926332645,1.974799149803232,0.04497202001247275
0.1579072607796552,-5.238950358176662,1.3910657017748334,6.336310215485192,-3.6903236037268607,1.967489615536233,0.06580390631414908
0.16756908739222798,-5.3078155261097875,1.3988454125050902,6.347954813465538,-3.683668634219102,1.9643471275744864,0.09200615411722336
0.17426870191785787,-5.38810835014318,1.4035195601821817,6.366126851744036,-3.67526234032084,1.9656344659098737,0.12351493470159045
0.1772047301945195,-5.477685273407718,1.4038696467650749,6.389584915027162,-3.66539781491123,1.971000012092058,0.1596695651873681
0.17603971883541136,-5.573094073865539,1.3991241514057722,6.4164561146453085,-3.6545180455117636,1.979482521830625,0.19921598404526678
0.17085322524029448,-5.669835534839061,1.3889257670597586,6.444377601199947,-3.6431824756457245,1.9896226894785645,0.24041551236307424
0.16205299792018787,-5.762855259047184,1.37327212326727,6.470755374517804,-3.632009825289668,1.99966528010303,0.28125134652760486
0.1502704822634643,-5.8472001331312295,1.3524555202761082,6.493105755874571,-3.6216056691574767,2.0078226094819023,0.31969927520917646
0.13626457844019033,-5.918708182581129,1.3270184351290812,6.509415839535547,-3.612483518157425,2.012546304343803,0.35401027387833656
0.12084953754027167,-5.97460021703744,1.297731951911802,6.518456589738279,-3.60499917131454,2.012763738289957,0.3829496588036643
0.10485095357365133,-6.013857148061821,1.265588612094485,6.519980957751101,-3.5993076546890097,2.0080329694643915,0.4059473209699686
0.08908240707457922,-6.037314743054801,1.2317869112041941,6.514770642043036,-3.5953511135564256,1.9985926193738939,0.4231368650980766
0.07432873124083511,-6.04746871589045,1.1976863271658946,6.504512204204333,-3.5928795192706775,1.9852975840661158,0.43528234801980187
0.06132218176059452,-6.048026277719477,1.1647147298673908,6.491516482438419,-3.5915009522775794,1.969454095433659,0.44361111079208443
0.05070477758038712,-6.043294635205099,1.1342301560809374,6.478329730700078,-3.5907512215571114,1.9525847989136798,0.4495853681379462
0.04297921740461051,-6.037498851109472,1.1073569065701134,6.46728696781948,-3.5901682947988283,1.9361656095320987,0.45465199509055876
0.03845882084132511,-6.034165310635257,1.0848292974360962,6.460102373204589,-3.5893626953144384,1.9213843133259025,0.4600131686217293
0.037230112905239546,-6.035650657576991,1.0668787946726224,6.4575492793180995,-3.5880677495360462,1.9089626456136093,0.46645266917126826
0.03914104785066794,-6.042891396958069,1.0531934107140002,6.459299917746807,-3.5861640677936877,1.8990686360328144,0.4742421634422468
0.043823472898254334,-6.055399345028018,1.0429658985038606,6.463949306088722,-3.583679234656461,1.8913322459462454,0.4831383042409351
0.0507520655549593,-6.071480498126153,1.0350324657186583,6.469230253820856,-3.5807625321207706,1.8849578582230622,0.4924662273043299
0.05933415267596949,-6.088632823437993,1.02808798183632,6.4723837395456005,-3.577640164309572,1.878913960624492,0.501272342668245
0.06901746329861959,-6.104038117266492,1.020949204918332,6.47063205166399,-3.5745624235197138,1.8721683621420975,0.5085170744688275
0.0793977381117051,-6.115061294235336,1.0128267304536618,6.461667845298522,-3.5717499264191623,1.8639303389209423,0.5132729890473414
0.09030729924219448,-6.119663682736008,1.0035583259304595,6.444073846324113,-3.56934513753169,1.8538560575556473,0.5148927300457734
0.10186895680266098,-6.1166784158434,0.9937599450316466,6.41760123490001,-3.5673810119608502,1.8421821007683863,0.5131209962727726
0.11450519956729131,-6.105910613243429,0.9848559373485113,6.3832539125698755,-3.565766410708349,1.8297534817613732,0.5081350255556663
0.12889934259974592,-6.088076040454442,0.9789661291861704,6.343162310546446,-3.5642925611802236,1.8179358890972706,0.5005124679290602
0.14591128719571597,-6.064608573969785,0.9786496195078409,6.300269477885399,-3.562657283167218,1.8084098762685612,0.4911375125109429
0.16645736547334314,-6.037382983877619,0.9865313158174617,6.25787826997776,-3.560500118969338,1.8028749101270678,0.48106647924063217
0.19136960524892252,-6.008426804953325,1.0048672242425571,6.219151726889842,-3.557444831029515,1.8027081764559996,0.4713816510242709
0.22125467755200287,-5.979661739713648,1.0351205755467556,6.186652989827805,-3.55313489178152,1.8086372349055202,0.4630604884621467
0.25637546693928365,-5.952727654348535,1.077628695681896,6.162009021448924,-3.547262904423364,1.820491698418923,0.4568826890722604
0.2965763856070898,-5.928886487596777,1.1314279406200543,6.145735251156301,-3.539583654079187,1.8370876697697192,0.45338397021237925
0.3412679216975224,-5.909011155589316,1.194283432699204,6.137248774208223,-3.5299172711925384,1.8562872217929585,0.4528562487999799
0.3894731730873791,-5.893626035240961,1.2629316728387612,6.135033483485455,-3.5181448646271294,1.875242162747708,0.45538350334016825
0.43992333880094175,-5.882972433908942,1.3334996480282755,6.136919344359646,-3.50419928725722,1.890802096651859,0.4608985071476937
0.49117495801429933,-5.877081711069168,1.402022205530217,6.140417587149434,-3.4880608522998706,1.900025230849619,0.4692453635683805
0.5417155785186353,-5.87582724441812,1.464950783533586,6.143031241108417,-3.469756268300653,1.9007049222232884,0.4802335351673877
0.5900358920546741,-5.878964408983798,1.5195594891251045,6.1425123243338025,-3.449364492722768,1.8918157595367782,0.49367569502888525
0.6346638735838432,-5.886145080804718,1.5641773824099117,6.137015742287296,-3.427021937206441,1.8737871846923553,0.5094058409010803
0.6741793230937456,-5.8969236797772275,1.5982293033168666,6.125161388009935,-3.4029211956348955,1.848544950957089,0.5272799968447377
0.7072397254645718,-5.910759186375507,1.622102927629463,6.1060276409953484,-3.3772979759727533,1.819290504556682,0.5471640608886214
0.7326431496097536,-5.927012391773742,1.6368870201795218,6.079097183827557,-3.350400127002659,1.7900378460437592,0.5689116858668681
0.7494391468711069,-5.944940635470023,1.6440408808670186,6.044202161052321,-3.3224460519985537,1.764971871074559,0.5923334835304596
0.7570752090277708,-5.963684442620967,1.6450567949715562,6.001481906910896,-3.2935790873775828,1.7477382749976138,0.6171580490302355
0.7555489673533098,-5.982243415066279,1.6411671897090556,5.951377510388033,-3.26383189111042,1.740790745406685,0.642987194464341
0.7455230464376461,-5.999449743150782,1.6331381129951397,5.894644716910836,-3.233108936580692,1.744914519471867,0.6692540127120818
0.7283620024571483,-6.013959030890199,1.6211699272239661,5.832374429882468,-3.201191875550003,1.759019916107134,0.6951990806350906
0.7060578563142674,-6.024281555399401,1.604911056963149,5.7659947404248095,-3.1677698778287806,1.7802521215469271,0.7198828064130056
0.6810321391317758,-6.028879837468039,1.5835780195838804,5.697234392029836,-3.1324929660713052,1.8044152888085203,0.7422467416389252
0.655829093501652,-6.026336297899982,1.556159620103617,5.628052898724554,-3.095044245103646,1.8266487918170182,0.7612246099898842
0.6327450735224,-6.015580933713995,1.5216767581305735,5.560555077226369,-3.055230795357312,1.8422476612262262,0.7758887998028234
0.6134583421770735,-5.996141667794606,1.4794578133191987,5.496916720684942,-3.013081815520779,1.8474809579908242,0.78560456693192
0.5987313971110796,-5.968371349911317,1.4293846803381547,5.439346538886815,-2.9689431054850615,1.8402644646259794,0.7901597553978943
0.5882453358705289,-5.933595467977628,1.372064008570589,5.390070383332979,-2.9235429066171594,1.8205641871783393,0.7898403277065332
0.580608198258314,-5.894138522412319,1.3088834840600911,5.351321984106833,-2.8780033785271604,1.7904594089140393,0.7854321067424661
0.5735501633641965,-5.853199059577558,1.241933035215894,5.325285087144854,-2.8337752813956794,1.7538426261852438,0.7781407279240705
0.564289947401414,-5.814577731592089,1.1737979164006087,5.313967586340826,-2.7924908939498994,1.7158021299420425,0.7694391717110932
0.5500248319422674,-5.782303134407542,1.10726279066932,5.3189833423727695,-2.755751121880132,1.6817878211582966,0.7608653036223352
0.5284694839923794,-5.760214998013642,1.0449915156042384,5.341273886977078,-2.7248843606496593,1.6567094672307423,0.7538050804071451
0.4983532253224788,-5.751591724784273,0.9892498140061176,5.380810828737699,-2.700725601295389,1.6441274594507673,0.7492990812550097
0.4597844414414167,-5.758875269178547,0.9417204160852051,5.436361500134236,-2.683462296445428,1.645678567264144,0.7479055866286163
0.4144051839919994,-5.783529212828902,0.9034266340478696,5.505378979712295,-2.6725787475438327,1.6608305877837775,0.7496412622077098
0.36528701130130986,-5.826018724157273,0.8747500526631523,5.584088518213494,-2.6669105198897873,1.6870043836551896,0.754004936919434
0.3165620129619294,-5.885875816297561,0.8555079269594451,5.667778667386699,-2.6648042908192857,1.720034477828074,0.7600768717685343
0.27283516818120057,-5.96179792982159,0.8450519634410052,5.751277303071533,-2.6643563996136037,1.7548884086954415,0.7666725487138635
0.23847468151776802,-6.051711873316317,0.842354650306284,5.829510126846328,-2.663687710287767,1.7865078780487804,0.7725204805195378
0.21690890156317771,-6.152781001109173,0.8460673012075717,5.898045835989615,-2.6612097791980007,1.8106229372715856,0.7764327891573136
0.21005924797534278,-6.2613447182489175,0.8545491071194683,5.9535019023189255,-2.655832845484418,1.824392745825302,0.7774403810346715
0.2180125111362418,-6.372859739128619,0.8658866263563296,5.993768937216318,-2.6470875276344064,1.8267759639148888,0.7748795756502094
0.23898969084346125,-6.481919967020137,0.877932433243736,6.018023331896957,-2.635143410821178,1.818579831033239,0.7684272188516245
0.26961706808812025,-6.582450100471297,0.8883919815788711,6.02657611027405,-2.6207240425239746,1.8021985067214623,0.7580957135718432
0.30545069001227243,-6.668112997883085,0.8949752135967455,6.02061699203351,-2.6049434912394154,1.7811006120150081,0.7442056092429714
0.34165744898241185,-6.732905315694014,0.895606226826745,6.001923671760408,-2.5890928047668686,1.7591619501576905,0.7273539446578774
0.37372614195665793,-6.77183125875628,0.8886608990770692,5.972592769248141,-2.5744168767373767,1.7399669609615953,0.7083933559329544
0.39808085221792366,-6.781534210146862,0.873190987249807,5.934845601861799,-2.5619246037755103,1.7262029690391498,0.688426021190753
0.4124957376593301,-6.760740800413979,0.8490845257420476,5.890909274513256,-2.5522590860267615,1.719242743667658,0.6688018473920248
0.4162597624417106,-6.710433984672408,0.817123907656379,5.842962276748425,-2.5456422404005896,1.71897651417413,0.6510977584755469
0.4100870256421431,-6.633724093497542,0.7789188223117997,5.793107807248021,-2.5418960015111622,1.7239065684549775,0.6370487835539187
0.3958126919113338,-6.535450246047193,0.7367169197085738,5.743349097262744,-2.5405270310537578,1.731480871202696,0.6284092621256124
0.37594601958553975,-6.421609425659396,0.6931217979596875,5.695542723417555,-2.540851471050152,1.7385974169695118,0.6267381906791608
0.35316989274305793,-6.298738963371316,0.6507731996802617,5.651335065899987,-2.5421356341503762,1.7421912080090067,0.6331296437584822
0.3298780585094653,-6.173392748769628,0.6120521214991089,5.612101341259522,-2.5437273109360508,1.7397977798458077,0.6479310199246923
0.30782304112891445,-6.051785797891256,0.5788640998773209,5.578906532322307,-2.545155507358882,1.7299986922565682,0.6705084515033629
0.28791799350167163,-5.939615335250249,0.5525269345064848,5.552494592559637,-2.5461883236316147,1.712675518277715,0.6991228483717508
0.2702023292089416,-5.841994059550368,0.5337617604343866,5.533305164838921,-2.5468403953741383,1.6890340950439404,0.7309721955853451
0.2539544556839038,-5.7633968376791085,0.522764020933015,5.5215028108258535,-2.547342170295321,1.6614015222580556,0.7624319777694115
0.23791483311306005,-5.70753127945741,0.5193192553928475,5.517002172284311,-2.548071751942125,1.632831181645865,0.7894854987786061
0.22057221620504158,-5.67709678298318,0.5229299192256673,5.519473155519655,-2.5494713899167736,1.606591867567494,0.8082913615539397
0.20046191975641797,-5.673456170366593,0.5329246882070227,5.528320839432129,-2.551955979103149,1.585633914667913,0.8157945116490831
0.1764275221656731,-5.696293023228324,0.5485359034273576,5.542646268311129,-2.5558324865546007,1.572129273165923,0.810268021243619
0.14780806983035555,-5.743369176925775,0.5689431213284499,5.561211384373761,-2.5612444655868987,1.5671624876671337,0.7916818900603337
0.11452601808124314,-5.810475109178896,0.5932920730747357,5.582427129064897,-2.568142154113605,1.5706150268263095,0.7618164105547155
0.0770695338908301,-5.891664148576959,0.6207036706306046,5.6044018635190955,-2.576290344561592,1.581252080593287,0.7240861254681791
0.0363805926064217,-5.979777354076252,0.650284523479735,5.625057722871747,-2.585304033407644,1.5969837145327304,0.6830850751542055
-0.006320821509596758,-6.067202230889647,0.6811418897997982,5.642311898442168,-2.5947068059470855,1.615245029300488,0.6439236591436421
-0.0497342256004714,-6.146735973556065,0.7123973060328557,5.654293830106906,-2.6039940476260757,1.6334200074328464,0.6114716569252115
-0.09265408393808003,-6.212387511169248,0.7431908747620245,5.65955866785094,-2.612693229635861,1.6492321291045626,0.5896441639452926
-0.13409155569520542,-6.259967083097753,0.7726708276347174,5.657247570364002,-2.620402406991876,1.6610355037197504,0.5808560690781911
-0.17333084886446473,-6.287375283898432,0.799974897237397,5.647171302312596,-2.6268105614091017,1.6679694146720112,0.5857317937956
-0.209927639794092,-6.294570207974929,0.8242168519442437,5.6297936343080766,-2.6316972173421864,1.669967651328912,0.6031076266738856
-0.2436688479624491,-6.283254163515026,0.8444942770784661,5.606130796450159,-2.634920772750394,1.6676383307676301,0.6303092960562154
-0.2745137149798542,-6.256369282383448,0.8599272915734052,5.577580558465128,-2.6364025826109274,1.6620514599819336,0.6636416808215116
-0.3025312695263988,-6.217515674802886,0.8697262905772656,5.545722694897294,-2.6361104156790596,1.6544783893201143,0.6989908971674801
-0.3278419652164219,-6.170403035663894,0.8732763264053626,5.512132218695037,-2.6340472258171226,1.6461336251175562,0.7324234733057418
-0.35056666455783875,-6.118421232327639,0.8702163177264204,5.478232834157987,-2.6302428812669354,1.6379626342999205,0.7606783190799921
-0.3707852597634489,-6.064379600727786,0.8604965505842709,5.44521639806319,-2.624748443685901,1.6305049831496536,0.7814821089574724
-0.38850853900711063,-6.010409355157618,0.8443974241045101,5.414020805282024,-2.6176300855651307,1.6238498186584707,0.7936666203761323
-0.4036664385808886,-5.957998370299459,0.8225079320093247,5.385354110212951,-2.608962866557373,1.6176821942699082,0.7971052861227742
-0.4161147437049116,-5.908107569066839,0.7956672839132074,5.35974380717008,-2.598821581068452,1.6114074877919071,0.7925170454488564
-0.42565806309502224,-5.861329496510265,0.7648880480270527,5.337592107336626,-2.5872714457805,1.6043314364584964,0.7811990749583634
-0.43208271743791193,-5.818052587026541,0.7312818342116527,5.319230749831217,-2.574362062596884,1.5958651287871306,0.764750776834448
-0.43519103649115387,-5.778616561583339,0.6960052536997721,5.304965168299241,-2.5601245316979773,1.5857199958437622,0.7448384695428498
-0.43482882673789286,-5.743434333403449,0.660233721668349,5.2951068584668235,-2.5445746765431694,1.5740570574869648,0.7230310197616246
-0.4309018050081086,-5.713085856774079,0.6251544882711647,5.289996975617627,-2.5277233042708027,1.5615626653332368,0.7007105994740164
-0.42337913518736486,-5.688346158306355,0.5919573169107735,5.290006904903312,-2.5095888053726014,1.5494243946261026,0.6790434724628305
-0.41228813544894155,-5.67016065847299,0.5618017178596428,5.295516956420983,-2.4902130644224747,1.539202890738707,0.6589863715994059
-0.3977059320963767,-5.659557113380949,0.5357474407728412,5.306872978039944,-2.4696829835275933,1.532607482663861,0.6413060456756571
-0.37975425193969964,-5.657504053147038,0.5146510518655374,5.324305932366635,-2.448152473293231,1.5312064818603053,0.6265965666830585
-0.3586035573390798,-5.66475494596526,0.4990493717169043,5.347846099983694,-2.425874370562789,1.5361227164509448,0.6152924808544763
-0.33448551205385646,-5.681691946873696,0.4890558429129031,5.377221820226933,-2.403230709392645,1.5477666919149196,0.6076780862959921
-0.307709541368729,-5.708215719946633,0.48429920858149317,5.411785689017991,-2.3807568878502003,1.5656651540269353,0.6038986054778152
-0.2786729654325366,-5.743699321945674,0.48392568553865034,5.450485596025512,-2.3591447527541214,1.588425904675182,0.6039750736342873
-0.24785510061332952,-5.787015106097832,0.4866747454105933,5.491899553933976,-2.3392100489870553,1.6138596732924286,0.6078219998065895
-0.21579147221164224,-5.836636025726077,0.4910244979615148,5.534344378844825,-2.3218184284354564,1.639254945082382,0.615264604380176
-0.18303204602475612,-5.890769520466922,0.4953869891605174,5.576035729590104,-2.307771967130934,1.661763416287829,0.6260490673231226
-0.15009617355653826,-5.947497084124929,0.49832143887424113,5.615264250312418,-2.297675633202898,1.6788320108400687,0.6398425072850112
-0.11743796735464139,-6.004878040326546,0.4987284362931871,5.650553502700796,-2.2918065636817375,1.6886008466014029,0.6562207712344392
-0.08543078235878261,-6.060996487677707,0.4959904495706795,5.680758111299614,-2.290016308372201,1.6901937956114796,0.6746490910021643
-0.05437127399511279,-6.113974697335622,0.49003566730247944,5.7051003800570355,-2.2916888799450814,1.6838498577556527,0.694466690629334
-0.024494975834617932,-6.161976114307245,0.481315368298443,5.723149453705492,-2.2957748670543516,1.6708729213109252,0.7148877225791468
0.00400635393545049,-6.203240919690142,0.4706995246089982,5.734764432827547,-2.3008994882596636,1.6534070856655685,0.7350287053336042
0.03097238497738623,-6.236171281556224,0.45931054297657387,5.740026376670835,-2.305538716195415,1.634078171340185,0.753962873804542
0.05626761760530718,-6.259468105063135,0.4483253368728872,5.73917814093089,-2.308233688313123,1.615565232825023,0.7707932098212498
0.07977662792070046,-6.272284995994736,0.43878160744063494,5.732576374257255,-2.30780406534399,1.600178675817355,0.7847262548839216
0.10139680207331819,-6.274371221712286,0.4314224453640505,5.7206686893606635,-2.3035273045005975,1.5895199982814614,0.7951319313571792
0.12102736347998057,-6.266150547280015,0.42660199600011794,5.703979836186111,-2.2952448683432793,1.5842756535010611,0.8015771919403679
0.13855796059306286,-6.248722020136452,0.4242629646601601,5.683103178131509,-2.283380598516572,1.584171478874414,0.803832751957615
0.15386238485694687,-6.223764159365246,0.42398391129879365,5.6586910083525686,-2.2688658911149853,1.5880883218565687,0.8018595633983467
0.16680194835572568,-6.193356974075265,0.4250819664572226,5.631435261142058,-2.2529811457952142,1.594307704659567,0.7957851150272426
0.17723959155620314,-6.159755191486506,0.42675074642083366,5.602049816984484,-2.2371477303578584,1.600843567596656,0.7858833087831284
0.1850608767928454,-6.125156084613132,0.42820679930831085,5.571257300499125,-2.2227022168426096,1.6057953828402758,0.7725645990811264
0.19019581981251477,-6.0915045532108865,0.4288193805591534,5.539783170222518,-2.2106973072435268,1.6076632036500036,0.7563794493965551
0.19263509752238625,-6.0603694471659795,0.42820379166329064,5.50836686871146,-2.201762001332572,1.6055715290557273,0.7380293504475016
