0.0,0.0,0.0,0.0,0.0,0.0,0.0
-1.8452628348317313,-0.9698101577790247,-0.2962291403533463,-0.7791832229066464,-0.6499164407440934,0.6022942332091666,0.6162835234985525
-1.833897838075799,-0.9874542336324901,-0.27372156268374476,-0.8034838141793843,-0.6449627989191845,0.6009846346288858,0.6099548921106802
-1.8306888826745258,-0.9872305335025866,-0.27530955135713886,-0.7988938033909774,-0.6444624070950864,0.5986259978826749,0.6082003243222323
-1.827485142879236,-0.9866277985767685,-0.2770366799963165,-0.795244488882049,-0.6440073794913209,0.5967469934026653,0.6064682408564933
-1.8243243878904547,-0.985418609842422,-0.2788530499236217,-0.7930613449598317,-0.6435976326267457,0.5956147938547216,0.6048155291046139
-1.821246243017365,-0.9833470419514152,-0.28070038145680676,-0.7928652125429867,-0.643234097886984,0.5955058969096401,0.6033030748869632
-1.8182850226959106,-0.9801455372927591,-0.2825184884846746,-0.7950839625944345,-0.6429199215752882,0.5966687502832623,0.6019872150042909
-1.81546319521449,-0.9755563376479269,-0.28425294574405974,-0.7999544369247423,-0.6426622495478029,0.5992825846933041,0.6009108235052345
-1.812784253058663,-0.9693503478172931,-0.28586162690398365,-0.8074345114073112,-0.6424730429647847,0.6034198588148092,0.6000951744673968
-1.8102296569584435,-0.9613427361395972,-0.2873194588592869,-0.8171485699917658,-0.6423699102615015,0.6090224246991084,0.5995350958847769
-1.8077574198179467,-0.9513999912289691,-0.28862026453285344,-0.828385203513939,-0.642375251375824,0.6158985872319268,0.5991984115501671
-1.8053057317157961,-0.9394417601764509,-0.28977620652648817,-0.8401574356474011,-0.6425143844249666,0.6237444260945965,0.5990306072047772
-1.8027999329038977,-0.9254387785017595,-0.29081526587459144,-0.8513190723477526,-0.6428123584576535,0.6321863111773673,0.5989642126824681
-1.8001616670092473,-0.9094121441601838,-0.2917779694088453,-0.8607179790878077,-0.6432893519593041,0.6408358136431305,0.598930533364177
-1.7973185091716626,-0.8914379500629093,-0.29271381671319496,-0.8673556625818957,-0.6439558799780486,0.6493453970150451,0.5988721161842528
-1.79421155010565,-0.871656906368282,-0.293678222211607,-0.8705218057076555,-0.6448076802016802,0.6574524175669659,0.598752880295756
-1.7908008076931576,-0.8502858854054955,-0.2947300561048008,-0.8698801391456469,-0.6458221741563387,0.6650054494233526,0.5985645105814681
-1.787065442092114,-0.8276227152587303,-0.2959295678545674,-0.8654921764351928,-0.6469575721187272,0.6719696246511264,0.598327734604029
-1.7830015630401739,-0.8040371087095359,-0.2973364060362176,-0.8577792473228746,-0.6481555207709877,0.6784140239891921,0.5980884064268337
-1.778614517213485,-0.77994311450467,-0.2990069225749672,-0.8474337749237819,-0.6493475308135,0.6844850450383169,0.5979089578649075
-1.7739103036507724,-0.7557573122119944,-0.30099070839388425,-0.835299834873703,-0.6504643825003381,0.6903723130791665,0.5978563655251706
-1.768886079559775,-0.7318517993887731,-0.30332592863101376,-0.8222478280258695,-0.6514467978248694,0.6962723586858565,0.5979884944843457
-1.7635224343266571,-0.7085151869780933,-0.30603411014009707,-0.8090659939074606,-0.6522553878527179,0.7023549458135423,0.5983415134989617
-1.7577784099960492,-0.6859298576982306,-0.30911506859399873,-0.7963851308851148,-0.6528772068769046,0.7087362356229534,0.5989198020932965
-1.7515904449772703,-0.6641698768238365,-0.31254374599631074,-0.7846416551665235,-0.6533283020967959,0.7154624804779468,0.5996907847377598
-1.744876153258907,-0.6432167799867476,-0.31627008539087675,-0.7740754827711384,-0.6536514087976429,0.7225058781788238,0.6005862187653185
-1.7375426103559024,-0.6229874911606493,-0.3202227386835632,-0.7647515909847074,-0.6539088037697367,0.7297724640041168,0.6015097371445595
-1.729499481121108,-0.6033692570508378,-0.32431612981489116,-0.7565947276257524,-0.6541718779010252,0.737119789851153,0.602350055874986
-1.7206760903430929,-0.5842576214994399,-0.32845906268820774,-0.7494263426802035,-0.6545086345746057,0.7443784608927693,0.6029974969070966
-1.7110407619499588,-0.5655944484683351,-0.33256261534462184,-0.7429972539685455,-0.6549706223517753,0.7513728418135407,0.6033604166691604
-1.700619475189486,-0.5474032080873779,-0.33654567515559874,-0.7370136407996195,-0.65558210665692,0.757936004087524,0.6033789498059757
-1.6895092829641514,-0.5298154470461217,-0.34033749777261557,-0.7311556306017719,-0.6563330499187459,0.7639168730868455,0.6030329983714229
-1.6778826070737836,-0.5130818743203593,-0.34387859076187194,-0.7250925685881041,-0.6571773806733126,0.7691823481810846,0.6023439162421581
-1.6659761903805133,-0.49756080717575357,-0.3471217685453673,-0.7184971062648675,-0.6580376115275881,0.7736161130527773,0.601369126760832
-1.6540663099366197,-0.48368261212261454,-0.3500351007204959,-0.7110629488521638,-0.658815211179022,0.7771190361128507,0.6001913395013522
-1.642432998511813,-0.4718945077515488,-0.35260770803818586,-0.702527583458671,-0.6594059458192242,0.7796127906217059,0.5989047951580353
-1.6313199032542176,-0.462595956940277,-0.35485708022325585,-0.6926989237305575,-0.6597161240947111,0.7810452704763339,0.5976001230888837
-1.620898738614638,-0.4560790044017726,-0.35683660479598756,-0.6814823227747948,-0.6596775786639999,0.7813969107849785,0.5963511558374077
-1.611246332654644,-0.45248701795689933,-0.35864050712827816,-0.6689017254009783,-0.6592587700027409,0.7806842293657972,0.5952060689889876
-1.6023363810072333,-0.45179992656778517,-0.36040369957433227,-0.6551066888705147,-0.6584689447886446,0.7789578635013121,0.594182723936014
-1.5940490578091688,-0.45385033223977084,-0.36229487358962226,-0.6403587218583604,-0.6573561903791882,0.7762932405403637,0.5932700223154059
-1.5861931015993103,-0.4583666783674447,-0.36450149232881485,-0.624992982350115,-0.6559985171948564,0.7727731730331805,0.5924331624703653
-1.5785394858895283,-0.4650367478011332,-0.36720731994746203,-0.6093585377433378,-0.6544908444558957,0.7684641947313081,0.5916221510138402
-1.5708585006748446,-0.473579158072433,-0.370564548141403,-0.5937464003540897,-0.6529294330894221,0.7633889195812653,0.5907821875507456
-1.5629573549846894,-0.4838101100057892,-0.3746644119861973,-0.5783187890871657,-0.6513970134347993,0.757499791989997,0.5898632923677655
-1.554710631217088,-0.49569326175767964,-0.37951153125417575,-0.5630538381892137,-0.6499510578231559,0.7506587116594224,0.5888283005180975
-1.546080262060013,-0.5093650615853835,-0.3850080439232937,-0.5477176526673926,-0.6486170867172333,0.7426273975290776,0.587657922213107
-1.537121007449322,-0.5251303123816358,-0.3909527146138458,-0.5318687574481851,-0.6473871289375001,0.7330727759929838,0.5863522727500947
-1.527968980028542,-0.5434282799215912,-0.39705816945930544,-0.5148975217062353,-0.6462238421776589,0.7215898149973657,0.5849290409443785
-1.518816535929459,-0.5647707883324964,-0.4029865468837573,-0.49609654394152825,-0.6450686436111236,0.7077434533096937,0.5834194434466126
-1.5098768633082247,-0.5896572397235229,-0.4083976872569457,-0.474754607841911,-0.6438525767724493,0.691126080821322,0.5818621495891577
-1.5013463344004836,-0.6184756136853259,-0.4130020142819206,-0.45026190586048787,-0.6425078327916148,0.6714266681582176,0.5802974546614434
-1.4933713396875254,-0.6514020561066054,-0.4166073218309533,-0.4222103282255321,-0.6409778789913068,0.648499179958146,0.5787619915273132
-1.4860271352083785,-0.68831781992461,-0.4191507160216386,-0.3904700825008911,-0.6392249477216511,0.6224186091471089,0.5772853307451004
-1.4793093039077043,-0.7287620590362567,-0.42070930079750396,-0.35522389838116875,-0.6372337383611433,0.5935078579421472,0.5758877573595832
-1.473140124815417,-0.7719382315447112,-0.42148797803210025,-0.31694549727983523,-0.6350108742995323,0.5623248767705936,0.5745798293814427
-1.4673846698591095,-0.816777638510914,-0.4217855524390183,-0.2763189098529,-0.6325812228823635,0.5296046186111845,0.5733618452291357
-1.4618763489142717,-0.8620508391002825,-0.4219453633104804,-0.2341106953857802,-0.6299817800891914,0.4961652286478607,0.5722241282142888
-1.456443639632384,-0.9064997879262198,-0.42229757402382656,-0.19102048297823895,-0.6272545082887452,0.46279667301667715,0.5711459988452503
-1.450937111905915,-0.9489593949344013,-0.42310370210146875,-0.14754219609273492,-0.6244401971860043,0.4301573001820728,0.5700949384737675
-1.4452516584060748,-0.9884435478714064,-0.4245125641622827,-0.10386557755926384,-0.6215745557145237,0.3987002141918085,0.56902568892409
-1.4393397455430448,-1.0241850837918267,-0.42653457541917933,-0.05983599181882513,-0.6186858044970144,0.3686398715436609,0.5678799120127622
-1.433216440306637,-1.055640046973468,-0.42903991623679494,-0.01497807127524942,-0.6157947881296747,0.33995992950172815,0.5665877799207567
-1.426953792067821,-1.082473119484212,-0.43178015774067696,0.031421590187698606,-0.6129156847355937,0.31245261932010443,0.5650715643683875
-1.4206671958129953,-1.1045454116250342,-0.4344309721653417,0.08018269569780319,-0.6100570569088419,0.2857793674071346,0.5632524293691126
-1.4144978288286818,-1.1219166673225898,-0.43664838159940983,0.1320634130009863,-0.6072230511894643,0.25954140655654323,0.5610597131324407
-1.408593050914459,-1.134861421415215,-0.4381278950215737,0.18757410236965769,-0.6044143309731013,0.2333517187294132,0.5584413096146698
-1.4030914463663513,-1.1438928369774244,-0.4386566329694615,0.24679688559096596,-0.6016291923470279,0.20690115266296788,0.5553740004928025
-1.3981133285674174,-1.149778976309635,-0.4381487731502129,0.3092438083287427,-0.5988650921480757,0.1800103827540965,0.5518712092623517
-1.393755833409629,-1.1535339717854176,-0.4366586817134929,0.3737908146759968,-0.596119689511161,0.1526596592493036,0.5479857841029663
-1.3900925202955143,-1.156371717105638,-0.4343697470682652,0.43871918133292165,-0.5933915470826506,0.1249900399398935,0.543806471936932
-1.3871742987958382,-1.1596168499307553,-0.4315618730586864,0.5018770286951019,-0.5906805568650813,0.09727514583773283,0.5394480442572022
-1.3850285487425955,-1.1645737914682999,-0.4285624880665156,0.5609419284850226,-0.5879869330143476,0.06986970361462312,0.5350356000755435
-1.3836564974138459,-1.1723739659862245,-0.4256913953001895,0.6137374076625077,-0.5853105180485111,0.04314842199982193,0.5306867693964438
-1.3830293446916981,-1.1838222877050646,-0.42320851230757617,0.6585369325236586,-0.5826498164930892,0.017450699687981516,0.5264953620810114
-1.3830830322175798,-1.199274231288348,-0.4212739656689562,0.6942946709276206,-0.5800020229078607,-0.006956586436723385,0.5225192217364523
-1.3837169436171135,-1.2185686521438535,-0.4199269404704186,0.7207623849238216,-0.5773633347797098,-0.029893875619963442,0.5187750773481593
-1.3847959837846628,-1.241035120406613,-0.4190853213879623,0.7384788591430919,-0.5747301165442531,-0.05126486726162976,0.5152399174420549
-1.3861610480886863,-1.2655830020424699,-0.4185661847084067,0.7486458802714782,-0.572099929695644,-0.0710414770301574,0.511858668214889
-1.3876449257317152,-1.2908606955100113,-0.4181221169414249,0.7529216934180426,-0.5694726648919068,-0.08924567040628399,0.5085559134265306
-1.3890940620779078,-1.31545739285492,-0.41748770791186823,0.7531758122003213,-0.5668516767320361,-0.10593267880938013,0.5052507126113538
-1.390390584426678,-1.3381102935513243,-0.41642731324099586,0.7512502090583976,-0.5642451764336202,-0.12117673087596782,0.5018712941338438
-1.3914708080302873,-1.3578754990473747,-0.41477629060219495,0.7487651761303024,-0.5616678316075165,-0.13505839931806454,0.49836825479161423
-1.392336751549714,-1.374236555180646,-0.4124688358931596,0.7469935489822017,-0.5591422312200922,-0.14765330046525876,0.4947242944815053
-1.3930577900045178,-1.387133890799736,-0.4095479552005828,0.7468086350333267,-0.5566996509659747,-0.15902309279772167,0.4909584512660149
-1.3937616748241048,-1.3969208421588868,-0.40615623145552066,0.7486965844908688,-0.5543791155874929,-0.16921091952459463,0.487124043006539
-1.3946165870341949,-1.4042584951742596,-0.40250929733019153,0.7528137634020629,-0.5522243565535858,-0.17824311722849875,0.483300755469847
-1.3958051127906546,-1.40997245275244,-0.39885669392159,0.759067326495679,-0.5502786764862457,-0.18613704054106406,0.4795816662889522
-1.3974953806762815,-1.414896642653617,-0.39543774960491307,0.7671969577600648,-0.5485784540736617,-0.19291278892476577,0.4760586831033597
-1.399812519221197,-1.4197301904029398,-0.39244076092472174,0.7768438511689169,-0.5471470117861104,-0.19860511012764737,0.47280897257920484
-1.40281578281282,-1.4249271994719486,-0.38997214385529577,0.7875987607678565,-0.5459894444739344,-0.20327156678684444,0.4698851710860016
-1.406486047787564,-1.4306359849000692,-0.3880417198955873,0.7990316462869835,-0.545090954045718,-0.20699420165601673,0.467311313950087
-1.4107251224382582,-1.4366901593640733,-0.38656457239886044,0.8107104303439978,-0.5444175411557981,-0.20987290176512885,0.46508341829845523
-1.415370247420365,-1.4426546102526117,-0.3853798781150309,0.8222186523895779,-0.5439206865825855,-0.21201075572690312,0.4631751944922842
-1.4202192012054518,-1.4479104803999983,-0.38428242905476034,0.833178018783469,-0.5435443936308482,-0.21349238094606246,0.46154617273330617
-1.4250625366753917,-1.4517652584245915,-0.38306173225107143,0.8432775793764331,-0.5432337838594321,-0.21435762649698922,0.46015120758654793
-1.4297162439108293,-1.4535654165533758,-0.38154192433626116,0.8523039909835983,-0.5429439100145453,-0.21457420600972035,0.4589498147447074
-1.4340473317322506,-1.4527913726182913,-0.37961578252172584,0.8601666867214317,-0.542646862577095,-0.21401370738094147,0.4579137056534845
-1.4379890329308722,-1.4491202972534476,-0.37726682453467214,0.8669103795253515,-0.5423363380779856,-0.21243633188750838,0.45703174344283826
-1.4415448007231342,-1.4424498160293004,-0.374575469592519,0.8727116761875859,-0.5420291177991103,-0.2094897277974897,0.4563118968560048
-1.4447801259013522,-1.4328848712325561,-0.3717078532350179,0.8778579733275055,-0.541762636775941,-0.2047266066026597,0.45577963678661887
-1.4478078282295268,-1.4206947520825934,-0.36888814987056884,0.8827116549970807,-0.5415900889198753,-0.19764304900316823,0.4554733527470961
-1.450768198187851,-1.4062562310930684,-0.36635917556223757,0.8876641244994483,-0.5415730563006473,-0.1877358339935946,0.45543737910587295
-1.4538078164355868,-1.3899939496825868,-0.36433761804678055,0.8930850075247668,-0.5417733278141554,-0.17457192408108907,0.45571376259376295
-1.4570597449388025,-1.3723339658488136,-0.3629723722222354,0.8992753612840299,-0.5422450977118226,-0.15785929787453346,0.45633407249979585
-1.4606281204635283,-1.353674721937997,-0.362313612957008,0.9064308741734088,-0.5430289997356137,-0.1375053767958173,0.45731326344219153
-1.4645790928305273,-1.3343763852620825,-0.36229821425008457,0.9146209374702267,-0.5441488487538954,-0.11364876270985097,0.4586462609842254
-1.4689378817614056,-1.3147589738845191,-0.3627548572928768,0.9237865047127541,-0.5456113808980294,-0.08665361355704215,0.4603089008970025
-1.4736943673019605,-1.2951051931794517,-0.3634287149575234,0.9337562877506453,-0.5474089493893871,-0.057062927477428776,0.462262906698762
-1.4788131387946417,-1.2756596790298693,-0.36402221430993764,0.9442770575258107,-0.5495246896924245,-0.025517680308896545,0.46446461421218116
-1.4842466571737007,-1.2566257866726338,-0.36424537444551275,0.9550496977068849,-0.5519379546003134,0.00734134983696497,0.466875288391606
-1.4899464908845237,-1.2381635519951049,-0.36386670751923983,0.9657623485094674,-0.5546291926104095,0.04096657230051992,0.469471183674045
-1.4958705094890847,-1.2203928427371613,-0.36275596100348545,0.9761137856611974,-0.5575828765151366,0.07497166930679418,0.47225066056953907
-1.5019861447380043,-1.2034062494184306,-0.3609108609413758,0.985824753407208,-0.560788358892342,0.10916377769632997,0.47523749624963757
-1.5082689290218596,-1.1872896346694182,-0.35846272140370705,0.9946406819788214,-0.5642394509375794,0.14353969894095897,0.47847917378176263
-1.5146999431687824,-1.1721500787321735,-0.3556593826241603,1.0023309643038536,-0.5679332416561345,0.17825341719807158,0.4820402727679477
-1.5212629084155704,-1.1581478198967898,-0.3528273942768389,1.0086902154976338,-0.5718690689305066,0.21356439336552893,0.48599118258980817
-1.527942795454107,-1.1455331554725698,-0.3503200788513282,1.0135462541549882,-0.5760477422384059,0.24977448871396368,0.49039330072034987
-1.5347222052287486,-1.1346850929880017,-0.3484598951166829,1.0167711623972835,-0.5804699796270454,0.28715850612854177,0.49528123678689134
-1.5415777292239035,-1.1261519887128508,-0.34748597551179333,1.0182949687749068,-0.5851339790096429,0.32589494026287363,0.5006448001112705
-1.5484754326636052,-1.120687317768716,-0.34751599392977167,1.018116494268169,-0.5900322376944402,0.3660057646667676,0.5064141366011078
-1.5553657536357375,-1.1192679302506665,-0.34852805660856895,1.016307387729266,-0.5951480832005588,0.40731863904683013,0.5124515852619855
-1.5621827650463773,-1.1230842733103665,-0.3503663751850941,1.013009493232757,-0.6004542810572482,0.44946572970527154,0.5185554298235435
-1.568848084224476,-1.1334896780734733,-0.3527682707990097,1.0084246273700537,-0.6059138434448488,0.49192627168648995,0.5244766707361739
-1.5752820122923874,-1.1519059630023933,-0.35540796926618623,1.0028014426128258,-0.6114839712499774,0.5341092980136939,0.5299486054506202
-1.5814170543245147,-1.1796923962839465,-0.3579486584898152,0.9964214818969863,-0.6171207175963422,0.5754587909974129,0.534724226107289
-1.5872125017317658,-1.217997255831119,-0.3600930007098168,0.9895900263024006,-0.6227831555855764,0.615556017614117,0.5386136452087592
-1.5926651032976022,-1.267617444567981,-0.3616239700106699,0.982632220225476,-0.6284354852112932,0.6541955698084451,0.5415147959559532
-1.5978125228220186,-1.328893422864648,-0.3624290704034701,0.9758928883431409,-0.6340461604071597,0.6914187295209346,0.5434297314139136
-1.602731548304455,-1.4016622914537038,-0.36250719089377165,0.9697367259153882,-0.6395860646799609,0.7275022931815266,0.5444645525916153
-1.6075291475292632,-1.4852757169504285,-0.36195823579447306,0.9645419369570716,-0.6450274293952191,0.7629075541780017,0.5448114392755642
-1.6123283724436928,-1.578670062321588,-0.360960011695568,0.9606839886123901,-0.6503435971035654,0.7981984833618209,0.544716337333749
-1.6172530842753454,-1.680459807091743,-0.3597384385757734,0.9585104671043447,-0.655511817077808,0.8339413507380662,0.5444372866789876
-1.622408881752492,-1.7890102421113578,-0.3585365628471433,0.9583086918703874,-0.6605154189638637,0.8705939161827796,0.5441996602885908
-1.6278661112019899,-1.9024688708163975,-0.357588568550326,0.9602757653265883,-0.6653460428346845,0.9083995530961272,0.5441571170742904
-1.6336455325645807,-2.018756716685892,-0.35710142347789064,0.9644973920032627,-0.6700033665596299,0.9473006137999395,0.5443640498800488
-1.6397099161805773,-2.1355620780976965,-0.35724497874172734,0.9709435119105223,-0.6744930472660694,0.9868912887501307,0.5447642529278173
-1.645965013077108,-2.2503973448636283,-0.35814890165600555,0.9794854375851909,-0.6788239207384917,1.026426937464515,0.545199527459702
-1.6522711624912225,-2.360769415480554,-0.359903435108996,0.9899339931707077,-0.6830052257760189,1.0648974914781342,0.5454366744804858
-1.6584622265401603,-2.4644766804763734,-0.36256015178593487,1.0020947347754858,-0.6870442921598832,1.1011558146859282,0.5452093466536333
-1.664369646906322,-2.5599935932632634,-0.3661310675690288,1.0158302666675842,-0.690944731374631,1.134076946623547,0.5442688601711236
-1.6698459035549278,-2.6468685501740112,-0.37058486815036,1.0311193294485506,-0.6947046183115092,1.1627138454725627,0.5424350902458257
-1.6747803129578678,-2.7260350609123303,-0.3758413727497735,1.0481001883133383,-0.69831365586116,1.1864148870407323,0.5396375577827467
-1.6791069032285686,-2.7999590160815795,-0.3817677523334461,1.067092226264048,-0.7017507122582572,1.2048831783870324,0.5359405856804412
-1.6828048045059472,-2.8725592509480213,-0.3881801531888922,1.0885915532680228,-0.7049821944411875,1.2181707105692339,0.5315455209337473
-1.6858913280527106,-2.948877512869057,-0.3948544699673821,1.1132394168543989,-0.7079629404277615,1.2266142702875635,0.526769429029654
-1.6884135771951239,-3.034516309930931,-0.4015466149764825,1.1417667869594559,-0.7106403240691515,1.230730047096062,0.5220020735979419
-1.6904381498618448,-3.1348998029578574,-0.4080202814190767,1.1749178333804204,-0.7129607467793734,1.2310878247311563,0.5176488766208494
-1.6920426251480987,-3.254457312975834,-0.41407630980282334,1.213360557808316,-0.7148772581112054,1.228188125692506,0.5140694840097486
-1.693308403196787,-3.3958620454949267,-0.4195778971710837,1.257598820103328,-0.7163562663762884,1.2223629831517395,0.511524014607044
-1.6943147331617958,-3.5594655884978272,-0.4244656954670723,1.3079008957013625,-0.7173821002752541,1.2137164137388063,0.5101353819693463
-1.6951341212304745,-3.7430570483830037,-0.4287605495396637,1.3642670400106154,-0.7179576944842009,1.2021171100539034,0.5098739279835418
-1.695829688059465,-3.9420429429446187,-0.4325537296320558,1.42645008396324,-0.7181033741579064,1.1872503531462708,0.5105659070401818
-1.696451971739863,-4.1500469298101565,-0.43598629332716426,1.4940341211880177,-0.7178529608737685,1.1687278139890387,0.5119222504506485
-1.6970369016782998,-4.359846811527143,-0.4392212267530615,1.566556780612421,-0.7172492617568975,1.1462510026628328,0.513581505408992
-1.6976034374059634,-4.564463225386425,-0.44241249302713503,1.643647146359059,-0.7163398068687051,1.119811172951238,0.5151584544970008
-1.6981497323400716,-4.758172569542423,-0.44567503140934644,1.7251443698245064,-0.7151734007352311,1.089898722554076,0.5162886191668562
-1.6986509351408623,-4.93725671010355,-0.44906114099632977,1.8111719152149417,-0.7137980339965964,1.0576828257653392,0.5166623082352336
-1.6990565891280158,-5.10036070686525,-0.4525466399828998,1.9021571331620388,-0.7122596098149859,1.0251130322152309,0.5160442188219688
-1.6992926845443421,-5.248450235293879,-0.45603045437206485,1.9988032561171547,-0.7106013250996385,0.9948955224264843,0.5142795650646951
-1.6992664855334343,-5.384412215584305,-0.4593489362014073,2.102026855634753,-0.7088623308096339,0.9703096047485805,0.5112899698449742
-1.6988773308583063,-5.512407958533373,-0.4623033856350595,2.2128694297520926,-0.7070761652651697,0.9548619483251231,0.5070646953081223
-1.6980303280467588,-5.637090351025857,-0.46469721911899003,2.332388682169776,-0.7052681131601165,0.9518163076162999,0.5016517416359313
-1.6966516794213193,-5.762806577371055,-0.46637526051598355,2.4615249190694515,-0.7034523991856618,0.9636727932599168,0.4951524208552823
-1.6947015434459929,-5.892899736660569,-0.4672583733447568,2.6009549904301936,-0.7016298828033561,0.9916961028569488,0.4877206190183586
-1.6921801919679025,-6.029209611778352,-0.46736595256796276,2.750959141203419,-0.6997861897987242,1.0355917358504718,0.4795635168958157
-1.6891265470568786,-6.171847143739585,-0.46682163450491915,2.9113417506774426,-0.697891961081002,1.0934128293119383,0.4709397172124788
-1.685604828418015,-6.319287110468365,-0.4658395127260776,3.0814459361844304,-0.6959041537935089,1.1617442412897945,0.46214887354635653
-1.6816814962320756,-6.468763902754331,-0.46469227727702384,3.2602779826074566,-0.6937691648583098,1.2361584320051218,0.45350929402712237
-1.677392778408655,-6.6168900254841905,-0.463664925449518,3.446714247163244,-0.6914271624828286,1.311879485463771,0.44532432683669837
-1.6727067687996633,-6.760371513166251,-0.4630014367068796,3.639731038985945,-0.6888171292563625,1.384537372682814,0.43784202435281383
-1.6674878080030844,-6.896667283336843,-0.4628535777638971,3.838586516134749,-0.6858821487276093,1.4508725454040228,0.4312165907037672
-1.6614685338907473,-7.02446772525905,-0.4632409850890757,4.042902752692684,-0.6825735886997959,1.5092594721591057,0.42547940356718145
-1.654237832615266,-7.143913636920076,-0.4640305939224146,4.252642374755002,-0.6788542059313787,1.5599588050009476,0.42052653905530274
-1.6452523185319847,-7.2565497483012305,-0.464940551871828,4.468007031001179,-0.6746990680076833,1.6050604492993428,0.41612606363219123
-1.6338747720690079,-7.365038589997291,-0.46557033467051406,4.689298808590296,-0.6700946453825073,1.648130285611737,0.4119452325068759
-1.6194416651951746,-7.4727030755195925,-0.46545428394428007,4.916770193878899,-0.6650368839655708,1.6936183599170307,0.4075943779082351
-1.6013539779390134,-7.5829686868758825,-0.46413041313041736,5.150459095647941,-0.6595295881112101,1.7461225049921796,0.4026812010840313
-1.5791780288475765,-7.69878106456428,-0.4612127309883346,5.389988041459585,-0.6535831676764692,1.8096242767163504,0.3968668266283458
-1.5527424158918053,-7.82209599812283,-0.4564545265625469,5.634343086867495,-0.6472161334594846,1.8868227632038324,0.389914723239638
-1.5222078458356214,-7.9535196951019795,-0.4497903107899695,5.881674434934851,-0.6404570559744688,1.978678566575421,0.3817237883544644
-1.4880912831565398,-8.092184105672935,-0.4413478204334888,6.1292102803544095,-0.6333465302376772,2.084247653154792,0.37233965032919897
-1.4512324611429441,-8.235907339081809,-0.4314268875640394,6.3733871749478475,-0.6259368151045884,2.2008439672546563,0.36194135142920836
-1.412698987092201,-8.381627633588337,-0.42044714811032696,6.610244732537423,-0.6182882044251959,2.3245016756528605,0.35080535292282006
-1.3736491806633853,-8.52606702210877,-0.40887453854042494,6.836067865819531,-0.610463219053008,2.4506541569704194,0.3392541771116295
-1.335178014339648,-8.666470592963803,-0.397139749915756,7.048146615316958,-0.602519700140943,2.574884565007144,0.3275997379707876
-1.2981812813305467,-8.801289489055243,-0.3855649578521513,7.245490277056416,-0.5945058243961895,2.693601376110527,0.31609329149450593
-1.2632640263399673,-8.930657768146338,-0.37431158016115224,7.429330172810358,-0.586457888405105,2.804512535006001,0.30489083870414313
-1.2307052900663045,-9.056578878760481,-0.36335705533672324,7.603286200522553,-0.5784013405365224,2.9068396514433323,0.29403860204801574
-1.200478710959415,-9.182767713868907,-0.35250212032824385,7.77314027614622,-0.5703526237301132,3.0012659329367883,0.2834780450314968
-1.1723151917552626,-9.314175015977758,-0.34140600814153244,7.946219581420827,-0.5623204559688368,3.0896668279186907,0.27306715219274563
-1.145793379330141,-9.456238235169957,-0.3296430549520291,8.130449373914653,-0.5543059167575732,3.1746891541044033,0.2626129810624433
-1.1204419855072738,-9.613945092667787,-0.3167716544883009,8.333182251855492,-0.5463003434196876,3.259254769288973,0.25191036497704944
-1.0958396896241478,-9.790837623497481,-0.30240593249391795,8.559956470681767,-0.5382841693296494,3.346061573239759,0.24078161282376603
-1.0717015878583613,-9.98811463967511,-0.2862787378362642,8.813380981014081,-0.5302266757909135,3.4371501216430467,0.22911199929860884
-1.0479395051346627,-10.20399048575968,-0.2682853877740304,9.09234791794672,-0.5220882999790053,3.5335899918159375,0.2168754171963122
-1.0246864339280728,-10.433484274061541,-0.2484992675873526,9.391764070295512,-0.513824086419238,3.6353254473591683,0.20414502997625344
-1.0022786265983377,-10.668729472892707,-0.2271551429810326,9.702913081119172,-0.5053886624714529,3.7411956583630137,0.19108592801081067
-0.9811967205183344,-10.89981565274641,-0.20460185905617256,10.014443529543003,-0.49674099128785904,3.849108583013204,0.17792978431522244
-0.961975121883891,-11.116020046329272,-0.181234360139219,10.313803599131717,-0.4878497586182209,3.956313183010281,0.16493679984616244
-0.9450977334877592,-11.30718581215559,-0.15742011287242785,10.588832609800338,-0.47869972450652976,4.05969137014834,0.15235316096030402
-0.930901617311413,-11.464965467395402,-0.1334362961380715,10.829168866125327,-0.46929927346790656,4.155997324077777,0.14037397560078224
-0.9195076355901483,-11.583699919697176,-0.10942924928979234,11.027226738520772,-0.4596884243986422,4.242012208926938,0.12911886872921566
-0.9107901560665499,-11.660794937601704,-0.0854005112685641,11.178605852830733,-0.4499442614431637,4.314618788338154,0.11862349988607573
-0.9043903679654532,-11.696619035191521,-0.06121672215719869,11.282000679746163,-0.44018071224451705,4.370865505366608,0.10884606442023899
-0.8997686053289152,-11.693994023760444,-0.036637060493199196,11.338709165041218,-0.4305398910582893,4.408069947555822,0.09968502917723572
-0.8962863942609027,-11.65746661109107,-0.01135176050857867,11.351969462464218,-0.42117539706650825,4.424026133226047,0.09100394029963671
-0.893302790804208,-11.592512934828928,0.014973156360095077,11.326276298203002,-0.4122303494591086,4.4173119659725355,0.08265913060745778
-0.8902684147202111,-11.504847447215251,0.0426490930631705,11.266821540084486,-0.4038155016650004,4.387652698129109,0.07452700270686138
-0.8868014749359071,-11.399932472597706,0.07192102118826725,11.179114834559256,-0.3959923797924903,4.336265616555489,0.0665276170292304
-0.8827336167719066,-11.282708550004763,0.10293351972108053,11.068779633427587,-0.38876540406576027,4.266079454367097,0.05864142818947808
-0.8781192536089135,-11.157517620048903,0.13571483449638816,10.94145197707717,-0.382083538156891,4.181731131352631,0.0509161461389084
-0.8732074156847842,-11.028133874997955,0.17018456899592482,10.802690158559901,-0.3758509978923354,4.089279722920917,0.04346177788200923
-0.8683817111495101,-10.897839876482777,0.20618470747215284,10.657845947744523,-0.369944405750114,3.9956297038724986,0.0364341537740894
-0.8640788292511431,-10.769505720771658,0.24352546799826888,10.511872720400698,-0.3642338638693044,3.9077425826188947,0.030009997997007005
-0.8606999877815287,-10.64566581897654,0.2820315281792113,10.36912924331505,-0.35860545350963147,3.831773223889584,0.024358979626257608
-0.8585312852928572,-10.52860638276952,0.32157429669007476,10.233225825836218,-0.352981722686042,3.7722966228126102,0.01961879230693997
-0.8576863040403869,-10.420473328610717,0.3620813605463913,10.10698811954728,-0.34733778569704155,3.7317743507237,0.015878117313166795
-0.8580804025063375,-10.323369752035832,0.40352289745050424,9.992515809667934,-0.3417096335363549,3.7103516606359195,0.013169849944484937
-0.8594401950710636,-10.239407245755798,0.4458810360273179,9.891343566835944,-0.3361926898631592,3.7060140642154478,0.011474267026065405
-0.861347099860084,-10.17068204598299,0.4891091752525796,9.804638426435613,-0.3309297951095883,3.7150634216062777,0.010729918081540557
-0.8633064602424141,-10.119142124809425,0.5330840599670691,9.733401046847352,-0.3260902224575016,3.7328230032025975,0.010848894850138329
-0.8648296848164523,-10.086368246397543,0.5775497879887841,9.678642299338563,-0.3218434858629118,3.7544418447547594,0.011733009585281423
-0.8655151557674865,-10.073317251938422,0.6220537396160157,9.64151881624343,-0.3183334505504916,3.7756522296589266,0.013287955848283975
-0.8651132966621417,-10.080084290939324,0.6658815772229297,9.623429284928573,-0.3156578152906855,3.7933651060930185,0.015433708294475011
-0.8635648424040213,-10.105750561219576,0.7080093225506578,9.626040351553021,-0.3138564139415853,3.8060107728621215,0.018110779710370433
-0.8610077877036273,-10.148371202481917,0.7471005238442999,9.651222459034567,-0.3129101491093545,3.8136060984514795,0.021283187033328297
-0.8577518178113623,-10.20510584471539,0.7815729930158222,9.700857838229018,-0.31274927116412093,3.8175540590042725,0.024939435013203184
-0.85422677857493,-10.272488191878283,0.8097470193305623,9.77648929177366,-0.31326903435165376,3.820240125976899,0.02909270439750219
-0.8509149834966944,-10.346777067522106,0.8300633923919419,9.878824456532913,-0.31434905918187117,3.824503008814536,0.03378074150875672
-0.848278700459175,-10.424288143915646,0.8413354260168834,10.007101118779115,-0.3158722002306037,3.8330706773797467,0.03906516432934273
-0.8466979176464214,-10.501668846063327,0.8429865345220737,10.158454648126652,-0.3177402005185618,3.8480632085938846,0.045029694022964285
-0.8464259802370236,-10.576038840743353,0.8352217644291272,10.327398365797539,-0.31988334054331674,3.8706280798544928,0.0517766174302
-0.8475696561128442,-10.645025970503402,0.8190924487920234,10.505639838892394,-0.3222640508232452,3.9007625058864157,0.059421139566658364
-0.8500930127424227,-10.70672161658561,0.7964318056528544,10.682378107452196,-0.32487471196470985,3.9373293972411654,0.0680830409688641
-0.8538415746094381,-10.759616051048273,0.7696644723109504,10.845190881518853,-0.32773118234076803,3.978252814906419,0.07787495025936383
-0.8585787797853021,-10.802545503668194,0.7415188491435881,10.981452300472712,-0.3308633760949961,4.020835600048215,0.08888621374857256
-0.8640258090410379,-10.834670562320705,0.7146961251706786,11.080069332513956,-0.33430394708152206,4.062128855727475,0.10116184306598631
-0.8698966924669995,-10.85547476855121,0.6915578496245414,11.13322692331266,-0.3380768685390568,4.099273328780115,0.11467781386773407
-0.8759228610896828,-10.864767947156912,0.6738869325546115,11.137775270940068,-0.34218706405278376,4.129759101006666,0.12931657177667474
-0.881867479354198,-10.862682535786016,0.6627560592753399,11.095985224641728,-0.3466136878449354,4.15157761664167,0.14484995952082255
-0.8875308154614218,-10.849641326760201,0.6585080992443995,11.015461211156818,-0.3513082937668558,4.16328044501454,0.1609374977857922
-0.892753077067696,-10.826316954131164,0.6608326230037025,10.908187353371979,-0.35619989445011546,4.163982174947926,0.1771465117331989
-0.8974187354956148,-10.79358945337026,0.66890568743084,10.788837202640515,-0.36120646244613763,4.153356143755635,0.19299501339576236
-0.9014638422243154,-10.752506460257253,0.6815531756102847,10.672595891677672,-0.36625036128477156,4.131646897352786,0.2080107357550682
-0.9048862287803928,-10.704279831986154,0.6974029371049465,10.572920498783168,-0.3712750158709601,4.099729007621559,0.221794356046699
-0.9077551492634102,-10.65030483860939,0.7150003457660958,10.49960473354715,-0.3762584119903338,4.059183570122378,0.2340730875481709
-0.9102168926458796,-10.592201029525317,0.7328820665352852,10.457510582234859,-0.3812207461123604,4.01236330058617,0.24473326507307921
-0.9124912458268181,-10.531831981055987,0.749619310093701,10.446131227743564,-0.38622447801841936,3.9623829750998465,0.2538265569145396
-0.9148578771287026,-10.47129119739415,0.7638549381876127,10.460058027618597,-0.3913674481236132,3.9129841144845336,0.2615500679032859
-0.9176301013467897,-10.412818058479445,0.7743571380186776,10.490228830816148,-0.39676887950977063,3.868235958883896,0.26820470129576046
-0.9211180617439926,-10.358650177132695,0.7801028907110112,10.525734528342202,-0.4025504234562063,3.832090655781292,0.27413943760574727
-0.9255853085365713,-10.310840530945784,0.7803882119138931,10.555849391515817,-0.40881382749076917,3.8078441289157894,0.27969038163095
-0.9312051291335405,-10.27108065335986,0.7749463987127461,10.571946592363243,-0.4156179843550033,3.7976070975530773,0.2851238637018369
-0.9380243148663345,-10.240565099164963,0.7640461041173084,10.568955797338106,-0.4229588446510181,3.801887313817021,0.2905920749498608
-0.9459421866927809,-10.219926830118618,0.7485371333097391,10.546152973734207,-0.43075678940406514,3.819383783359617,0.29610864094308464
-0.9547115346675885,-10.209256692678137,0.729818510196174,10.507181626626817,-0.43885573796713645,3.8470600516406925,0.3015483943570672
-0.9639640150524208,-10.208180982282656,0.7097145021856286,10.459303360874454,-0.4470362636280784,3.8805116164220537,0.30667259952401477
-0.9732569155341623,-10.215979950760142,0.6902650810788988,10.412047736459147,-0.45504222303176617,3.914592818443946,0.31117668807636434
-0.982134245362578,-10.231718198874423,0.6734599280746858,10.375488596149067,-0.4626162310043703,3.944209044669034,0.31475259098308533
-0.9901890987940514,-10.25434778044581,0.6609611695322627,10.358460977717158,-0.4695365372137503,3.9651351194910456,0.31715466835925743
-0.997114294795447,-10.282767765311544,0.6538657515479045,10.367015340868127,-0.47564718931885613,3.974712248068027,0.3182568201539949
-1.002735005164301,-10.315852047492092,0.6525526197905752,10.403400038409563,-0.4808763422268896,3.972298699943121,0.3180906824575997
-1.0070160440057503,-10.352442475745313,0.6566410218054041,10.46568865519114,-0.48523911597630404,3.9593844778377707,0.31685651580435625
-1.0100483909435038,-10.391335284696122,0.6650684840352099,10.54813206041357,-0.4888263057537057,3.9393475306216166,0.31490437745594896
-1.0120189253678853,-10.431290481050356,0.6762754751824083,10.642150546893687,-0.49178210534379974,3.9168800452661006,0.31268780329909807
-1.0131696071948784,-10.471038361861003,0.6884621011287887,10.737756876383159,-0.4942738417617584,3.8971693607138675,0.3106962993641068
-1.0137554830699336,-10.509314852295416,0.6998728871505139,10.825167392322902,-0.4964602997265423,3.884981113032561,0.3093793467971668
-1.014006243118361,-10.54486121589846,0.7090559716497766,10.896270083583916,-0.4984617112025686,3.883790739615256,0.3090744505027776
-1.0140981742954898,-10.57642761486533,0.7150557475196853,10.945718679611979,-0.5003368821841777,3.895129315149388,0.30995276445264824
-1.0141380597535428,-10.602765118509229,0.7175105867964171,10.971487545822852,-0.5020699166538007,3.9182491689316405,0.3119916304340934
-1.0141596454228798,-10.622628080044128,0.716647873250735,10.974847399472536,-0.5035689319842959,3.9501805821613027,0.31497887745971676
-1.0141320374929945,-10.63483916880625,0.7131872201806878,10.959836876788607,-0.5046769650655563,3.986177944248299,0.31854898977410234
-1.013974898075303,-10.638398638709562,0.7081736606671054,10.932344153221747,-0.5051929480114031,4.020490004637865,0.3222444325661451
-1.013579205228321,-10.632667857398008,0.7027764318838687,10.899015375907844,-0.5048992608991699,4.047321616928002,0.32559173900920163
-1.0128269240566383,-10.617573366312962,0.6980890359816653,10.86617911688624,-0.5035904094765318,4.061821105846243,0.328178252742034
-1.011608481553433,-10.59380379477241,0.6949644538827159,10.838964248983565,-0.5010975365234969,4.0609110175969505,0.3297157436999808
-1.0098341544399825,-10.562941130921818,0.6939088807290248,10.820734032572002,-0.49730463554335175,4.043818569817893,0.3300803287485543
-1.007439673794259,-10.527466511286232,0.6950436141574299,10.812877639945054,-0.49215389482121824,4.012218145692122,0.329322868408446
-1.004388813552,-10.49062461239147,0.6981333288271676,10.814940455899125,-0.4856411667556665,3.9699629070148097,0.3276495290893229
-1.0006719853586816,-10.456116903308063,0.702667403041112,10.82501647825873,-0.47780289063670156,3.9224475555962734,0.32537647602285963
-0.9963054168256393,-10.427673081954698,0.7079741219716503,10.840290844049584,-0.46869930875339866,3.875722884925892,0.32286757675433264
-0.9913314493598672,-10.408555501629364,0.7133440185803682,10.857628195902302,-0.4583988567507002,3.8355193192426307,0.32046604353680347
-0.9858212971031594,-10.401099829259424,0.7181403175112241,10.874091556587228,-0.44696741952222,3.8063567646109036,0.3184323371511963
-0.9798772964205846,-10.406354859468905,0.7218787626010287,10.887313075179835,-0.43446407497074124,3.7908922932487057,0.316897470841667
-0.9736344674882692,-10.423922415994038,0.7242717293896028,10.895710096978029,-0.42094299018190695,3.789609273033609,0.3158393595377207
-0.9672555003326886,-10.451996346538808,0.7252351580868747,10.898531062328894,-0.4064575600866871,3.8008715056684377,0.3150833658140665
-0.9609184494909255,-10.487624527778067,0.7248684327503148,10.895800087943726,-0.3910654731934281,3.821327685574631,0.31432646602237907
-0.954795855543917,-10.527135303656083,0.7234166949153741,10.888190879559664,-0.3748330921194059,3.8465691940933815,0.31317872494154114
-0.949027369550487,-10.566633880884071,0.7212274126305341,10.87687865954699,-0.3578406824897073,3.8719152461771094,0.31121423420267136
-0.9436924028090413,-10.602497757217433,0.718711548707512,10.863418557886547,-0.3401912204716776,3.89319040169904,0.3080224345262044
-0.9387872546550498,-10.631765991116923,0.7163136645115592,10.849650100108095,-0.32202232036983713,3.90734718923869,0.30325088213822177
-0.9342116816952792,-10.652369582637167,0.7144910186025392,10.837614630814768,-0.30351814011525086,3.9128493714182673,0.296633526982075
-0.9297714539098815,-10.663223134326708,0.7136981829366297,10.82948360205539,-0.2849153473377744,3.9097753996143725,0.2880032449492695
-0.9251945507065323,-10.664169970007526,0.7143680878118125,10.827428912832298,-0.266495387763679,3.899637705250246,0.277289384232367
-0.9201637661082978,-10.655870197008493,0.7168847101078393,10.833440020332933,-0.24856043767514158,3.8849871783041623,0.26450633769393983
-0.9143603873295093,-10.63965708561511,0.7215435901009226,10.849063829040784,-0.23139490130621834,3.8688719407157777,0.24973955911138743
-0.9075129457566168,-10.617411410434885,0.7285021954714722,10.875092911481653,-0.21522058745189368,3.8542584133529485,0.233135804317299
-0.8994433978191155,-10.59147318638885,0.7377286270380069,10.911245406251997,-0.20015648159415375,3.8435145716551933,0.21490142249672584
-0.8901031704159217,-10.564583038043539,0.7489604904521612,10.955928816037378,-0.18619253213219658,3.838041967906231,0.19530735872047875
-0.8795888320080882,-10.539794735170993,0.7616873507075518,11.006136475998517,-0.17318284522864483,3.8380963019091756,0.1746937652883606
-0.8681354033308835,-10.520337971568933,0.7751711656097605,11.057582272198205,-0.16085971246398956,3.842823412768207,0.15346603616339596
-0.8560833220335565,-10.509354157988644,0.7885080909128084,11.105084527370005,-0.1488655516152427,3.850481562606261,0.13207421527188415
-0.8438256285171711,-10.509506649996473,0.8007300253561496,11.143192400724567,-0.13679835388465136,3.8588066774154735,0.11097592115685792
-0.8317439385645446,-10.522479919479052,0.8109283766250514,11.166953513861948,-0.12426432168004521,3.865447677102673,0.09058865871999065
-0.820146782940332,-10.548450306432242,0.8183787898133386,11.172706249523998,-0.11093080758080721,3.868392175293574,0.07124351062012643
-0.809221892772496,-10.585624976992728,0.8226411627494729,11.158722052664409,-0.09657165904399517,3.866311015641996,0.0531512983723068
-0.799010585478953,-10.629994120500443,0.8236171730407152,11.125588887136253,-0.08109749917792479,3.8587625189974237,0.03638840854780184
-0.7894071645777337,-10.6754222216299,0.8215544484223927,11.076235450696144,-0.06456455662388794,3.8462356916128817,0.02090316300157823
-0.7801819803791895,-10.714161885979019,0.8169972441386364,11.015576263036781,-0.04715905019813283,3.8300262211823943,0.006539160781756037
-0.7710232428559821,-10.73782360488669,0.8106943600817899,10.949835562990227,-0.029159569753396473,3.8119804220166693,-0.006930275619474893
-0.7615903229468645,-10.738680635105107,0.803479958040044,10.885635477832587,-0.01088516119279136,3.7941474511043576,-0.0197623537491321
-0.7515711193781666,-10.711145250976484,0.7961507776322122,10.82904878112158,0.007358437301913207,3.7784131774879794,-0.03220478395575456
-0.7407345233805097,-10.653131345680766,0.7893606700763881,10.784754158477252,0.02532237572603307,3.7661781713135416,-0.044459831694172135
-0.7289698504007707,-10.567034278867574,0.7835488974623883,10.755470465844072,0.042840026418177836,3.7581325271691526,-0.05665674853829373
-0.7163066245991716,-10.460065161906035,0.7789099865258857,10.741731304881668,0.059831933247079715,3.7541700531452133,-0.06883668530636154
-0.7029095966817202,-10.34377479483337,0.7754041747761228,10.742034886301099,0.076293494010876,3.753444965875818,-0.08095314604499604
-0.689050365345887,-10.232739542205774,0.7728020414970553,10.753319739019215,0.09227095433403759,3.754567511060819,-0.09288867670413962
-0.6750597323036029,-10.142528018945338,0.7707513617635093,10.771677612526537,0.10783057857729489,3.755900605774574,-0.10448466780965968
-0.6612715640773812,-10.087270971150916,0.7688527643668863,10.79316189943504,0.12302491502105083,3.7559097963994796,-0.11557776752081668
-0.6479697749591387,-10.077239314129015,0.7667312157266122,10.814552785184928,0.13785886614179949,3.753500115511494,-0.12603456861620332
-0.6353487453068051,-10.116891691605177,0.7640922208117642,10.833938734950342,0.15225965683775436,3.748283464527632,-0.13577712585725926
-0.6234938901428799,-10.203783398056153,0.7607575186509582,10.851039974934032,0.1660567507092867,3.740727007984147,-0.14479538672803474
-0.6123816754513641,-10.328573966558215,0.7566773931880422,10.86720862320682,0.178978918230865,3.7321445900517882,-0.15314559710268608
-0.601895829046847,-10.47620708932951,0.7519216188864664,10.885112161558492,0.19067448139127033,3.7245217368702432,-0.16093706888103676
-0.5918555031859295,-10.628139448009968,0.746656704974418,10.908158126728317,0.20075647640452537,3.7201932153767783,-0.1683107649201593
-0.5820487394511682,-10.765234744009025,0.7411140196023418,10.939728309141346,0.20886751023847733,3.721411006165868,-0.17541327705739357
-0.572266474808378,-10.870822879307696,0.7355588480609965,10.98234708452738,0.21475336037104556,3.7298753521436843,-0.18236973819580402
-0.562333711673752,-10.933369379185708,0.7302652318772663,11.036930758467006,0.218330435297986,3.746311331314906,-0.18925937553925204
-0.5521330065583044,-10.948265651782853,0.7254985173013195,11.102242606637969,0.21973237384638825,3.7701702473385126,-0.19609720100355366
-0.5416176133676324,-10.918451520471171,0.7215053429416436,11.174695882956819,0.21932507286021605,3.799531066397992,-0.20282588568377385
-0.530812490607877,-10.853748680335226,0.7185054924314302,11.248569988298673,0.2176831843646582,3.8312401628948916,-0.20932054500346434
-0.5198035966743586,-10.769035344522182,0.716681590182391,11.316675061248828,0.21552987604084523,3.8612990730957106,-0.2154075141768661
-0.5087186628686102,-10.681559314201946,0.71616286213091,11.371365669065206,0.21364726062177528,3.8854467738289182,-0.2208947739817753
-0.4977046316270145,-10.60786904490247,0.7170026956591007,11.405754550175084,0.21277257087684065,3.899851743638368,-0.22560853872515174
-0.48690836203546717,-10.560899048759177,0.7191536045907849,11.414907874967742,0.2134981725652531,3.9017843506259675,-0.229428867749549
-0.47646379471598727,-10.54772247271673,0.722445562361167,11.396781118391681,0.21619287862803593,3.890147412966226,-0.23231663732102856
-0.4664867084370628,-10.568341107720409,0.7265754982592848,11.352718520229569,0.22095743743402974,3.865756390064696,-0.23432603106284897
-0.4570749074555617,-10.615735226396039,0.7311173052693548,11.287412835978298,0.22762069099876794,3.8313092879922066,-0.23559978535680973
-0.4483093805417708,-10.67715575050637,0.7355558053257182,11.208293703958136,0.23577510363925683,3.7910313978500723,-0.23634629902814258
-0.4402542073756932,-10.736484526582874,0.7393471418562292,11.124451710229538,0.24484327397929515,3.750043699755227,-0.2368019227572036
-0.4329528825568191,-10.777230069156504,0.7419961799995022,11.04525276812058,0.2541606338439618,3.713550614699947,-0.23718283341034424
-0.42642384758337265,-10.78569147361578,0.7431416598265076,10.978927842624996,0.2630579441798609,3.686003520773493,-0.23763485611243712
-0.42065564077044315,-10.75367283515027,0.7426302574094906,10.931357541443598,0.2709278144836601,3.6703749052879124,-0.23818858512292196
-0.41560569833668914,-10.680313873095079,0.7405674077314217,10.9052964504302,0.27726796925326597,3.667687958132576,-0.2387288084981006
-0.41120243907305487,-10.572644438282643,0.7373296286832344,10.900121150802335,0.28169992225556145,3.6768695264705404,-0.23898403934631593
-0.4073519625292408,-10.444750480542083,0.7335353316939839,10.912157803213878,0.2839701126596055,3.6949613780851385,-0.2385406785024967
-0.4039484202453859,-10.315626159851364,0.7299732715020185,10.935514810070964,0.28394293515539415,3.717658501636537,-0.23688202449402482
-0.40088614703831904,-10.206019491923449,0.7274982983471256,10.963246357896235,0.2815942577125457,3.740069979015811,-0.23344717192765801
-0.3980730805895973,-10.134825043284252,0.7269124792291006,10.988666065727223,0.2770116658908015,3.757589860913726,-0.22770136488124618
-0.3954426455840716,-10.11564274655035,0.7288503741082286,11.00655069717457,0.2704016314637646,3.766700123650265,-0.21920556159603213
-0.3929632606786548,-10.154152897051912,0.7336905404603253,11.01405043077869,0.26210023268199656,3.76558705982217,-0.20767323721320186
-0.390642956116788,-10.246765216047093,0.7415061574686957,11.011139227570101,0.2525780340539002,3.7544498380715483,-0.19300453813291155
-0.3885281806155195,-10.380850181151521,0.7520633989440751,11.000553695274341,0.24243058118816654,3.735459257965529,-0.17529240488446482
-0.386696285654102,-10.53656685483211,0.7648653029627642,10.987231980663335,0.2323465581267021,3.7123716234946533,-0.15480163706393393
-0.38524172775414467,-10.690018481796342,0.7792296331725245,10.97732558453344,0.2230526721396478,3.689854269378142,-0.13192783825542495
-0.38425859176687344,-10.817232600890135,0.7943846994319959,10.976978287963775,0.21524224070963638,3.672644769038805,-0.10714957725282648
-0.3838214742036888,-10.898234421003634,0.8095601774029757,10.991043204299444,0.2094999280622914,3.6646824132447455,-0.08098687660407147
-0.3839692467783931,-10.920508858693557,0.8240582779972234,11.021988976657193,0.20623803162668528,3.6683746341667187,-0.05397579029370375
-0.38469378832100626,-10.881204861424235,0.8372946280369644,11.069182858446178,0.20565639524774668,3.6841173384029116,-0.026658927340252523
-0.38593673711464543,-10.787714883603359,0.8488119110231155,11.128697234810964,0.20773299402887016,3.7101629308120208,0.00041656111129310074
-0.38759502653199013,-10.65649904958451,0.8582748470202238,11.193726021921092,0.21224557149997803,3.74286422354183,0.026706808355101377
-0.389534172481594,-10.510324865666508,0.865457262514067,11.25555733066534,0.21881812023769334,3.7772586970864697,0.051695617258841225
-0.39160769797522527,-10.374399589345249,0.8702317883820534,11.304993153149695,0.22698212401221665,3.8079040206526784,0.07493749782923871
-0.3936779681293221,-10.272045203775798,0.8725648978162436,11.333946733568881,0.23623868458749345,3.8298102473748377,0.0961121782587708
-0.3956350413803815,-10.220709473457184,0.872517873873331,11.336960106874095,0.2461104683375329,3.8393113540108152,0.11507680226087108
-0.3974091705045999,-10.228982321882668,0.870247928816792,11.312320059568036,0.25617549767512865,3.8347070223686024,0.1319010269043138
-0.3989761208033284,-10.295158538440818,0.8660053122904435,11.2626069384661,0.26608304758070095,3.81657868597286,0.14687447774725107
-0.40035336598964394,-10.407538220327858,0.8601179736985126,11.194493559064565,0.27555509652925686,3.787706806917423,0.16048068820750866
-0.4015893836559305,-10.546455705167734,0.8529633289942858,11.117840014911632,0.2843817339670036,3.752618797228014,0.1733388135299666
-0.40274707575017793,-10.687664994987195,0.8449268953110511,11.044184976555208,0.29241591952291024,3.7168283280979924,0.18611838562278127
-0.4038838332352322,-10.80648141932606,0.83635248953769,10.984876997088762,0.29957065789944903,3.6859026581903023,0.19943781425026774
-0.4050317349727894,-10.88196319689611,0.8274954617316118,10.949201206535248,0.30581906000709586,3.6645307698574277,0.2137610255947716
-0.40618003489633503,-10.900357952880752,0.8184854792317527,10.942798246377741,0.31119408533168325,3.6557466106336207,0.22930856204038877
-0.4072638754252138,-10.857269275965955,0.8093083642033627,10.966688978281255,0.31578576951352094,3.660445333592777,0.24600087351386998
-0.40816187224895517,-10.758204321166206,0.7998106582038529,11.01706776290684,0.31973373092108337,3.6772692043078465,0.26344871273570364
-0.40870410873399315,-10.61745483430331,0.7897279865986455,11.085913333996622,0.3232138990470917,3.702874824407179,0.280999589665172
-0.4086907577729113,-10.455543473832286,0.7787349136346273,11.162318229147951,0.3264196122283404,3.7325318520085693,0.297839566807728
-0.4079195026273387,-10.295724380356678,0.7665120810792994,11.234329902703704,0.3295389650898062,3.760946599447401,0.3131370189084406
-0.4062170864252113,-10.16017370887635,0.7528220326475875,11.290952564874386,0.33273049539820065,3.783161829532235,0.32620352082325493
-0.40346924062171746,-10.066556003955613,0.737583157969005,11.32396134151922,0.3361008005846693,3.795365363466722,0.33664163009580533
-0.3996432349232854,-10.02554531546014,0.7209290524754838,11.329217253095187,0.339688162707872,3.795482648797598,0.34445024354483533
-0.3947970625589866,-10.039631024617515,0.7032388899379668,11.307257379452833,0.3434552017009138,3.783448715769423,0.3500652885400979
-0.38907297212949865,-10.103330740103006,0.6851280799178823,11.263099466488576,0.34729384609643615,3.761143050476652,0.3543245423101394
-0.38267354926704383,-10.204638092262721,0.6673934885058187,11.2052828999983,0.35104296763605386,3.7319991389055143,0.358355959999528
-0.3758245122926634,-10.32738363874437,0.6509193264257018,11.144351932247206,0.3545172215524117,3.700382069296003,0.36340357229337117
-0.36872976915329914,-10.454016056309316,0.6365591495625057,11.091038822711896,0.3575422507833719,3.6708421158859847,0.37061612297189483
-0.3615273531157222,-10.56827731488847,0.6250173276063044,11.054474605980465,0.35999005214803903,3.6473866191655677,0.38083266238553015
-0.35425392116001225,-10.6573250539329,0.6167531185991509,11.040735776911548,0.3618075214446982,3.6328903260184338,0.3944030429753119
-0.34682441544340575,-10.713030703911418,0.611927054230684,11.051975138815722,0.3630330892458185,3.6287399531166566,0.41107867881107113
-0.3390289187676446,-10.73236273389751,0.6103965252190939,11.086231577469675,0.36379732237346435,3.634740777958942,0.4299987992243638
-0.330547967498,-10.716982235467766,0.6117619865784134,11.137959402596028,0.36430755617420596,3.649287278392634,0.44978580035733473
-0.3209829954470913,-10.672236828985511,0.6154522612734648,11.19912893462931,0.36481746443688096,3.6697342242300848,0.4687405297480291
-0.3098986861930595,-10.605882457515348,0.6208345092068177,11.26071887383044,0.36558701328605026,3.6928971368722947,0.48511057494529897
-0.29687036601024724,-10.526770753710997,0.6273264463004125,11.31429461065887,0.3668380178471302,3.715569220034441,0.4973831803484502
-0.28153072827994036,-10.443772745670449,0.6344925404747193,11.353410669299446,0.3687141294282028,3.7349760011644095,0.5045502717959379
-0.26360806054088765,-10.365013592508735,0.6421066695783472,11.374578537126816,0.37125095255178303,3.749087420057274,0.506294345854378
-0.24295133991707754,-10.297466100447288,0.6501731968144839,11.377686604743964,0.3743634563972714,3.756771642691633,0.5030614746967481
-0.2195389159346136,-10.246772344321986,0.658903229453855,11.365804900593265,0.3778525018739132,3.757787552415726,0.4960038445772361
-0.19347323636192212,-10.21718333199609,0.6686494197594347,11.344456446421011,0.3814313320019372,3.752658268899616,0.4867991607951242
-0.16496812314662299,-10.211488021939228,0.6798078924158131,11.320487298215214,0.384767658844831,3.742471659576899,0.47737346343403453
-0.13433845255876575,-10.23086533163984,0.6926999127443351,11.300741410733542,0.3875338676569515,3.7286588320830454,0.46957498759345717
-0.10200039756081267,-10.274665015075973,0.7074503063656079,11.29078118957927,0.3894561300935789,3.7127981399219236,0.4648554761968255
-0.06848348830752668,-10.340178646473362,0.7238827631373418,11.293861149856498,0.3903533340755617,3.6964641750513705,0.4640145494400506
-0.034446063767436245,-10.422523133499336,0.7414539686483115,11.310335085205955,0.39015924755921827,3.6811343424479817,0.46705105326626273
-0.0006781570050006739,-10.514762574008087,0.7592465051806743,11.337598041691482,0.38892522800686774,3.6681332797083877,0.47314605506189855
0.0319242625488033,-10.608373996533784,0.7760325603184125,11.370568872152703,0.3868040562396754,3.658595571360812,0.48078081594366745
0.0624219201429595,-10.694057045918814,0.790406763038975,11.402645364352487,0.3840186790156747,3.653418205868022,0.48797001354735303
0.08992578013476386,-10.762832897447513,0.8009716709291443,11.426976833766542,0.38082280334555896,3.6531948053437993,0.49257014142946476
0.11370343854116223,-10.807225830206022,0.8065423129842264,11.437822713935036,0.37746052993981666,3.6581282797897607,0.49260777643172265
0.13327430372631338,-10.82232875440542,0.8063327573601972,11.431755910684926,0.3741325445107126,3.667940953690857,0.48657011303417075
0.1484726998077415,-10.806534195155496,0.8000886166507645,11.408499887951505,0.37097416213737416,3.681811709698108,0.47360934947210737
0.15946691783874653,-10.761788993199694,0.7881406405578011,11.371211527807544,0.3680470275815359,3.698365952182887,0.45363030177905944
0.1667327719684148,-10.69330852704307,0.7713701784967343,11.32615439451897,0.365344243911026,3.715753845060269,0.4272539631932324
0.17098977866483797,-10.608814686458633,0.7510944993202872,11.281775119683303,0.3628068404998864,3.7318264400191357,0.3956719041407603
0.17311378963292623,-10.517393461797509,0.7288937100564742,11.247284524643176,0.36034696355574924,3.74439485688132,0.3604255237465603
0.17404426814353524,-10.42822875295516,0.7064186668910468,11.23101531471826,0.35787507667852775,3.7515464647434524,0.3231605203566285
0.17470157747956602,-10.34939846247223,0.6852137985569835,11.23878399609108,0.35532526661617686,3.751949323081137,0.28540409729466765
0.1759264932661645,-10.286977748622373,0.6665890793402077,11.272612030949617,0.35267632633195567,3.7451002671877376,0.24840500478822788
0.17844444785300123,-10.24452714750614,0.6515502959125283,11.330008362833071,0.34996357401492995,3.7314529665463074,0.21305070793609635
0.18285085156075936,-10.223020461379358,0.6407853051989635,11.40401921840629,0.34728023387512497,3.7124021787427197,0.1798574157576449
0.1896077893823766,-10.221129805091966,0.6346878280224165,11.484070354212088,0.3447664648756506,3.690109669573177,0.14901294686177427
0.1990418106399466,-10.235777541261742,0.6333979726800126,11.557534150381143,0.34258785640455597,3.667198405693918,0.12044926405768772
0.21133426006287517,-10.262783916945205,0.6368397302585042,11.611760180579928,0.34090598139725536,3.6463594639015664,0.09392466799962293
0.22650116555839314,-10.297507372212415,0.6447445834277298,11.63623623371792,0.33984657477604585,3.629942525057254,0.0691026445581099
0.24436612290007942,-10.335338417512022,0.6566587907355445,11.624473776813831,0.33947089576027106,3.619601938074815,0.04561953402070698
0.2645363957424691,-10.37204393606337,0.6719419857194153,11.575287349237696,0.3397562886393387,3.616061628050761,0.02313689606838467
0.28639627335955103,-10.403955214706555,0.6897696859420633,11.493214662998465,0.3405897176794618,3.6190342327099514,0.0013756122142565578
0.3091311738048413,-10.428073938297704,0.7091547249826304,11.387983755110813,0.341776629413755,3.62730662824184,-0.019869113189986118
0.3317885735991068,-10.442159790567926,0.7289946716977285,11.273081715758236,0.34306433779073126,3.6389687857670423,-0.040730324599131354
0.3533711249514827,-10.444879737287863,0.7481437450055428,11.163675089062858,0.3441769458984592,3.651751905330963,-0.061284352717183965
0.37294472533544937,-10.43599304407853,0.7654948031619652,11.074221999584923,0.34485496156672724,3.6634007775358675,-0.08157038473268735
0.38973955974789415,-10.416584421074623,0.7800552092000265,11.016229886198317,0.34489363062218115,3.672024831272192,-0.10160660380329543
0.4032227486556028,-10.389238065262893,0.7909990085999944,10.996525545422312,0.34417155577924496,3.67636018413411,-0.12139721168041445
0.413130767605626,-10.358089211862312,0.797691142796929,11.016346605147463,0.34266616247389936,3.67591326686067,-0.1409294740751848
0.4194592773927934,-10.328649167783968,0.7996876375865762,11.071360273703462,0.3404526670430929,3.6709721344368003,-0.16016342021290478
0.4224168109964241,-10.307335579392733,0.796721585185896,11.152569749954086,0.3376872675309278,3.662494152975358,-0.17901777568229732
0.4223557458118272,-10.300710152731217,0.7886912823696524,11.247937448282853,0.3345780259809306,3.6519068032863236,-0.19735470763649035
0.41969473373185906,-10.314494514052123,0.7756598760768793,11.344397659303823,0.3313490590922059,3.6408623417269075,-0.21496296946439733
0.4148468016584886,-10.352494219797899,0.7578703245204773,11.429866901725463,0.3282043544107212,3.6309885058304086,-0.2315381218021069
0.4081648396048848,-10.415637802994533,0.7357733017206561,11.494931909262949,0.3252983221396939,3.6236861265735603,-0.24666153780518724
0.3999095964695409,-10.501330814457354,0.7100521053831642,11.533926476397191,0.3227167444513243,3.6199889704308665,-0.25978399641472016
0.39024165029355595,-10.603297011711527,0.6816284364349604,11.54530711684517,0.32047070225671115,3.6205006238255986,-0.2702256796210251
0.37923459667670173,-10.71203131943885,0.6516300725442339,11.531348370577525,0.31850255759738305,3.625395547510895,-0.2772053829989297
0.3669051747762178,-10.815857755097033,0.621313475674802,11.497293550861741,0.3167017274959022,3.6344653198711345,-0.27990851107365855
0.3532558773561788,-10.902470438520593,0.5919481612245159,11.45017682114258,0.31492687293652466,3.647184727913063,-0.2775935296541291
0.3383245917837743,-10.960682297792356,0.5646828039083295,11.397544623822746,0.31302971238037514,3.662770553537939,-0.2697250991522666
0.3222352481809846,-10.982090094908287,0.5404232655144734,11.346323077624527,0.3108773910556122,3.6802251399308483,-0.25611228092232174
0.30523935194208096,-10.962331456237562,0.5197458569890091,11.30198883137817,0.308369423859916,3.6983593541484066,-0.2370229616357254
0.2877359671367368,-10.901705313709096,0.5028606124572287,11.268099105268476,0.30544691468341095,3.715808703158902,-0.21324593498318134
0.270257924252682,-10.805082479444273,0.48962710605081194,11.24622031360863,0.30209436608952545,3.7310743318475694,-0.18607830117315693
0.25341501874875466,-10.68110506386478,0.47961223832258626,11.236139109056372,0.2983336720650051,3.7426063972165933,-0.15722857354493508
0.23779466828225665,-10.54085575527197,0.47217502883729334,11.23626589423422,0.29421298193818385,3.7489414517055386,-0.12864569128468675
0.22383184189289862,-10.396253285471897,0.4665605796023476,11.244112586660975,0.2897933525416305,3.748889442535608,-0.1023036836901558
0.2116701272688616,-10.258490290420228,0.4619864569175919,11.25674128962297,0.28513615866470243,3.741737281867063,-0.07998370800550819
0.20104153433593977,-10.136780212786299,0.4577094905204306,11.271115764371698,0.2802942283864532,3.727432512878314,-0.06309400643981371
0.19119256676073365,-10.03759147675335,0.4530675572540209,11.284336857076989,0.27530704834019776,3.706698814035326,-0.05255452285488771
0.18087927684518215,-9.964398931626317,0.447497267438247,11.29376913165016,0.270200095783385,3.681045634238697,-0.04875295751503024
0.1684449951990199,-9.91789000980801,0.44053419515042314,11.297127027907697,0.2649868183754785,3.6526506529311265,-0.05156061582376923
0.15198135257773301,-9.896480368616466,0.43180394405724754,11.292559281158251,0.25967192816573925,3.6241172467489253,-0.060384188002226086
0.12955666417137884,-9.896969652540093,0.42101197799943024,11.278763448936997,0.25425523718154835,3.5981359198984526,-0.07422548318002188
0.09948034218058951,-9.915179520156363,0.40793757241177214,11.255136718966234,0.24873594141837646,3.5771061622609306,-0.09172599110663388
0.060560159910218736,-9.94647522602261,0.3924340396309773,11.221947882297963,0.24311752242610457,3.5627920248390317,-0.11118604006515699
0.012305225066792163,-9.986121117879318,0.37443268677428315,11.18047190771915,0.2374126349103027,3.556070750877508,-0.1305672544821551
-0.044967456271464507,-10.029484906031566,0.353945307835522,11.133035815617873,0.2316468261099468,3.5568221476690853,-0.1475060109062603
-0.11015026605354297,-10.07216255793606,0.3310596780522322,11.082924751566583,0.2258593181299144,3.5639783812262755,-0.15937617801219617
-0.18149013369058556,-10.11010499562847,0.3059253184215509,11.034132605271987,0.22009991007457486,3.5757309385873586,-0.16343511799594845
-0.256835113512482,-10.139788144398008,0.2787303381210846,10.99094143086613,0.2144214971280198,3.5898485890910643,-0.15706580365072706
-0.3339286581807531,-10.158442348082382,0.24967720434336502,10.95741421369692,0.20887021665044164,3.6040601920734723,-0.13809824248653307
-0.4106869095066472,-10.164312411064625,0.21896474730819968,10.936877506615172,0.2034755973499021,3.616427164432618,-0.10516252551459356
-0.4854023069936134,-10.15687146715874,0.1867814828305345,10.931475829436652,0.19824323408693753,3.6256402242444947,-0.05800504305313714
-0.5568480388474726,-10.13693618332727,0.15330860677494176,10.941903441205051,0.1931518436185589,3.6311968785768034,0.002306897942774841
-0.6242871546469052,-10.106626767421856,0.11872411854346508,10.967337055710754,0.18815504931427976,3.6334320765191603,0.07335704685257381
-0.6874145349830972,-10.069133674679193,0.08319841955081855,11.005585078401248,0.1831875360206511,3.633405468445596,0.15156516226273534
-0.7462651251572421,-10.028320465274469,0.046875044864747716,11.053408233112922,0.17817444860850887,3.6326665118947727,0.2325767652466861
-0.8011139664939927,-9.988195688606314,0.009838879403828923,11.106944376130318,0.17304331964664707,3.6329400970431394,0.31179629932605474
-0.8523822607177598,-9.952361831482527,-0.027918786808420294,11.162138233413888,0.16773718837987492,3.635786836269409,0.38496249545777406
-0.900553028086438,-9.923503882746163,-0.0665257105615672,11.215094743242993,0.16222742745096194,3.642290054537852,0.44865245305941137
-0.946099226163983,-9.903048232425935,-0.10623465966837037,11.262321339254699,0.1565243380457523,3.6528309042191323,0.5006250869471339
-0.9894239344252956,-9.890995236592328,-0.14740536538190419,11.30083655191081,0.15068244089289,3.666976011760399,0.5399570818765906
-1.0308190548592135,-9.885988074987539,-0.19046285372876404,11.328230149518792,0.14479851296476057,3.683511867926902,0.5669763912583476
-1.0704406835722042,-9.885555334683938,-0.2358337370536764,11.34269588685129,0.13900047011990077,3.7006056407759673,0.5830313499952621
-1.108301094240039,-9.886509707637712,-0.2838622664995834,11.343123607994027,0.13342869882461075,3.71608038278545,0.590160984153311
-1.1442651880211367,-9.885392688966473,-0.3347069288715211,11.329232122960088,0.1282125077880969,3.7277407606627313,0.5907340249894513
-1.1780466990678171,-9.878913594144253,-0.38822480154223415,11.301771884323806,0.12344704141823354,3.7336982825240597,0.5871224433084579
-1.2091979836808102,-9.864284216129386,-0.44385916348767845,11.262693712066973,0.11917522139554902,3.73263270897282,0.5814538196061929
-1.2371028178867784,-9.839429703298674,-0.500559045729388,11.215239466129054,0.11537840583074715,3.7239502931889747,0.5754619139130234
-1.2609874984074678,-9.803058928171469,-0.5567647161429936,11.163864990616226,0.1119774860931603,3.7078227585577483,0.5704316372201119
-1.2799693738494686,-9.754628223931828,-0.6104878280137446,11.113930657802436,0.1088440353566223,3.685112336297873,0.5672146296146876
-1.2931525768266299,-9.69423722892373,-0.6594938223969175,11.071146787338233,0.10581988571593927,3.657209323821934,0.5662871074526081
-1.2997706203244834,-9.62251200901176,-0.7015651100013444,11.040833199162575,0.1027421031095035,3.625827342047685,0.5678224137347302
-1.299353397292137,-9.540513211984996,-0.7347961573139624,11.027088244449782,0.09946965494757751,3.592796813789614,0.5717579580301265
-1.2918898130424665,-9.449692289807045,-0.757860561158948,11.03202769946776,0.09590759860375973,3.559900644432758,0.5778469098218304
-1.2779489252871188,-9.351895672012928,-0.7701974271913479,11.055254159934652,0.09202483903467298,3.528768286352602,0.5856945936301727
-1.2587235036504971,-9.249351512399684,-0.7720806368667866,11.09366457099847,0.08786185369552373,3.5008213819870755,0.5947855542784951
-1.235976956967381,-9.144626512972323,-0.7645659954268079,11.141704362151396,0.08352656365414912,3.477256611170637,0.6045130512425729
-1.2118843443403968,-9.040485269681268,-0.7493303439041639,11.19205359571919,0.07917809317832816,3.4590295895670082,0.6142185334028848
-1.1887876317378294,-8.939656464177007,-0.7284388657979185,11.236647520259293,0.07500077650577197,3.4468201228970803,0.6232429121796694
-1.1689087337071644,-8.844562894907648,-0.7040931377543247,11.267911930913412,0.07117338296718081,3.4409796470110137,0.630986710190006
-1.1540685027658208,-8.757040459466797,-0.6784039118947149,11.27993057402826,0.06783900656290748,3.441453586538244,0.636966376738906
-1.1454703466322662,-8.678148201550693,-0.6532299265855211,11.26939377644201,0.06508139545189656,3.447718673787696,0.6408586195742063
-1.1435798948974403,-8.608087084969691,-0.6300910582806267,11.236113057140503,0.06291105970952308,3.4587477604786736,0.64252336765151
-1.148120894745096,-8.546258336199292,-0.6101491944122551,11.183043075938663,0.061262452314309615,3.47304324529703,0.6420037798753314
-1.158179482845215,-8.491437118273334,-0.5942311531589479,11.115791628613206,0.060001239641705284,3.4887479818772213,0.6395061148215253
-1.172391581975433,-8.442043497478462,-0.582867298312739,11.041705276608653,0.058938870964456526,3.503838736299632,0.6353656415825144
-1.189174575150012,-8.396461996112002,-0.5763251117819955,10.968697446817862,0.05785084973161492,3.516378051199847,0.6300080713893187
-1.2069579314697665,-8.353372264253494,-0.5746287150550065,10.904047148744349,0.05649484466161142,3.52478494925291,0.6239152071668964
-1.224371658961212,-8.312026703006012,-0.5775642649483106,10.853349140937574,0.054625576537718726,3.528070077727521,0.6175989529919964
-1.2403694536637775,-8.272463705303128,-0.5846825387927892,10.819815379122877,0.052005277600828306,3.5259959372232967,0.6115851721500614
-1.2542762662375102,-8.235568418527388,-0.5953094266109525,10.803980880823516,0.048410145901309244,3.5191218900399917,0.6063999554496524
-1.2657759410959268,-8.203016862433143,-0.6085792023177161,10.803847247724727,0.0436353038227019,3.5087328153176824,0.602551724970816
-1.2748533720994681,-8.17705287247683,-0.6234929676236624,10.815364346233729,0.037501051892569484,3.496649958447274,0.600498430954449
-1.281714131251643,-8.160143683097663,-0.6389999083903167,10.833144829476225,0.02986315702211691,3.484959455060234,0.6005977698039181
-1.2867033758791167,-8.15457879814724,-0.6540874143030844,10.851260234917417,0.02062835561795574,3.475707823315971,0.6030434809033681
-1.2902312889143712,-8.162050102514687,-0.6678610421332813,10.863946511244329,0.009773662349919441,3.470610499578651,0.6077964054078144
-1.292717644700237,-8.183319701588548,-0.679601521435962,10.86614336132726,-0.0026344935572628863,3.470831602162376,0.6145286131633383
-1.2945524008299734,-8.218013860552349,-0.6887901595718702,10.853793182741889,-0.016427862823424923,3.4768619265732017,0.6225967268507518
-1.2960717106785757,-8.264597784575873,-0.6951076807735744,10.823943284097396,-0.031337643242370844,3.4885167649682014,0.6310648302486187
-1.2975408057065374,-8.320516638135986,-0.6984136336905039,10.774689999897682,-0.04701405447863239,3.505037935654508,0.6387849178781193
-1.2991397620165386,-8.382487614186388,-0.6987204681476332,10.70507193756189,-0.06306383811724403,3.5252830928181202,0.6445364827720884
-1.3009480104131994,-8.446861573576788,-0.6961712616935111,10.614966477526751,-0.07909921512247982,3.547956577598775,0.6472078986543296
-1.3029264017892737,-8.509976998886993,-0.6910269239314244,10.505050996662009,-0.09478753997023742,3.5718378312441437,0.6459918089053982
-1.304901790671486,-8.568436060103808,-0.6836637711712235,10.376827332191722,-0.10989070605164424,3.5959664437622356,0.6405579023095648
-1.3065594340174995,-8.619270040731815,-0.6745748236422158,10.232685196606528,-0.12428695558592587,3.619756602123286,0.6311676803386814
-1.3074537336387835,-8.660002274684857,-0.6643667707643844,10.075917905833084,-0.13797306815767693,3.6430310414540115,0.6187018806549317
-1.3070462566595453,-8.688660250361837,-0.6537418420727044,9.910638622907822,-0.1510497965715647,3.6659843222562274,0.604584768622946
-1.304774806489474,-8.703782608827318,-0.6434593325933421,9.741555083747933,-0.16369546213341687,3.6890880546225064,0.5906073802504792
-1.3001542352709679,-8.704478125246244,-0.6342787076347697,9.573626001646913,-0.17613322026929562,3.7129618016279995,0.578672559541743
-1.2928950746403918,-8.690527655555139,-0.6268917846594949,9.4116660583939,-0.1885963099961518,3.7382258583289487,0.5705033962298656
-1.283023208648405,-8.662532318844768,-0.6218577594812684,9.260016171257728,-0.20129549944159356,3.7653607243014893,0.5673671060929495
-1.270975058650811,-8.622043445995203,-0.6195521289616918,9.122324695342952,-0.21439239172463623,3.794590406443114,0.5698646664536573
-1.2576412020359797,-8.571627160002627,-0.6201378120431963,9.001481569552686,-0.22798263291473406,3.8258099247713933,0.5778245238597532
-1.2443361335242502,-8.514811593191272,-0.623559312917765,8.899660397287274,-0.24209247849927765,3.858573330375982,0.5903213039289703
-1.232681512953868,-8.455874898011333,-0.6295546090419315,8.818397022899301,-0.25669001791849294,3.8921467708112094,0.6058173169245874
-1.2244050040451577,-8.39948220382535,-0.6376759214798463,8.758646424787797,-0.27170881740041225,3.9256162134893153,0.6224039030050461
-1.22108311317953,-8.350233379042466,-0.6473091315883881,8.720781544419822,-0.2870785585247524,3.958030647445355,0.6380988669341111
-1.2238651880607274,-8.31219255919811,-0.6576839726642046,8.704533151146256,-0.3027546465056081,3.988546184583398,0.651145417895848
-1.2332320955926603,-8.288495297590181,-0.6678740317643576,8.708892008968473,-0.3187394627831013,4.016539456964339,0.6602589390779929
-1.2488360327596748,-8.281100063622368,-0.67679557648553,8.732042689304354,-0.3350912800153412,4.041672836987044,0.6647824706881542
-1.2694597484939039,-8.290705876006149,-0.6832221346671107,8.771361472789383,-0.35191966104743755,4.0639035243489054,0.6647300284526974
-1.2931136330698245,-8.316838241741614,-0.6858339253994689,8.823532235102133,-0.36936959208189646,4.083447468489877,0.6607203683274543
-1.3172624123752241,-8.358037985567394,-0.6833166919546084,8.884774006551721,-0.38759608064811435,4.1007052540786715,0.6538190736578161
-1.3391480151610624,-8.412109757333406,-0.6745102644979466,8.95115956235889,-0.4067316146883053,4.116175000435749,0.6453235274149496
-1.3561486985867892,-8.476340986845353,-0.6585908007915964,9.018949115237886,-0.42684723039194267,4.130356294622757,0.6365311386388601
-1.3661100437719678,-8.547656669895877,-0.6352565172070053,9.0848718833823,-0.4479115279769756,4.143667277023028,0.628532128356668
-1.3675900183769685,-8.622697262116462,-0.6048756339132044,9.146297944338171,-0.4697537341323952,4.156376757436068,0.6220597612351
-1.3599848237647214,-8.697847624867936,-0.5685546769781489,9.20128981641053,-0.4920416864214556,4.1685636752433375,0.6174159574183659
-1.3435295167937458,-8.769290691083109,-0.5280942208524043,9.248550036063877,-0.5142862496851719,4.180111988941656,0.6144767676402181
-1.319191454321263,-8.833140293642053,-0.48581625101890086,9.287304604940546,-0.5358793467786074,4.190736185873044,0.6127678964309611
-1.2884952737884752,-8.885683962739,-0.44427936804100643,9.31716317761971,-0.5561650002399763,4.200034126588374,0.6115914847115032
-1.253328268520424,-8.923724780243555,-0.4059263306342011,9.3379995358476,-0.574532022502232,4.207561461608112,0.6101795024440385
-1.2157671356919793,-8.944950253292554,-0.3727294914707737,9.349841710102288,-0.5905096524371414,4.212902151116776,0.6078453094458455
-1.177956700471949,-8.948248892276942,-0.34590363086744397,9.35280035109596,-0.6038457580900523,4.215725433122836,0.6041087004294174
-1.1420389703271248,-8.933901592058263,-0.32573997709994323,9.34702064940943,-0.6145524419681887,4.215824277392962,0.5987766764809279
-1.1101086886340528,-8.903588388200427,-0.31159078139775037,9.332664125129362,-0.6229105959933703,4.213123911773882,0.59196788244795
-1.0841566310508712,-8.86019009800053,-0.3020063288588466,9.309910907277782,-0.6294339661652651,4.207669491411698,0.584081729946736
-1.0659702104959115,-8.807430409855241,-0.2950020949821065,9.279008852834817,-0.6348001685263928,4.199599670246677,0.5757198746258952
-1.0569764018981809,-8.749391740669598,-0.2884110899321191,9.240344705252927,-0.6397608495314996,4.1891152834226055,0.56757579260358
-1.0580427412488522,-8.690024741858522,-0.2802627443761529,9.194552937002616,-0.6450466849014442,4.176448795942676,0.5603148942425127
-1.0692741383686488,-8.632721851832155,-0.26912466305062266,9.142640212359924,-0.6512827588894157,4.161844949015581,0.554466965972123
-1.0898560321012638,-8.580035067132947,-0.25434950648178944,9.086094522264743,-0.6589270156834715,4.14554897907736,0.5503497046325357
-1.1179979017499824,-8.53355584765847,-0.23618481399485697,9.026943152087568,-0.668239523071705,4.1278009307914525,0.5480330907676491
-1.1510204027781048,-8.493954424183494,-0.21572499721772898,8.96771623689183,-0.6792854064444297,4.108835210499531,0.5473486499947757
-1.1855999270399231,-8.461138137111087,-0.19470855055634131,8.91129394184557,-0.6919657243072238,4.088873146205667,0.547936927808873
-1.2181523167599304,-8.434469936108897,-0.175191599130114,8.860631407360593,-0.7060683292620455,4.068111416075433,0.5493229442458876
-1.2452968244721483,-8.4130117686466,-0.1591529593172825,8.818416568192513,-0.7213252478593005,4.046708545511084,0.5510045014629951
-1.2643175428428493,-8.39574733713366,-0.14810106328049616,8.786715848549125,-0.7374641573483245,4.024775418664916,0.5525369039099761
-1.273535694784423,-8.381751387446826,-0.1427542619556093,8.766683569508828,-0.7542437283703577,4.002367901045484,0.553599762497826
-1.2725231205306307,-8.370299780872443,-0.14285303077823305,8.758401663089778,-0.7714705298417933,3.9794905059869565,0.5540355602585874
-1.2621220151114958,-8.360920257770493,-0.14714093215818574,8.760885870666382,-0.7889999301197529,3.9561052329978263,0.5538565687361167
-1.244266344298046,-8.353391921090541,-0.15352412953761946,8.772267994838867,-0.8067273697254843,3.932143089571326,0.5532200206367528
-1.2216396023053537,-8.347704338828532,-0.15938958011212062,8.790124545842742,-0.8245747990675205,3.907517029093534,0.5523776804720913
-1.1972314968560038,-8.344001218347389,-0.1620327138082256,8.811903975786345,-0.8424761668929249,3.882135616309989,0.5516092757195072
-1.173874530384483,-8.342507547508989,-0.15912211273195484,8.835369471307319,-0.860360910628833,3.8559170247823977,0.5511504353251842
-1.1538435568042738,-8.34347259667934,-0.14911935141495478,8.858985501424543,-0.8781368617977311,3.828809586870591,0.5511290419747886
-1.1385798970308292,-8.347116276039108,-0.13157732543830308,8.882173271282985,-0.8956727901768041,3.8008080276866023,0.5515199450184586
-1.1285756621185945,-8.353599964057732,-0.10726037556601362,8.9054060604121,-0.9127887909012898,3.7719696127796025,0.5521278063845203
-1.1234198194656306,-8.36302394965878,-0.07805695704506851,8.93012793128676,-0.9292593620764519,3.742418855631221,0.5526033878646684
-1.1219816339095217,-8.375434507756768,-0.046690570664645194,8.958508310327598,-0.9448361139106453,3.7123377170127463,0.5524926605315098
-1.1226892358760359,-8.39085798230177,-0.01627260996008167,8.993071330697889,-0.959289232431157,3.6819451030326573,0.551314367403415
-1.123847162473768,-8.409325019396904,0.010226277271498429,9.036256076709526,-0.9724620742861098,3.6514720352509884,0.5486542715457662
-1.1239370238513635,-8.430894309363984,0.03049041915782413,9.089966933696846,-0.9843262986749225,3.621139053023979,0.5442602989458416
-1.1218529052918282,-8.455659886494734,0.043265904161521374,9.155197682373558,-0.9950251677430714,3.5911469395559714,0.5381207817023221
-1.1170398120407348,-8.483744289037675,0.04858870951367656,9.231787000976963,-1.0048936375840851,3.5616773316867523,0.5305094556422231
-1.109522452752885,-8.515276749801714,0.0477953097724439,9.318361237781076,-1.0144469005182812,3.5328998240408644,0.5219831965781437
-1.0998309265916113,-8.550372187440287,0.04331338772984182,9.41249039488706,-1.0243352878330072,3.504979285649705,0.5133279551289532
-1.0888440522296543,-8.589098725104197,0.038266953206632336,9.511017834788916,-1.0352675003226008,3.4780750722659057,0.505454709935696
-1.0775848635640406,-8.631443143060883,0.035962313862479514,9.610513277743138,-1.0479103677956982,3.452335053514235,0.4992612459574607
-1.0670060718502998,-8.67725576574985,0.03934423276705592,9.70773162434788,-1.0627784305229824,3.4278856196816845,0.4954821413507279
-1.0578055908666348,-8.726187483437172,0.05051654897128402,9.799989779714746,-1.0801307711370944,3.404826338323334,0.49455513007879554
-1.0503001004769634,-8.777624339551599,0.07040809400897842,9.885398336968233,-1.0998964380390928,3.3832304085001077,0.49652896580306266
-1.0443755373640637,-8.830646286427976,0.09863776147323725,9.962918506913072,-1.1216459702910981,3.363152697891166,0.501031922951361
-1.0395167353970818,-8.884034214953848,0.1335980083240021,10.032285200696016,-1.144623704272626,3.3446393913767576,0.5073098729693157
-1.034907969579355,-8.936340333401482,0.17273820696720857,10.093828236849939,-1.1678422451988337,3.3277369304775917,0.5143310753298018
-1.0295858554625896,-8.986015693236709,0.21299312350743616,10.14825343351518,-1.1902285128561636,3.312496295456256,0.5209417739783266
-1.0226173960550682,-9.031570444438291,0.25127305191166155,10.196409587201572,-1.2107955282496785,3.298974907807655,0.5260465722296257
-1.0132718239962002,-9.07172425737379,0.28492334568364197,10.23908349831332,-1.2288057004014135,3.2872354632462932,0.528780948599274
-1.0011568925784968,-9.10550993041038,0.3120742656644873,10.276825336436389,-1.243894956497885,3.2773467747523393,0.5286450051898974
-0.9862963812868831,-9.132320995536752,0.33183251935071667,10.309841073822877,-1.25613417324209,3.269385915982383,0.5255766315470621
-0.969133070760469,-9.15190018756704,0.3443033199759789,10.337954517490312,-1.2660182800306696,3.263442027607055,0.5199518559179915
-0.9504554851899101,-9.164290117724473,0.3504624331776875,10.360649656446757,-1.2743851458317796,3.259618074400662,0.5125138580013754
-0.9312589755630525,-9.169766889901194,0.3519209317923565,10.37719128380319,-1.28227749828084,3.2580285144630987,0.5042440646542248
-0.912567288540084,-9.16878325384301,0.350637243149264,10.386803689605703,-1.2907712222983236,3.2587941878631437,0.4961993276176374
-0.8952464603548135,-9.161921902013098,0.34863156424337455,10.388868412591453,-1.300795713737418,3.2620290776082306,0.48934474419486573
-0.8798474431802714,-9.149870045109706,0.34774866443218827,10.38310354515856,-1.3129784343102546,3.267825632070145,0.4844122916589131
-0.8665054596020063,-9.133409446431848,0.34949482362946543,10.36969302771342,-1.3275378139393312,3.2762399349893365,0.4818073522296058
-0.8549129223037728,-9.113398943396751,0.35495289891496795,10.349337928855517,-1.3442450071956655,3.287278935092112,0.4815751851088545
-0.8443696912717767,-9.090755911804411,0.3647611772025131,10.323220821815841,-1.3624635303410682,3.300892280171584,0.4834280333447835
-0.8339036249785123,-9.066410645885288,0.37912988082047777,10.292895242184601,-1.3812617042696191,3.3169686526016506,0.4868230440399796
-0.8224421947260188,-9.041252787797442,0.3978684993876944,10.260122887666604,-1.3995804676402834,3.335331062851817,0.4910740556079234
-0.8090083982628301,-9.016056004515601,0.42040211564587826,10.226691506739765,-1.416423760210552,3.355724957911962,0.49547420805328757
-0.792909378286579,-8.991420269424266,0.44576983806551834,10.194258543141519,-1.4310381588987966,3.377799685333689,0.4994077502239251
-0.7738855076697484,-8.967719234913357,0.4726149626304963,10.164233285122181,-1.4430455800491047,3.401083088526458,0.5024313394721467
-0.7521914473276698,-8.945073841821726,0.4991945154858328,10.137718092285022,-1.452510499203629,3.4249599293124056,0.504314213149292
-0.7285917802623071,-8.923340216946393,0.5234449781294567,10.115494486106378,-1.4599312475269035,3.448671913091026,0.5050340498455836
-0.7042653958164049,-8.902118738607252,0.543136077551614,10.098036459852636,-1.4661596705405968,3.4713495273804202,0.5047324847501063
-0.680630999353354,-8.880756823163798,0.5561245027175454,10.085526704906988,-1.4722652944571746,3.492078313594352,0.5036397905397143
-0.65912430377792,-8.858354075906037,0.5606885030064966,10.077859787377276,-1.4793661466677144,3.5099933042338294,0.5019827759446418
-0.6409686397822439,-8.833759409204935,0.555894912975285,10.074629805618743,-1.4884562560931935,3.5243796967540684,0.4998918308058566
-0.6269818799121156,-8.80556022999522,0.5419267013944483,10.075102092989797,-1.500256248823738,3.5347575640847477,0.4973237901644015
-0.6174551641233051,-8.772089427777216,0.5202942164832846,10.078195624946613,-1.5151126603519307,3.540932794815488,0.49401682330830843
-0.612121307860291,-8.731445628518042,0.49385895229565185,10.082487655396582,-1.532959594269275,3.543005414450488,0.48948971951551984
-0.6102161319544654,-8.681575388090739,0.466624289319391,10.086276928212982,-1.5533482815051722,3.5413347509023017,0.48309438606059873
-0.6106189387211848,-8.620420328872019,0.4432875442234774,10.087705950367267,-1.5755356463727,3.536472442903894,0.47412293343880846
-0.6120453857066493,-8.546128756568434,0.42860050493562685,10.084940445420374,-1.598612270553767,3.5290752527521367,0.4619615714313259
-0.6132588827085214,-8.45733650744535,0.42663499586851167,10.076381553624056,-1.6216419857485154,3.519818596354306,0.44627288931466336
-0.6132630060428093,-8.35346149734579,0.44008185849360576,10.060863189647351,-1.643784074212753,3.5093196138786955,0.42717710293381994
-0.6114445193751543,-8.234965563070947,0.46971539085073255,10.037809787959702,-1.6643785525222428,3.4980879522031914,0.40539592659438095
-0.6076458854746568,-8.103504153955802,0.5141315954830555,10.007297197910482,-1.682986388969389,3.486498803214194,0.382318117562856
-0.6021609974045139,-7.961912869371584,0.5698271409504679,9.970025692202771,-1.6993911000429471,3.47479135762522,0.35995319538137766
-0.5956588618080977,-7.813990883007991,0.631625799716078,9.927192342514834,-1.7135747751131383,3.4630828327003806,0.34075336299549697
-0.5890524985657818,-7.664102643827324,0.6933925263080433,9.880276396512972,-1.725681168062649,3.4513906898097435,0.32731113106052423
-0.5833394181208422,-7.516690212392151,0.7489116656262639,9.830803480128102,-1.7359805078485744,3.4396595706107367,0.3219715530267068
-0.5794424659519732,-7.3757841224365155,0.7927678482767008,9.780099834203842,-1.7448377484188355,3.427784055257143,0.3264229293360322
-0.5780793631053822,-7.244639926755443,0.8210700459026399,9.729117096643883,-1.75269020196058,3.4156319385915777,0.34134377685219075
-0.5796799578334846,-7.125539476940945,0.8319010201171768,9.678319393733203,-1.760028819165389,3.403061139713048,0.3661795314677566
-0.5843594910265923,-7.019765748595261,0.8254357669559568,9.627663881179695,-1.7673789756142289,3.389932583406591,0.399105151404475
-0.5919463663621704,-6.9277165465035075,0.8037377250605572,9.576658644852637,-1.7752787773067231,3.376123908550991,0.4372007657956481
-0.6020521032496366,-6.849076910225487,0.7702967683455787,9.524469506241257,-1.7842457918271049,3.3615380043492222,0.4768268860719016
-0.6141656719339662,-6.783012306942983,0.7294142643785324,9.470072159101482,-1.7947346192016855,3.346115792106979,0.5141434539996235
-0.6277516823551282,-6.728331327254007,0.685561457205625,9.412411969718054,-1.8070863989511896,3.3298502202211666,0.5456809297493098
-0.6423332073421036,-6.683614024522138,0.6428260339474053,9.350558821672735,-1.8214768216891988,3.3128033639605485,0.5688581407338136
-0.6575469541863613,-6.647294877585965,0.6045263179551397,9.283830317991834,-1.8378734060733148,3.2951207517274717,0.5823514163757075
-0.6731675497044373,-6.617722403460877,0.5730206212672657,9.211866217843163,-1.8560138509748374,3.2770388072550656,0.5862525385082552
-0.6891041688008832,-6.593201364130221,0.5496911302734208,9.134641275149509,-1.8754168450673308,3.258876146356403,0.5819908036382594
-0.7053777907721167,-6.572038273469579,0.5350512168208819,9.052420123686924,-1.8954300263039305,3.2410042567608093,0.5720359078204001
-0.7220856415830482,-6.552587541039733,0.5289150549074325,8.965657582437938,-1.9153096826953286,3.223797408855859,0.5594337514694973
-0.7393602053358084,-6.533306403487368,0.5305753916144729,8.874888198337233,-1.9343184605646349,3.2075705663208023,0.5472585699167837
-0.757326099717861,-6.5128030282026526,0.5389523109411835,8.780632534676695,-1.9518199467146342,3.1925120502054676,0.5380763641676944
-0.7760612899420245,-6.489879072105812,0.5526983555615679,8.683345927260461,-1.96735280494014,3.178633392441757,0.5335135903808881
-0.7955662933483412,-6.463554604226437,0.5702666336731372,8.583414472536544,-1.9806693197999967,3.1657374345788787,0.5340007516999223
-0.8157498807515203,-6.433081999618497,0.5899654603259367,8.481193200420677,-1.991740068865121,3.1534202196264656,0.5387315597478181
-0.8364346052830661,-6.397955926412713,0.6100256669839516,8.377053187675454,-2.0007251783279543,3.1411037309444216,0.5458421848459745
-0.857382373082068,-6.357930946489221,0.6286999419175457,8.271435723818762,-2.007927459071141,3.1280991274894827,0.5527815990813146
-0.8783348264038302,-6.313057568716544,0.6443952505527631,8.164905624067138,-2.0137344116985934,3.1136899750597125,0.5568112609914804
-0.8990566533641619,-6.263741234068417,0.655821564150337,8.05821742642005,-2.018561951309531,3.097225626943947,0.5555487534885094
-0.9193707470371948,-6.2108177317137105,0.6621281236705485,7.952391309886824,-2.022805673704611,3.0782076139252905,0.5474602324397562
-0.9391774213165376,-6.1556208995333375,0.6629987209117638,7.848800075007199,-2.026806975919994,3.0563574712613666,0.532214717169637
-0.9584552347133027,-6.100000374988516,0.6586824638852494,7.749219245205354,-2.0308335737639434,3.03165263439064,0.5108343328381315
-0.9772466090047618,-6.046255502087989,0.6499505400000039,7.65580281891642,-2.0350747156033333,3.0043252206145894,0.4856060362318723
-0.9956325109546245,-5.996945949069726,0.6379831991243433,7.5709410394641194,-2.0396474789772987,2.9748243743890916,0.4597590911341348
-1.0137026816910881,-5.954597679158901,0.624206532397445,7.49700731030297,-2.044611043865834,2.943755517798404,0.43695453796073835
-1.0315206686637317,-5.921322866450039,0.6101080369763839,7.436012305641164,-2.0499796696621453,2.9118088817764294,0.42067212737531684
-1.0490896004166546,-5.898439247426749,0.5970655978134443,7.389250811869872,-2.055737397940774,2.8796995864752772,0.41360383350241026
-1.0663189311017467,-5.886154056539151,0.5862169800521749,7.35700302403764,-2.061843140540626,2.848126542459494,0.41716345407223
-1.0830015579370529,-5.883397670911665,0.5783858226834863,7.33837582279197,-2.0682364367060475,2.817754947823239,0.43120228368836894
-1.09880806958204,-5.8878567988987704,0.5740629227397254,7.3313144548467095,-2.074837599618138,2.7892076493275226,0.4539837142175505
-1.113305674003511,-5.896225786974238,0.573431541031173,7.332804625472689,-2.081551564808186,2.763050018218274,0.4824273302847978
-1.1260058704038427,-5.904668877976244,0.5764184351777996,7.339240416438745,-2.088275117376767,2.739762043959418,0.5125860332094879
-1.1364331042378393,-5.9094213032267975,0.5827510941742645,7.346898146212365,-2.094906085414714,2.7196859528335042,0.5402739689313056
-1.1442029524277841,-5.907430575795849,0.5920056999220515,7.35242282973382,-2.101353194634196,2.7029606344217534,0.5617324181172475
-1.1490942790645977,-5.896933335030604,0.6036396077361351,7.353259756918742,-2.1075428585604667,2.6894621023913428,0.5742144692110343
-1.1510991880241936,-5.877842380140247,0.6170079642781902,7.3479358471827325,-2.1134231314990037,2.6787595907136845,0.5763877860796711
-1.1504413478836895,-5.851870149645069,0.6313753123088632,7.336165123758383,-2.1189617053458627,2.6701115384972,0.5684936425363166
-1.1475584381541686,-5.822332941297949,0.6459342375492182,7.318759029352463,-2.124144134267111,2.6625085584464645,0.552245351073241
-1.1430521016809034,-5.793649780001112,0.6598422882263694,7.297373066684896,-2.1289728120827065,2.654768205996071,0.5304924830280795
-1.1376148437193532,-5.7705846745001415,0.6722789800321394,7.274131011405613,-2.133467996414589,2.6456721981076,0.5067182527070652
-1.1319469779629665,-5.757356665586588,0.6825155459719167,7.25120162410231,-2.137670862360965,2.6341283173949717,0.48446435852462333
-1.1266807918321904,-5.756766088591598,0.6899845805746292,7.230397513126481,-2.141646807001328,2.619330316391586,0.4667888184859254
-1.122323684395075,-5.76949642856628,0.6943330882072946,7.212866480095394,-2.145487017660834,2.6008868368366183,0.45584725017517325
-1.1192267206482018,-5.793733544463349,0.6954474567843115,7.198913402762333,-2.149307208511857,2.5788930895782514,0.45265735204179564
-1.1175800214210856,-5.825192905754574,0.6934454170320955,7.18797182987395,-2.1532391563767153,2.553925961068415,0.45706699650685834
-1.1174287433258303,-5.857597054563305,0.6886367323483872,7.178727367357685,-2.1574202576398047,2.5269592228333018,0.4679103988262162
-1.1187027523337958,-5.883545190038674,0.6814604826448972,7.1693488181504,-2.1619760460162682,2.4992048627237584,0.4833067973049287
-1.1212501501370196,-5.895659866738888,0.6724118498576368,7.157795542614782,-2.166998405216795,2.471912582557171,0.5010361989783811
-1.124867843583742,-5.887809854211489,0.6619723933310194,7.1421367241413485,-2.1725217007084856,2.4461593833834048,0.5189188474940439
-1.129322722581719,-5.856188931919725,0.6505556752273207,7.12082801551124,-2.1784982056219824,2.422672147288845,0.5351324456244151
-1.1343653946941687,-5.800065029658623,0.6384757796519779,7.09291242178257,-2.1847803989840457,2.4017160750634874,0.5484228378728194
-1.1397361909633508,-5.72203748628623,0.6259388041950408,7.058107386012967,-2.191115286008975,2.383062507931703,0.5581903284487362
-1.1451713254714988,-5.627760330595214,0.6130539610004774,7.016791641230238,-2.1971574887771173,2.3660426298590127,0.5644591491444639
-1.1504108325695577,-5.525155029013644,0.5998585323818261,6.969899647929812,-2.2025034950562747,2.349675941842643,0.5677558767806355
-1.1552122134465876,-5.423249431297497,0.5863510342230995,6.918766075469275,-2.206747117647857,2.332851932284461,0.5689317278222691
-1.1593656293656018,-5.330857390914731,0.5725282327846095,6.864955642375317,-2.209541734319435,2.314535309820256,0.5689669894443058
-1.162709789167248,-5.255347763935223,0.55842257549508,6.810129389627654,-2.2106659692703436,2.293966049458135,0.5687932346226426
-1.165142352893055,-5.201711852819941,0.5441344983319254,6.755952934509581,-2.210071643251511,2.27081566690558,0.5691578178738275
-1.1666221362788218,-5.172069849382792,0.5298535007561672,6.704057251699857,-2.20790821710768,2.245276055080549,0.5705456183124876
-1.1671643701228294,-5.165654177535573,0.515860732425782,6.65601535227728,-2.204516219779133,2.2180600092459817,0.5731592949429922
-1.1668278553492972,-5.1792235157907,0.5025086209656267,6.61331275863442,-2.200389044810196,2.1903080176709304,0.5769495335449412
-1.1656981426041424,-5.207783794388618,0.49017700343118314,6.577283042183334,-2.196106908723526,2.1634145685481996,0.58168189560536
-1.163868908877261,-5.245456944886547,0.47921226023758895,6.5490030803583,-2.1922547358383944,2.1388029962582458,0.5870208959480885
-1.1614254717851686,-5.2863308532966995,0.46986167740519574,6.529170924676111,-2.1893384422018856,2.1176919010199784,0.5926145911520693
-1.1584307801015385,-5.32514043222247,0.46221603125529864,6.5179878236475775,-2.187712620101665,2.1008965321561304,0.5981634852188576
-1.1549177866898015,-5.357705955825309,0.4561740213488395,6.515084837177652,-2.187533517556835,2.0887008359993287,0.6034658787589167
-1.150887043796784,-5.381116336720413,0.45143591588804527,6.5195183741316445,-2.1887452340692057,2.080819361662068,0.6084355867442246
-1.1463094258788347,-5.393702748816784,0.4475309065626514,6.529855929211643,-2.1911000294155647,2.0764517145713506,0.613095877512511
-1.141133574224622,-5.394880027144499,0.44387474558019974,6.544341102680843,-2.194209000749566,2.0744161632741367,0.6175537385156263
-1.1352968833528962,-5.384933436000175,0.43985047325384496,6.5611216635131075,-2.197613732339829,2.073334606198298,0.621962807483706
-1.1287389194806607,-5.364821056882754,0.43489966318196954,6.578501598945536,-2.20086594007677,2.0718373574177353,0.6264815940422134
-1.1214153791986916,-5.336022342138957,0.4286087678529777,6.595165580653561,-2.2035988328502394,2.0687486979258694,0.6312340428658844
-1.113309873402607,-5.300435042078276,0.4207757836314753,6.610337803267683,-2.2055778177534453,2.06322457285618,0.6362789329847621
-1.1044421550730539,-5.260307882738671,0.4114458983778028,6.623862574278572,-2.2067281001878083,2.05482650429769,0.6415936887289445
-1.0948682259016962,-5.218155697777318,0.40090789782617087,6.636180664451625,-2.2071291231417427,2.043523883953629,0.6470760486772934
-1.0846722325185438,-5.176628310714539,0.3896517908274079,6.648230631726442,-2.206985533814348,2.0296356563421414,0.652564588402878
-1.0739515801801824,-5.138316857416442,0.37829454795948547,6.661288888598589,-2.2065808146633206,2.0137297087531496,0.6578769954986948
-1.0627966706632712,-5.105504321639637,0.36748729070452196,6.6767703688679765,-2.20621708574626,1.9965002523411202,0.6628576442947772
-1.0512736052836982,-5.079909529184537,0.3578229375234232,6.696037121217709,-2.206157440686228,1.9786543300721096,0.6674277752950948
-1.0394100421791987,-5.062468791099672,0.3497591973870064,6.720225573327889,-2.2065761910901798,1.9608218442433416,0.6716256441988714
-1.0271902301057088,-5.053210115968473,0.34356943006355173,6.750127283271786,-2.207527428019453,1.9435039748998888,0.6756284501641372
-1.0145572398612943,-5.051253468153334,0.33932327610433877,6.786135402340116,-2.2089346828086938,1.927057090895323,0.6797475322542256
-1.0014209100036708,-5.054946742947886,0.33689377838432394,6.828251692979797,-2.2106041265436103,1.9117045939727422,0.6843931173039225
-0.9876713388929033,-5.062130011355125,0.3359825440088598,6.87614961783569,-2.212262322582693,1.8975679653699833,0.6900086108602126
-0.9731945750327915,-5.070480588931149,0.3361522466718039,6.929258537379038,-2.213605523906772,1.884703863108425,0.6969792227340946
-0.9578918452313909,-5.077890377480788,0.3368576353518351,6.986846953977831,-2.2143580504480416,1.8731426745988289,0.7055271066694075
-0.9417000716875784,-5.082803749837525,0.3374699289175743,7.048074513407072,-2.2143253195360297,1.862923437537354,0.7156099997797131
-0.9246104105953855,-5.084457675307462,0.3372946939671157,7.112006226676453,-2.213430449447205,1.8541187806643333,0.7268443160317793
-0.9066807839198004,-5.0829855391228635,0.33559136505793546,7.177604927346407,-2.211732807935903,1.846849152364917,0.7384766726566008
-0.8880366136062878,-5.079366840055082,0.3316050485451731,7.243729596865648,-2.2094203720373438,1.8412804264564644,0.7494226709490286
-0.8688566053567718,-5.075228443387421,0.32462252891242244,7.309164033540603,-2.206779454354452,1.8376022394367892,0.7583847963493162
-0.8493449471603446,-5.072526096209055,0.3140584527162857,7.372686932183159,-2.2041463738550386,1.8359867068735003,0.7640438844932755
-0.8296964629174474,-5.073162012613931,0.29956932130133057,7.4331721906426615,-2.2018498963374324,1.8365328957568294,0.7653014645036634
-0.8100626807943053,-5.078594215674323,0.28117999245476033,7.489682751846912,-2.200150415646103,1.8392016602873575,0.7615329652285602
-0.7905291169281594,-5.089513777850608,0.2593984659051515,7.54154361082631,-2.1991921295995245,1.8437583870110152,0.7528043712483572
-0.7711060757766481,-5.105644552969292,0.2352850249602689,7.588358572661991,-2.1989724233771235,1.849731717719953,0.7400028184377714
-0.7517340773541243,-5.125708105483857,0.21044132368339125,7.629988573215653,-2.199334824289434,1.856406364221602,0.724841296457953
-0.732300974671137,-5.147577118213201,0.1868934130072532,7.666498228981591,-2.1999902952206916,1.8628570871802819,0.7097149938452727
-0.7126652064724918,-5.168595544743853,0.1668614971313423,7.698084102970134,-2.2005596770918907,1.8680238465417311,0.6974122033415989
-0.692685253034757,-5.186025817376481,0.15243848582710282,7.725014895868421,-2.200634653645575,1.8708223023667379,0.6907152029905302
